SVM-light Version V5.01-TK-1.2
5 # kernel type
3 # kernel parameter -d 
1 # kernel parameter -g 
1 # kernel parameter -s 
1 # kernel parameter -r 
empty# kernel parameter -u 
0.4 # kernel parameter -L 
1 # kernel parameter -T 
T # kernel parameter -C 
1 # kernel parameter -F 
1 # kernel parameter -S 
1.000000 # kernel parameter -D 
3 # kernel parameter -N 
S # kernel parameter -V 
S # kernel parameter -W 
0 # highest feature index 
2022 # number of training documents 
1579 # number of support vectors plus 1 
-0.15749721 # threshold b, each following line is a SV (starting with alpha*y)
-1  |BT| (NODE (NODE ÿ)) |ET| 
-1  |BT| (NODE (NODE S)(NODE u)(NODE b)(NODE j)(NODE e)(NODE c)(NODE t)(NODE :)(NODE _)(NODE d)(NODE o)(NODE b)(NODE m)(NODE e)(NODE o)(NODE (NODE s)(NODE _))(NODE w)(NODE i)(NODE t)(NODE (NODE h)(NODE _))(NODE h)(NODE g)(NODE (NODE h)(NODE _))(NODE m)(NODE (NODE y)(NODE _))(NODE e)(NODE (NODE n)(NODE e))(NODE r)(NODE g)(NODE (NODE y)(NODE _))(NODE l)(NODE e)(NODE v)(NODE e)(NODE l)(NODE _)(NODE h)(NODE a)(NODE (NODE s)(NODE _))(NODE g)(NODE o)(NODE (NODE n)(NODE e))(NODE _)(NODE u)(NODE p)(NODE _)(NODE !)(NODE _)(NODE s)(NODE t)(NODE u)(NODE k)(NODE m)(NODE )(NODE \n)(NODE \n)) |ET| 
-0.73198215992783899341844744412811  |BT| (NODE (NODE (NODE i)(NODE n))(NODE t)(NODE r)(NODE o)(NODE d)(NODE u)(NODE c)(NODE (NODE i)(NODE n))(NODE g)(NODE )(NODE \n)(NODE \n)) |ET| 
-0.97284279747592283804635826527374  |BT| (NODE (NODE d)(NODE o)(NODE c)(NODE t)(NODE (NODE o)(NODE r))(NODE _)(NODE -)(NODE _)(NODE f)(NODE (NODE o)(NODE r))(NODE m)(NODE u)(NODE l)(NODE a)(NODE t)(NODE e)(NODE d)(NODE )(NODE \n)(NODE \n)) |ET| 
-1  |BT| (NODE (NODE h)(NODE g)(NODE h)(NODE )(NODE \n)(NODE \n)) |ET| 
1  |BT| (NODE (NODE ÿ)) |ET| 
0.85584729897999578529521613745601  |BT| (NODE (NODE S)(NODE u)(NODE b)(NODE j)(NODE e)(NODE (NODE c)(NODE t))(NODE :)(NODE _)(NODE c)(NODE h)(NODE r)(NODE i)(NODE s)(NODE t)(NODE m)(NODE a)(NODE s)(NODE _)(NODE t)(NODE (NODE r)(NODE e))(NODE e)(NODE _)(NODE f)(NODE a)(NODE r)(NODE m)(NODE _)(NODE p)(NODE i)(NODE (NODE c)(NODE t))(NODE u)(NODE (NODE r)(NODE e))(NODE s)(NODE )(NODE \n)(NODE \n)) |ET| 
0.88428643555150765465100448636804  |BT| (NODE (NODE S)(NODE u)(NODE b)(NODE j)(NODE e)(NODE c)(NODE t)(NODE :)(NODE _)(NODE v)(NODE a)(NODE s)(NODE t)(NODE a)(NODE r)(NODE _)(NODE r)(NODE (NODE e)(NODE s))(NODE o)(NODE u)(NODE r)(NODE c)(NODE (NODE e)(NODE s))(NODE _)(NODE ,)(NODE _)(NODE i)(NODE n)(NODE c)(NODE _)(NODE \n)) |ET| 
1  |BT| (NODE (NODE \n)(NODE \n)) |ET| 
0.8426227787600408802859419665765  |BT| (NODE (NODE g)(NODE a)(NODE r)(NODE y)(NODE _)(NODE ,)(NODE _)(NODE p)(NODE (NODE r)(NODE o))(NODE d)(NODE u)(NODE c)(NODE t)(NODE i)(NODE (NODE o)(NODE n))(NODE _)(NODE f)(NODE (NODE r)(NODE o))(NODE m)(NODE _)(NODE t)(NODE h)(NODE e)(NODE _)(NODE h)(NODE i)(NODE g)(NODE h)(NODE _)(NODE i)(NODE s)(NODE (NODE l)(NODE a))(NODE n)(NODE (NODE d)(NODE _))(NODE (NODE l)(NODE a))(NODE r)(NODE g)(NODE e)(NODE r)(NODE _)(NODE b)(NODE l)(NODE o)(NODE c)(NODE k)(NODE _)(NODE a)(NODE _)(NODE -)(NODE _)(NODE \1)(NODE _)(NODE #)(NODE _)(NODE \2)(NODE _)(NODE c)(NODE o)(NODE m)(NODE m)(NODE e)(NODE n)(NODE c)(NODE e)(NODE (NODE d)(NODE _))(NODE (NODE o)(NODE n))(NODE )(NODE \n)(NODE \n)) |ET| 
-1  |BT| (NODE (NODE \n)(NODE \n)) |ET| 
1  |BT| (NODE (NODE t)(NODE h)(NODE u)(NODE )(NODE \n)(NODE \n)) |ET| 
-1  |BT| (NODE (NODE t)(NODE o)(NODE (NODE (NODE _)(NODE b))(NODE e))(NODE (NODE _)(NODE t))(NODE a)(NODE k)(NODE (NODE e)(NODE n))(NODE (NODE (NODE _)(NODE o))(NODE f))(NODE f)(NODE (NODE _)(NODE o))(NODE u)(NODE r)(NODE (NODE _)(NODE l))(NODE i)(NODE s)(NODE (NODE t)(NODE _))(NODE ,)(NODE (NODE _)(NODE h)(NODE e)(NODE r))(NODE e)(NODE (NODE s)(NODE (NODE _)(NODE (NODE \8)(NODE _)))(NODE p)(NODE (NODE _)(NODE \2))(NODE (NODE _)(NODE b))(NODE _)(NODE (NODE \5)(NODE _))(NODE c)(NODE r)(NODE (NODE k)(NODE _))(NODE \4)(NODE (NODE \5)(NODE _))(NODE y)(NODE (NODE _)(NODE \5))(NODE \6)(NODE \5)(NODE (NODE \2)(NODE _))(NODE u)(NODE (NODE o)(NODE _))(NODE \0)(NODE (NODE \8)(NODE _))(NODE w)(NODE s)(NODE (NODE l)(NODE l))(NODE h)(NODE (NODE k)(NODE _))(NODE \2)(NODE \1)(NODE \9)(NODE (NODE _)(NODE e)))(NODE d)(NODE (NODE _)(NODE (NODE \8)(NODE _)))(NODE k)(NODE (NODE o)(NODE _))(NODE \3)(NODE (NODE _)(NODE e))(NODE r)(NODE g)(NODE w)(NODE n)(NODE (NODE _)(NODE \5))(NODE _)(NODE (NODE v)(NODE _))(NODE \4)(NODE \3)(NODE \1)(NODE \1)(NODE _)(NODE a)(NODE (NODE _)(NODE \3))(NODE (NODE \2)(NODE _))(NODE b)(NODE g)(NODE g)(NODE (NODE v)(NODE _))(NODE (NODE \2)(NODE _))(NODE m)(NODE (NODE l)(NODE l))(NODE _)(NODE \7)(NODE \4)(NODE \6)(NODE (NODE _)(NODE b))(NODE u)(NODE h)(NODE (NODE t)(NODE _))(NODE (NODE \2)(NODE _))(NODE w)(NODE z)(NODE o)(NODE s)(NODE (NODE _)(NODE \3))(NODE _)(NODE (NODE c)(NODE _))(NODE \6)(NODE (NODE _)(NODE t))(NODE (NODE _)(NODE \3))(NODE \9)(NODE _)(NODE q)(NODE r)(NODE n)(NODE (NODE (NODE _)(NODE \2))(NODE _))(NODE z)(NODE d)(NODE (NODE _)(NODE \5))(NODE (NODE \5)(NODE _))(NODE q)(NODE c)(NODE (NODE c)(NODE _))(NODE (NODE \5)(NODE _))(NODE (NODE a)(NODE _))(NODE \6)(NODE _)(NODE d)(NODE y)(NODE (NODE (NODE _)(NODE \2))(NODE _))(NODE u)(NODE w)(NODE v)(NODE q)(NODE (NODE v)(NODE _))(NODE \6)(NODE (NODE \2)(NODE _))(NODE r)(NODE (NODE s)(NODE (NODE _)(NODE (NODE \8)(NODE _)))(NODE p)(NODE (NODE _)(NODE \2))(NODE (NODE _)(NODE b))(NODE _)(NODE (NODE \5)(NODE _))(NODE c)(NODE r)(NODE (NODE k)(NODE _))(NODE \4)(NODE (NODE \5)(NODE _))(NODE y)(NODE (NODE _)(NODE \5))(NODE \6)(NODE \5)(NODE (NODE \2)(NODE _))(NODE u)(NODE (NODE o)(NODE _))(NODE \0)(NODE (NODE \8)(NODE _))(NODE w)(NODE s)(NODE (NODE l)(NODE l))(NODE h)(NODE (NODE k)(NODE _))(NODE \2)(NODE \1)(NODE \9)(NODE (NODE _)(NODE e)))(NODE i)(NODE (NODE _)(NODE w))(NODE a)(NODE n)(NODE (NODE t)(NODE _))(NODE (NODE a)(NODE _))(NODE l)(NODE a)(NODE g)(NODE o)(NODE o)(NODE (NODE n)(NODE _))(NODE i)(NODE (NODE n)(NODE _))(NODE m)(NODE y)(NODE (NODE _)(NODE b))(NODE (NODE a)(NODE c)(NODE k))(NODE y)(NODE a)(NODE r)(NODE d)(NODE k)(NODE a)(NODE t)(NODE i)(NODE e)(NODE (NODE (NODE _)(NODE b))(NODE e))(NODE m)(NODE u)(NODE s)(NODE e)(NODE d)(NODE _)(NODE m)(NODE e)(NODE (NODE _)(NODE w))(NODE i)(NODE t)(NODE h)(NODE (NODE _)(NODE h)(NODE e)(NODE r))(NODE _)(NODE \()(NODE (NODE _)(NODE l))(NODE (NODE a)(NODE c)(NODE k))(NODE (NODE (NODE _)(NODE o))(NODE f))(NODE _)(NODE \)) |ET| 
0.81128832080070312215980266046245  |BT| (NODE (NODE (NODE |)(NODE _))(NODE \2)(NODE \6)(NODE (NODE _)(NODE ,)(NODE _))(NODE \0)(NODE \0)(NODE \0)(NODE (NODE _)(NODE (NODE |)(NODE _)))(NODE \9)(NODE (NODE _)(NODE ,)(NODE _))(NODE \2)(NODE (NODE \2)(NODE \4))(NODE (NODE _)(NODE (NODE |)(NODE _)))(NODE (NODE \2)(NODE \4))(NODE _)(NODE h)(NODE o)(NODE u)(NODE r)(NODE s)(NODE _)(NODE |)(NODE )(NODE \n)(NODE \n)) |ET| 
-1  |BT| (NODE (NODE \n)(NODE \n)) |ET| 
1  |BT| (NODE (NODE r)(NODE a)(NODE n)(NODE c)(NODE h)(NODE _)(NODE \)) |ET| 
-1  |BT| (NODE (NODE _)(NODE a)(NODE r)(NODE d)(NODE _)(NODE e)(NODE r)(NODE e)(NODE _)(NODE \n)) |ET| 
1  |BT| (NODE (NODE \n)(NODE \n)) |ET| 
-1  |BT| (NODE (NODE \n)(NODE \n)) |ET| 
1  |BT| (NODE (NODE n)(NODE o)(NODE v)(NODE e)(NODE m)(NODE b)(NODE e)(NODE r)(NODE _)(NODE \n)) |ET| 
-1  |BT| (NODE (NODE \()(NODE _)(NODE u)(NODE n)(NODE l)(NODE i)(NODE m)(NODE i)(NODE t)(NODE e)(NODE d)(NODE _)(NODE a)(NODE c)(NODE c)(NODE e)(NODE s)(NODE s)(NODE _)(NODE \)) |ET| 
1  |BT| (NODE (NODE \n)(NODE \n)) |ET| 
-1  |BT| (NODE (NODE \n)(NODE \n)) |ET| 
1  |BT| (NODE (NODE _)(NODE t)(NODE h)(NODE i)(NODE s)(NODE _)(NODE g)(NODE a)(NODE s)(NODE )(NODE \n)(NODE \n)) |ET| 
-1  |BT| (NODE (NODE a)(NODE d)(NODE v)(NODE _)(NODE \n)) |ET| 
1  |BT| (NODE (NODE \n)(NODE \n)) |ET| 
-1  |BT| (NODE (NODE \n)(NODE \n)) |ET| 
1  |BT| (NODE (NODE f)(NODE y)(NODE i)(NODE _)(NODE \n)) |ET| 
-0.70468740176538735564548687761999  |BT| (NODE (NODE _)(NODE b)(NODE i)(NODE z)(NODE _)(NODE /)(NODE _)(NODE o)(NODE f)(NODE f)(NODE _)(NODE \n)) |ET| 
1  |BT| (NODE (NODE \n)(NODE \n)) |ET| 
-1  |BT| (NODE (NODE \n)(NODE \n)) |ET| 
1  |BT| (NODE (NODE #)(NODE _)(NODE \1)(NODE _)(NODE w)(NODE e)(NODE l)(NODE l)(NODE _)(NODE \)) |ET| 
-1  |BT| (NODE (NODE t)(NODE f)(NODE n)(NODE t)(NODE y)(NODE e)(NODE _)(NODE l)(NODE l)(NODE r)(NODE w)(NODE i)(NODE \n)) |ET| 
1  |BT| (NODE (NODE \n)(NODE \n)) |ET| 
-1  |BT| (NODE (NODE \n)(NODE \n)) |ET| 
0.95572377954152032408785544248531  |BT| (NODE (NODE d)(NODE a)(NODE v)(NODE i)(NODE d)(NODE \n)) |ET| 
-1  |BT| (NODE (NODE \()(NODE _)(NODE a)(NODE c)(NODE c)(NODE s)(NODE _)(NODE i)(NODE l)(NODE l)(NODE i)(NODE m)(NODE i)(NODE t)(NODE _)(NODE \)) |ET| 
1  |BT| (NODE (NODE \n)(NODE \n)) |ET| 
-1  |BT| (NODE (NODE \n)(NODE \n)) |ET| 
1  |BT| (NODE (NODE l)(NODE e)(NODE t)(NODE _)(NODE m)(NODE e)(NODE _)(NODE k)(NODE n)(NODE o)(NODE w)(NODE _)(NODE \n)) |ET| 
-1  |BT| (NODE (NODE h)(NODE e)(NODE a)(NODE d)(NODE )(NODE \n)(NODE \n)) |ET| 
1  |BT| (NODE (NODE \n)(NODE \n)) |ET| 
-1  |BT| (NODE (NODE _)(NODE \n)) |ET| 
1  |BT| (NODE (NODE c)(NODE c)(NODE _)(NODE :)(NODE )(NODE \n)(NODE \n)) |ET| 
-1  |BT| (NODE (NODE n)(NODE o)(NODE s)(NODE )(NODE \n)(NODE \n)) |ET| 
0.95441900975270455020904591947328  |BT| (NODE (NODE _)(NODE \n)) |ET| 
-1  |BT| (NODE (NODE _)(NODE \n)) |ET| 
1  |BT| (NODE (NODE n)(NODE e)(NODE w)(NODE )(NODE \n)(NODE \n)) |ET| 
-1  |BT| (NODE (NODE j)(NODE e)(NODE t)(NODE )(NODE \n)(NODE \n)) |ET| 
1  |BT| (NODE (NODE _)(NODE \n)) |ET| 
-1  |BT| (NODE (NODE _)(NODE \n)) |ET| 
1  |BT| (NODE (NODE v)(NODE l)(NODE t)(NODE )(NODE \n)(NODE \n)) |ET| 
-1  |BT| (NODE (NODE c)(NODE l)(NODE i)(NODE c)(NODE k)(NODE )(NODE \n)(NODE \n)) |ET| 
1  |BT| (NODE (NODE _)(NODE \n)) |ET| 
-1  |BT| (NODE (NODE _)(NODE \n)) |ET| 
1  |BT| (NODE (NODE j)(NODE u)(NODE l)(NODE i)(NODE e)(NODE )(NODE \n)(NODE \n)) |ET| 
-1  |BT| (NODE (NODE l)(NODE n)(NODE u)(NODE \n)) |ET| 
-0.040570327956921441170390352226605  |BT| (NODE (NODE h)(NODE t)(NODE t)(NODE p)(NODE _)(NODE :)(NODE (NODE _)(NODE /))(NODE (NODE _)(NODE /))(NODE _)(NODE l)(NODE i)(NODE s)(NODE t)(NODE _)(NODE \n)) |ET| 
-1  |BT| (NODE (NODE (NODE (NODE -)(NODE _))(NODE (NODE -)(NODE _)))(NODE (NODE (NODE -)(NODE _))(NODE (NODE -)(NODE _)))(NODE -)(NODE )(NODE \n)(NODE \n)) |ET| 
1  |BT| (NODE (NODE _)(NODE n)(NODE _)(NODE \n)) |ET| 
-1  |BT| (NODE (NODE _)(NODE e)(NODE _)(NODE \n)) |ET| 
1  |BT| (NODE (NODE o)(NODE f)(NODE )(NODE \n)(NODE \n)) |ET| 
-1  |BT| (NODE (NODE t)(NODE r)(NODE )(NODE \n)(NODE \n)) |ET| 
1  |BT| (NODE (NODE (NODE (NODE (NODE (NODE -)(NODE _))(NODE (NODE -)(NODE _)))(NODE (NODE (NODE -)(NODE _))(NODE (NODE -)(NODE _))))(NODE (NODE (NODE (NODE -)(NODE _))(NODE (NODE -)(NODE _)))(NODE (NODE (NODE -)(NODE _))(NODE (NODE -)(NODE _)))))(NODE (NODE (NODE (NODE (NODE -)(NODE _))(NODE (NODE -)(NODE _)))(NODE (NODE (NODE -)(NODE _))(NODE (NODE -)(NODE _))))(NODE (NODE (NODE (NODE -)(NODE _))(NODE (NODE -)(NODE _)))(NODE (NODE (NODE -)(NODE _))(NODE (NODE -)(NODE _)))))(NODE (NODE (NODE (NODE (NODE -)(NODE _))(NODE (NODE -)(NODE _)))(NODE (NODE (NODE -)(NODE _))(NODE (NODE -)(NODE _))))(NODE (NODE (NODE (NODE -)(NODE _))(NODE (NODE -)(NODE _)))(NODE (NODE (NODE -)(NODE _))(NODE (NODE -)(NODE _)))))(NODE (NODE (NODE -)(NODE _))(NODE (NODE -)(NODE _)))(NODE -)(NODE )(NODE \n)(NODE \n)) |ET| 
-1  |BT| (NODE (NODE h)(NODE o)(NODE (NODE w)(NODE _))(NODE (NODE w)(NODE _))(NODE \n)) |ET| 
1  |BT| (NODE (NODE s)(NODE t)(NODE e)(NODE l)(NODE l)(NODE a)(NODE )(NODE \n)(NODE \n)) |ET| 
-1  |BT| (NODE (NODE _)(NODE w)(NODE i)(NODE l)(NODE e)(NODE y)(NODE )(NODE \n)(NODE \n)) |ET| 
1  |BT| (NODE (NODE _)(NODE p)(NODE _)(NODE \n)) |ET| 
-1  |BT| (NODE (NODE _)(NODE l)(NODE _)(NODE \n)) |ET| 
1  |BT| (NODE (NODE h)(NODE c)(NODE )(NODE \n)(NODE \n)) |ET| 
-1  |BT| (NODE (NODE c)(NODE o)(NODE m)(NODE p)(NODE a)(NODE n)(NODE y)(NODE )(NODE \n)(NODE \n)) |ET| 
1  |BT| (NODE (NODE _)(NODE m)(NODE _)(NODE \n)) |ET| 
-1  |BT| (NODE (NODE _)(NODE s)(NODE _)(NODE \n)) |ET| 
1  |BT| (NODE (NODE t)(NODE o)(NODE m)(NODE o)(NODE r)(NODE r)(NODE o)(NODE w)(NODE _)(NODE \n)) |ET| 
-1  |BT| (NODE (NODE _)(NODE c)(NODE o)(NODE m)(NODE \n)) |ET| 
1  |BT| (NODE (NODE b)(NODE y)(NODE _)(NODE \n)) |ET| 
-1  |BT| (NODE (NODE v)(NODE t)(NODE h)(NODE r)(NODE d)(NODE )(NODE \n)(NODE \n)) |ET| 
1  |BT| (NODE (NODE _)(NODE d)(NODE o)(NODE c)(NODE \n)) |ET| 
-1  |BT| (NODE (NODE _)(NODE b)(NODE )(NODE \n)(NODE \n)) |ET| 
1  |BT| (NODE (NODE _)(NODE t)(NODE h)(NODE i)(NODE s)(NODE )(NODE \n)(NODE \n)) |ET| 
-1  |BT| (NODE (NODE _)(NODE c)(NODE o)(NODE m)(NODE _)(NODE \n)) |ET| 
1  |BT| (NODE (NODE _)(NODE i)(NODE )(NODE \n)(NODE \n)) |ET| 
-0.80263351277706429520719666470541  |BT| (NODE (NODE /)(NODE _)(NODE d)(NODE i)(NODE v)(NODE )(NODE \n)(NODE \n)) |ET| 
0.71486650698196652076177315393579  |BT| (NODE (NODE w)(NODE e)(NODE l)(NODE l)(NODE _)(NODE \n)) |ET| 
-1  |BT| (NODE (NODE f)(NODE u)(NODE l)(NODE l)(NODE y)(NODE _)(NODE d)(NODE o)(NODE _)(NODE \n)) |ET| 
1  |BT| (NODE (NODE _)(NODE \n)) |ET| 
-1  |BT| (NODE (NODE _)(NODE \n)) |ET| 
1  |BT| (NODE (NODE f)(NODE r)(NODE o)(NODE m)(NODE _)(NODE t)(NODE o)(NODE )(NODE \n)(NODE \n)) |ET| 
-0.38450965720094099076220572897  |BT| (NODE (NODE p)(NODE r)(NODE o)(NODE f)(NODE i)(NODE l)(NODE e)(NODE )(NODE \n)(NODE \n)) |ET| 
1  |BT| (NODE (NODE _)(NODE \n)) |ET| 
-1  |BT| (NODE (NODE _)(NODE \n)) |ET| 
1  |BT| (NODE (NODE d)(NODE a)(NODE v)(NODE i)(NODE d)(NODE )(NODE \n)(NODE \n)) |ET| 
-0.67024469135464814772973340950557  |BT| (NODE (NODE _)(NODE \0)(NODE _)(NODE i)(NODE t)(NODE )(NODE \n)(NODE \n)) |ET| 
1  |BT| (NODE (NODE _)(NODE \n)) |ET| 
-1  |BT| (NODE (NODE \n)(NODE \n)) |ET| 
0.88979715009875726128285577942734  |BT| (NODE (NODE j)(NODE u)(NODE l)(NODE i)(NODE e)(NODE _)(NODE ,)(NODE )(NODE \n)(NODE \n)) |ET| 
-0.9883710585397507131233396648895  |BT| (NODE (NODE s)(NODE h)(NODE i)(NODE p)(NODE p)(NODE e)(NODE d)(NODE _)(NODE w)(NODE o)(NODE r)(NODE l)(NODE d)(NODE w)(NODE i)(NODE d)(NODE e)(NODE _)(NODE \n)) |ET| 
1  |BT| (NODE (NODE \n)(NODE \n)) |ET| 
-1  |BT| (NODE (NODE \n)(NODE \n)) |ET| 
1  |BT| (NODE (NODE p)(NODE u)(NODE r)(NODE c)(NODE h)(NODE a)(NODE s)(NODE e)(NODE _)(NODE \)) |ET| 
-1  |BT| (NODE (NODE _)(NODE e)(NODE (NODE _)(NODE (NODE a)(NODE s))(NODE _))(NODE f)(NODE (NODE a)(NODE s))(NODE t)(NODE (NODE _)(NODE (NODE a)(NODE s))(NODE _))(NODE v)(NODE _)(NODE \n)) |ET| 
1  |BT| (NODE (NODE \n)(NODE \n)) |ET| 
-1  |BT| (NODE (NODE \n)(NODE \n)) |ET| 
1  |BT| (NODE (NODE t)(NODE h)(NODE a)(NODE n)(NODE k)(NODE s)(NODE _)(NODE \n)) |ET| 
-1  |BT| (NODE (NODE d)(NODE e)(NODE u)(NODE t)(NODE s)(NODE c)(NODE h)(NODE )(NODE \n)(NODE \n)) |ET| 
1  |BT| (NODE (NODE \n)(NODE \n)) |ET| 
-1  |BT| (NODE (NODE \n)(NODE \n)) |ET| 
1  |BT| (NODE (NODE d)(NODE s)(NODE c)(NODE o)(NODE t)(NODE t)(NODE l)(NODE _)(NODE @)(NODE _)(NODE \n)) |ET| 
-1  |BT| (NODE (NODE _)(NODE j)(NODE p)(NODE g)(NODE _)(NODE ')(NODE _)(NODE \)) |ET| 
1  |BT| (NODE (NODE \n)(NODE \n)) |ET| 
-1  |BT| (NODE (NODE \n)(NODE \n)) |ET| 
0.71029980711498652556912247746368  |BT| (NODE (NODE \2)(NODE _)(NODE \)) |ET| 
-1  |BT| (NODE (NODE \2)(NODE _)(NODE \n)) |ET| 
1  |BT| (NODE (NODE \n)(NODE \n)) |ET| 
-1  |BT| (NODE (NODE \n)(NODE \n)) |ET| 
1  |BT| (NODE (NODE \2)(NODE _)(NODE \n)) |ET| 
-1  |BT| (NODE (NODE _)(NODE k)(NODE _)(NODE s)(NODE a)(NODE t)(NODE i)(NODE s)(NODE f)(NODE _)(NODE \n)) |ET| 
1  |BT| (NODE (NODE \n)(NODE \n)) |ET| 
-1  |BT| (NODE (NODE \n)(NODE \n)) |ET| 
1  |BT| (NODE (NODE t)(NODE h)(NODE e)(NODE r)(NODE e)(NODE _)(NODE i)(NODE s)(NODE _)(NODE a)(NODE _)(NODE \n)) |ET| 
-0.84271942407651323492245865054429  |BT| (NODE (NODE _)(NODE a)(NODE r)(NODE t)(NODE a)(NODE d)(NODE d)(NODE i)(NODE c)(NODE t)(NODE i)(NODE o)(NODE n)(NODE _)(NODE \n)) |ET| 
1  |BT| (NODE (NODE \n)(NODE \n)) |ET| 
-1  |BT| (NODE (NODE \n)(NODE \n)) |ET| 
1  |BT| (NODE (NODE p)(NODE r)(NODE o)(NODE v)(NODE i)(NODE s)(NODE i)(NODE o)(NODE n)(NODE _)(NODE \n)) |ET| 
-1  |BT| (NODE (NODE h)(NODE (NODE o)(NODE n))(NODE e)(NODE y)(NODE m)(NODE o)(NODE (NODE o)(NODE n))(NODE _)(NODE \n)) |ET| 
1  |BT| (NODE (NODE \n)(NODE \n)) |ET| 
-1  |BT| (NODE (NODE \n)(NODE \n)) |ET| 
1  |BT| (NODE (NODE r)(NODE o)(NODE m)(NODE e)(NODE o)(NODE _)(NODE d)(NODE _)(NODE ')(NODE _)(NODE s)(NODE o)(NODE u)(NODE z)(NODE a)(NODE \n)) |ET| 
-1  |BT| (NODE (NODE \1)(NODE _)(NODE \n)) |ET| 
1  |BT| (NODE (NODE \n)(NODE \n)) |ET| 
-1  |BT| (NODE (NODE s)(NODE a)(NODE v)(NODE e)(NODE )(NODE \n)(NODE \n)) |ET| 
1  |BT| (NODE (NODE \1)(NODE _)(NODE \n)) |ET| 
-1  |BT| (NODE (NODE \1)(NODE _)(NODE \n)) |ET| 
1  |BT| (NODE (NODE _)(NODE t)(NODE h)(NODE e)(NODE )(NODE \n)(NODE \n)) |ET| 
-1  |BT| (NODE (NODE h)(NODE t)(NODE m)(NODE l)(NODE )(NODE \n)(NODE \n)) |ET| 
1  |BT| (NODE (NODE d)(NODE _)(NODE \n)) |ET| 
-1  |BT| (NODE (NODE _)(NODE \n)) |ET| 
1  |BT| (NODE (NODE _)(NODE \1)(NODE \1)(NODE )(NODE \n)(NODE \n)) |ET| 
-1  |BT| (NODE (NODE _)(NODE \1)(NODE \6)(NODE \1)(NODE _)(NODE \n)) |ET| 
1  |BT| (NODE (NODE _)(NODE \n)) |ET| 
-1  |BT| (NODE (NODE \n)(NODE \n)) |ET| 
1  |BT| (NODE (NODE j)(NODE a)(NODE n)(NODE _)(NODE \1)(NODE \3)(NODE )(NODE \n)(NODE \n)) |ET| 
-1  |BT| (NODE (NODE \3)(NODE _)(NODE \n)) |ET| 
1  |BT| (NODE (NODE \n)(NODE \n)) |ET| 
-1  |BT| (NODE (NODE e)(NODE u)(NODE r)(NODE )(NODE \n)(NODE \n)) |ET| 
1  |BT| (NODE (NODE x)(NODE _)(NODE \3)(NODE _)(NODE -)(NODE _)(NODE \6)(NODE \3)(NODE \5)(NODE \3)(NODE \n)) |ET| 
-1  |BT| (NODE (NODE _)(NODE \n)) |ET| 
1  |BT| (NODE (NODE _)(NODE o)(NODE u)(NODE r)(NODE )(NODE \n)(NODE \n)) |ET| 
-0.4057661951804673039490012342867  |BT| (NODE (NODE t)(NODE o)(NODE u)(NODE r)(NODE )(NODE \n)(NODE \n)) |ET| 
1  |BT| (NODE (NODE _)(NODE \n)) |ET| 
-1  |BT| (NODE (NODE _)(NODE \n)) |ET| 
0.91063890734032693075050701736473  |BT| (NODE (NODE f)(NODE y)(NODE i)(NODE )(NODE \n)(NODE \n)) |ET| 
-1  |BT| (NODE (NODE -)(NODE _)(NODE a)(NODE m)(NODE b)(NODE i)(NODE e)(NODE n)(NODE )(NODE \n)(NODE \n)) |ET| 
1  |BT| (NODE (NODE _)(NODE \n)) |ET| 
-1  |BT| (NODE (NODE _)(NODE \n)) |ET| 
1  |BT| (NODE (NODE a)(NODE i)(NODE m)(NODE e)(NODE e)(NODE )(NODE \n)(NODE \n)) |ET| 
-0.3873642114875583408739601054549  |BT| (NODE (NODE c)(NODE a)(NODE s)(NODE i)(NODE n)(NODE o)(NODE )(NODE \n)(NODE \n)) |ET| 
1  |BT| (NODE (NODE _)(NODE \n)) |ET| 
-1  |BT| (NODE (NODE _)(NODE \n)) |ET| 
0.95019584606255402814412036605063  |BT| (NODE (NODE t)(NODE h)(NODE a)(NODE n)(NODE k)(NODE s)(NODE \n)) |ET| 
-0.97160820950949133845142569043674  |BT| (NODE (NODE a)(NODE d)(NODE v)(NODE a)(NODE n)(NODE t)(NODE a)(NODE g)(NODE e)(NODE )(NODE \n)(NODE \n)) |ET| 
1  |BT| (NODE (NODE _)(NODE \n)) |ET| 
-1  |BT| (NODE (NODE _)(NODE \n)) |ET| 
1  |BT| (NODE (NODE (NODE g)(NODE e))(NODE o)(NODE r)(NODE (NODE g)(NODE e))(NODE _)(NODE ,)(NODE )(NODE \n)(NODE \n)) |ET| 
-1  |BT| (NODE (NODE (NODE t)(NODE h))(NODE (NODE i)(NODE s)(NODE _))(NODE (NODE i)(NODE s)(NODE _))(NODE (NODE t)(NODE h))(NODE e)(NODE )(NODE \n)(NODE \n)) |ET| 
1  |BT| (NODE (NODE _)(NODE \n)) |ET| 
-1  |BT| (NODE (NODE _)(NODE \n)) |ET| 
1  |BT| (NODE (NODE h)(NODE c)(NODE \n)) |ET| 
-1  |BT| (NODE (NODE h)(NODE (NODE i)(NODE g)(NODE h))(NODE l)(NODE (NODE i)(NODE g)(NODE h))(NODE t)(NODE s)(NODE )(NODE \n)(NODE \n)) |ET| 
1  |BT| (NODE (NODE _)(NODE \n)) |ET| 
-1  |BT| (NODE (NODE _)(NODE \n)) |ET| 
1  |BT| (NODE (NODE a)(NODE t)(NODE _)(NODE a)(NODE l)(NODE l)(NODE _)(NODE t)(NODE i)(NODE m)(NODE e)(NODE s)(NODE _)(NODE \n)) |ET| 
-0.76356925834867583890996911577531  |BT| (NODE (NODE _)(NODE s)(NODE p)(NODE e)(NODE e)(NODE d)(NODE w)(NODE a)(NODE y)(NODE _)(NODE c)(NODE o)(NODE r)(NODE p)(NODE _)(NODE \n)) |ET| 
1  |BT| (NODE (NODE _)(NODE \n)) |ET| 
-1  |BT| (NODE (NODE _)(NODE \n)) |ET| 
1  |BT| (NODE (NODE q)(NODE u)(NODE e)(NODE s)(NODE t)(NODE i)(NODE o)(NODE n)(NODE s)(NODE _)(NODE \n)) |ET| 
-0.70544837081719102833687884412939  |BT| (NODE (NODE n)(NODE o)(NODE t)(NODE i)(NODE c)(NODE e)(NODE _)(NODE \n)) |ET| 
1  |BT| (NODE (NODE _)(NODE \n)) |ET| 
-1  |BT| (NODE (NODE _)(NODE \n)) |ET| 
1  |BT| (NODE (NODE s)(NODE c)(NODE o)(NODE t)(NODE t)(NODE y)(NODE )(NODE \n)(NODE \n)) |ET| 
-1  |BT| (NODE (NODE b)(NODE o)(NODE d)(NODE y)(NODE _)(NODE {)(NODE )(NODE \n)(NODE \n)) |ET| 
1  |BT| (NODE (NODE _)(NODE \n)) |ET| 
-1  |BT| (NODE (NODE \n)(NODE \n)) |ET| 
1  |BT| (NODE (NODE f)(NODE o)(NODE (NODE r)(NODE _))(NODE n)(NODE o)(NODE v)(NODE e)(NODE m)(NODE b)(NODE e)(NODE (NODE r)(NODE _))(NODE \n)) |ET| 
-1  |BT| (NODE (NODE n)(NODE o)(NODE t)(NODE _)(NODE a)(NODE _)(NODE o)(NODE n)(NODE e)(NODE _)(NODE \n)) |ET| 
1  |BT| (NODE (NODE \n)(NODE \n)) |ET| 
-1  |BT| (NODE (NODE \n)(NODE \n)) |ET| 
1  |BT| (NODE (NODE _)(NODE l)(NODE i)(NODE n)(NODE d)(NODE a)(NODE _)(NODE ')(NODE _)(NODE s)(NODE )(NODE \n)(NODE \n)) |ET| 
-0.94541254658173889957595292798942  |BT| (NODE (NODE _)(NODE n)(NODE c)(NODE r)(NODE e)(NODE a)(NODE s)(NODE e)(NODE d)(NODE _)(NODE s)(NODE _)(NODE \n)) |ET| 
1  |BT| (NODE (NODE \n)(NODE \n)) |ET| 
-1  |BT| (NODE (NODE \n)(NODE \n)) |ET| 
1  |BT| (NODE (NODE e)(NODE v)(NODE e)(NODE r)(NODE g)(NODE r)(NODE e)(NODE e)(NODE n)(NODE _)(NODE f)(NODE l)(NODE a)(NODE g)(NODE _)(NODE \n)) |ET| 
-1  |BT| (NODE (NODE m)(NODE v)(NODE d)(NODE p)(NODE l)(NODE _)(NODE k)(NODE _)(NODE f)(NODE x)(NODE a)(NODE _)(NODE l)(NODE v)(NODE h)(NODE f)(NODE _)(NODE m)(NODE r)(NODE k)(NODE s)(NODE t)(NODE q)(NODE q)(NODE h)(NODE q)(NODE y)(NODE r)(NODE _)(NODE j)(NODE h)(NODE x)(NODE c)(NODE )(NODE \n)(NODE \n)) |ET| 
1  |BT| (NODE (NODE \n)(NODE \n)) |ET| 
-1  |BT| (NODE (NODE \n)(NODE \n)) |ET| 
1  |BT| (NODE (NODE _)(NODE \0)(NODE \8)(NODE \1)(NODE _)(NODE b)(NODE t)(NODE u)(NODE _)(NODE /)(NODE _)(NODE m)(NODE c)(NODE f)(NODE _)(NODE \)) |ET| 
-1  |BT| (NODE (NODE S)(NODE u)(NODE b)(NODE j)(NODE e)(NODE c)(NODE t)(NODE :)(NODE _)(NODE ^)(NODE _)(NODE \n)) |ET| 
1  |BT| (NODE (NODE \n)(NODE \n)) |ET| 
-1  |BT| (NODE (NODE \n)(NODE \n)) |ET| 
1  |BT| (NODE (NODE c)(NODE o)(NODE n)(NODE t)(NODE r)(NODE a)(NODE c)(NODE t)(NODE )(NODE \n)(NODE \n)) |ET| 
-0.39100372329432803164550591645821  |BT| (NODE (NODE a)(NODE r)(NODE t)(NODE p)(NODE r)(NODE i)(NODE c)(NODE e)(NODE )(NODE \n)(NODE \n)) |ET| 
1  |BT| (NODE (NODE \n)(NODE \n)) |ET| 
-1  |BT| (NODE (NODE \n)(NODE \n)) |ET| 
1  |BT| (NODE (NODE _)(NODE p)(NODE l)(NODE e)(NODE a)(NODE s)(NODE e)(NODE )(NODE \n)(NODE \n)) |ET| 
-1  |BT| (NODE (NODE a)(NODE _)(NODE r)(NODE o)(NODE c)(NODE k)(NODE _)(NODE h)(NODE _)(NODE \n)) |ET| 
1  |BT| (NODE (NODE \n)(NODE \n)) |ET| 
-1  |BT| (NODE (NODE \n)(NODE \n)) |ET| 
1  |BT| (NODE (NODE p)(NODE r)(NODE o)(NODE d)(NODE _)(NODE \n)) |ET| 
-0.65502789493077462346093398082303  |BT| (NODE (NODE _)(NODE g)(NODE i)(NODE f)(NODE _)(NODE w)(NODE i)(NODE d)(NODE t)(NODE h)(NODE (NODE _)(NODE =)(NODE _))(NODE \6)(NODE \6)(NODE (NODE \0)(NODE _))(NODE h)(NODE e)(NODE i)(NODE g)(NODE h)(NODE t)(NODE (NODE _)(NODE =)(NODE _))(NODE \4)(NODE (NODE \0)(NODE _))(NODE (NODE /)(NODE _))(NODE a)(NODE _)(NODE (NODE /)(NODE _))(NODE t)(NODE d)(NODE )(NODE \n)(NODE \n)) |ET| 
-1  |BT| (NODE (NODE k)(NODE _)(NODE p)(NODE )(NODE \n)(NODE \n)) |ET| 
1  |BT| (NODE (NODE \n)(NODE \n)) |ET| 
-1  |BT| (NODE (NODE \n)(NODE \n)) |ET| 
1  |BT| (NODE (NODE b)(NODE u)(NODE y)(NODE b)(NODE a)(NODE c)(NODE k)(NODE _)(NODE ?)(NODE )(NODE \n)(NODE \n)) |ET| 
-0.87733674494818703060161624307511  |BT| (NODE (NODE p)(NODE (NODE r)(NODE e))(NODE s)(NODE s)(NODE _)(NODE (NODE r)(NODE e))(NODE l)(NODE e)(NODE a)(NODE s)(NODE e)(NODE )(NODE \n)(NODE \n)) |ET| 
1  |BT| (NODE (NODE \n)(NODE \n)) |ET| 
-1  |BT| (NODE (NODE \n)(NODE \n)) |ET| 
1  |BT| (NODE (NODE _)(NODE t)(NODE h)(NODE a)(NODE n)(NODE k)(NODE s)(NODE _)(NODE \n)) |ET| 
-1  |BT| (NODE (NODE _)(NODE e)(NODE y)(NODE _)(NODE b)(NODE a)(NODE c)(NODE _)(NODE \n)) |ET| 
1  |BT| (NODE (NODE \n)(NODE \n)) |ET| 
-1  |BT| (NODE (NODE \n)(NODE \n)) |ET| 
1  |BT| (NODE (NODE n)(NODE a)(NODE (NODE m)(NODE e)(NODE _))(NODE h)(NODE o)(NODE (NODE m)(NODE e)(NODE _))(NODE p)(NODE a)(NODE g)(NODE e)(NODE r)(NODE )(NODE \n)(NODE \n)) |ET| 
-0.99477167078680173162297251110431  |BT| (NODE (NODE j)(NODE o)(NODE h)(NODE n)(NODE _)(NODE a)(NODE d)(NODE a)(NODE m)(NODE s)(NODE )(NODE \n)(NODE \n)) |ET| 
1  |BT| (NODE (NODE \n)(NODE \n)) |ET| 
-1  |BT| (NODE (NODE \n)(NODE \n)) |ET| 
0.97714260848914857859881522017531  |BT| (NODE (NODE j)(NODE a)(NODE n)(NODE _)(NODE \2)(NODE \0)(NODE \0)(NODE \0)(NODE _)(NODE \n)) |ET| 
-0.77242160017933303439718883964815  |BT| (NODE (NODE \0)(NODE (NODE \2)(NODE _)(NODE /)(NODE _)(NODE \2))(NODE (NODE \2)(NODE _)(NODE /)(NODE _)(NODE \2))(NODE \0)(NODE \0)(NODE \3)(NODE )(NODE \n)(NODE \n)) |ET| 
1  |BT| (NODE (NODE \n)(NODE \n)) |ET| 
-1  |BT| (NODE (NODE \n)(NODE \n)) |ET| 
1  |BT| (NODE (NODE _)(NODE \5)(NODE \8)(NODE \4)(NODE _)(NODE \n)) |ET| 
-1  |BT| (NODE (NODE _)(NODE \5)(NODE \8)(NODE )(NODE \n)(NODE \n)) |ET| 
1  |BT| (NODE (NODE \n)(NODE \n)) |ET| 
-1  |BT| (NODE (NODE \n)(NODE \n)) |ET| 
1  |BT| (NODE (NODE _)(NODE \1)(NODE \8)(NODE )(NODE \n)(NODE \n)) |ET| 
-1  |BT| (NODE (NODE \1)(NODE \0)(NODE \0)(NODE _)(NODE %)(NODE _)(NODE m)(NODE o)(NODE n)(NODE _)(NODE \n)) |ET| 
1  |BT| (NODE (NODE \n)(NODE \n)) |ET| 
-1  |BT| (NODE (NODE \n)(NODE \n)) |ET| 
1  |BT| (NODE (NODE _)(NODE \5)(NODE \0)(NODE _)(NODE m)(NODE m)(NODE b)(NODE t)(NODE u)(NODE _)(NODE \n)) |ET| 
-1  |BT| (NODE (NODE _)(NODE x)(NODE _)(NODE \n)) |ET| 
1  |BT| (NODE (NODE \n)(NODE \n)) |ET| 
-1  |BT| (NODE (NODE \n)(NODE \n)) |ET| 
1  |BT| (NODE (NODE _)(NODE n)(NODE _)(NODE \n)) |ET| 
-1  |BT| (NODE (NODE y)(NODE m)(NODE _)(NODE a)(NODE n)(NODE b)(NODE m)(NODE d)(NODE t)(NODE z)(NODE j)(NODE q)(NODE u)(NODE )(NODE \n)(NODE \n)) |ET| 
1  |BT| (NODE (NODE \n)(NODE \n)) |ET| 
-1  |BT| (NODE (NODE \n)(NODE \n)) |ET| 
1  |BT| (NODE (NODE c)(NODE (NODE i)(NODE n))(NODE e)(NODE r)(NODE g)(NODE y)(NODE _)(NODE r)(NODE (NODE e)(NODE s))(NODE o)(NODE u)(NODE r)(NODE c)(NODE (NODE e)(NODE s))(NODE _)(NODE (NODE i)(NODE n))(NODE c)(NODE _)(NODE \n)) |ET| 
-0.7840109336201592782344960141927  |BT| (NODE (NODE j)(NODE a)(NODE n)(NODE v)(NODE i)(NODE e)(NODE r)(NODE _)(NODE \2)(NODE \0)(NODE \0)(NODE \4)(NODE _)(NODE \n)) |ET| 
1  |BT| (NODE (NODE \n)(NODE \n)) |ET| 
-1  |BT| (NODE (NODE \n)(NODE \n)) |ET| 
1  |BT| (NODE (NODE g)(NODE a)(NODE r)(NODE y)(NODE _)(NODE ,)(NODE )(NODE \n)(NODE \n)) |ET| 
-0.48856238141609109604246441449504  |BT| (NODE (NODE t)(NODE u)(NODE r)(NODE n)(NODE _)(NODE !)(NODE )(NODE \n)(NODE \n)) |ET| 
1  |BT| (NODE (NODE \n)(NODE \n)) |ET| 
-1  |BT| (NODE (NODE \n)(NODE \n)) |ET| 
1  |BT| (NODE (NODE \1)(NODE \2)(NODE (NODE _)(NODE /)(NODE _))(NODE \1)(NODE \5)(NODE (NODE _)(NODE /)(NODE _))(NODE \9)(NODE \9)(NODE (NODE _)(NODE \0)(NODE \1)(NODE _))(NODE :)(NODE (NODE _)(NODE \0)(NODE \1)(NODE _))(NODE p)(NODE m)(NODE )(NODE \n)(NODE \n)) |ET| 
-0.23443556482826666265140147515922  |BT| (NODE (NODE _)(NODE p)(NODE g)(NODE p)(NODE _)(NODE \n)) |ET| 
1  |BT| (NODE (NODE \n)(NODE \n)) |ET| 
-1  |BT| (NODE (NODE \n)(NODE \n)) |ET| 
1  |BT| (NODE (NODE _)(NODE \()(NODE _)(NODE i)(NODE f)(NODE _)(NODE y)(NODE (NODE o)(NODE u))(NODE r)(NODE _)(NODE g)(NODE r)(NODE (NODE o)(NODE u))(NODE p)(NODE )(NODE \n)(NODE \n)) |ET| 
-1  |BT| (NODE (NODE f)(NODE u)(NODE n)(NODE d)(NODE s)(NODE _)(NODE i)(NODE n)(NODE _)(NODE y)(NODE o)(NODE u)(NODE r)(NODE _)(NODE c)(NODE u)(NODE s)(NODE t)(NODE o)(NODE d)(NODE y)(NODE _)(NODE \n)) |ET| 
1  |BT| (NODE (NODE \n)(NODE \n)) |ET| 
-1  |BT| (NODE (NODE \n)(NODE \n)) |ET| 
1  |BT| (NODE (NODE j)(NODE o)(NODE s)(NODE e)(NODE y)(NODE _)(NODE :)(NODE _)(NODE \()(NODE _)(NODE u)(NODE s)(NODE i)(NODE n)(NODE g)(NODE _)(NODE \1)(NODE _)(NODE \n)) |ET| 
-1  |BT| (NODE (NODE (NODE \7)(NODE \8)(NODE _))(NODE -)(NODE (NODE _)(NODE \1))(NODE \7)(NODE (NODE _)(NODE d))(NODE u)(NODE _)(NODE \6)(NODE (NODE _)(NODE /))(NODE (NODE _)(NODE \1))(NODE (NODE _)(NODE /))(NODE _)(NODE (NODE \7)(NODE \8)(NODE _))(NODE \()(NODE _)(NODE c)(NODE n)(NODE i)(NODE l)(NODE _)(NODE \)) |ET| 
1  |BT| (NODE (NODE \n)(NODE \n)) |ET| 
-1  |BT| (NODE (NODE \n)(NODE \n)) |ET| 
0.49532654251569957493117613012146  |BT| (NODE (NODE \1)(NODE \2)(NODE (NODE _)(NODE /)(NODE _))(NODE \2)(NODE \0)(NODE (NODE _)(NODE /)(NODE _))(NODE \9)(NODE \9)(NODE _)(NODE \0)(NODE \7)(NODE _)(NODE :)(NODE _)(NODE \3)(NODE \6)(NODE _)(NODE p)(NODE m)(NODE )(NODE \n)(NODE \n)) |ET| 
-1  |BT| (NODE (NODE m)(NODE a)(NODE k)(NODE i)(NODE n)(NODE g)(NODE _)(NODE l)(NODE i)(NODE m)(NODE i)(NODE t)(NODE e)(NODE d)(NODE _)(NODE o)(NODE f)(NODE f)(NODE e)(NODE r)(NODE _)(NODE \n)) |ET| 
1  |BT| (NODE (NODE \n)(NODE \n)) |ET| 
-1  |BT| (NODE (NODE \n)(NODE \n)) |ET| 
1  |BT| (NODE (NODE r)(NODE e)(NODE n)(NODE n)(NODE i)(NODE e)(NODE )(NODE \n)(NODE \n)) |ET| 
-1  |BT| (NODE (NODE c)(NODE e)(NODE n)(NODE t)(NODE e)(NODE r)(NODE )(NODE \n)(NODE \n)) |ET| 
1  |BT| (NODE (NODE \n)(NODE \n)) |ET| 
-1  |BT| (NODE (NODE \n)(NODE \n)) |ET| 
0.99818180449572824208814836310921  |BT| (NODE (NODE h)(NODE o)(NODE w)(NODE a)(NODE r)(NODE d)(NODE _)(NODE b)(NODE _)(NODE c)(NODE a)(NODE m)(NODE p)(NODE )(NODE \n)(NODE \n)) |ET| 
-1  |BT| (NODE (NODE \1)(NODE \6)(NODE _)(NODE ,)(NODE _)(NODE \5)(NODE \8)(NODE )(NODE \n)(NODE \n)) |ET| 
1  |BT| (NODE (NODE \n)(NODE \n)) |ET| 
-1  |BT| (NODE (NODE \n)(NODE \n)) |ET| 
1  |BT| (NODE (NODE l)(NODE e)(NODE e)(NODE _)(NODE ,)(NODE )(NODE \n)(NODE \n)) |ET| 
-0.89151893940292026297100846932153  |BT| (NODE (NODE t)(NODE h)(NODE i)(NODE e)(NODE r)(NODE r)(NODE y)(NODE e)(NODE h)(NODE r)(NODE m)(NODE a)(NODE n)(NODE n)(NODE )(NODE \n)(NODE \n)) |ET| 
1  |BT| (NODE (NODE \n)(NODE \n)) |ET| 
-1  |BT| (NODE (NODE \n)(NODE \n)) |ET| 
1  |BT| (NODE (NODE m)(NODE i)(NODE d)(NODE c)(NODE o)(NODE n)(NODE _)(NODE t)(NODE e)(NODE x)(NODE a)(NODE s)(NODE _)(NODE p)(NODE r)(NODE o)(NODE p)(NODE e)(NODE r)(NODE t)(NODE y)(NODE _)(NODE \n)) |ET| 
-0.94811439799668528749521101417486  |BT| (NODE (NODE _)(NODE e)(NODE c)(NODE o)(NODE n)(NODE s)(NODE u)(NODE m)(NODE e)(NODE r)(NODE d)(NODE e)(NODE a)(NODE l)(NODE s)(NODE _)(NODE \n)) |ET| 
1  |BT| (NODE (NODE \n)(NODE \n)) |ET| 
-1  |BT| (NODE (NODE \n)(NODE \n)) |ET| 
1  |BT| (NODE (NODE m)(NODE a)(NODE s)(NODE s)(NODE _)(NODE d)(NODE r)(NODE a)(NODE f)(NODE (NODE t)(NODE _))(NODE a)(NODE (NODE t)(NODE _))(NODE \6)(NODE _)(NODE p)(NODE _)(NODE \n)) |ET| 
-0.70380308388627310645091483820579  |BT| (NODE (NODE _)(NODE i)(NODE a)(NODE l)(NODE i)(NODE s)(NODE _)(NODE \n)) |ET| 
1  |BT| (NODE (NODE \n)(NODE \n)) |ET| 
-1  |BT| (NODE (NODE \n)(NODE \n)) |ET| 
1  |BT| (NODE (NODE _)(NODE x)(NODE l)(NODE s)(NODE \n)) |ET| 
-1  |BT| (NODE (NODE _)(NODE \5)(NODE )(NODE \n)(NODE \n)) |ET| 
1  |BT| (NODE (NODE \n)(NODE \n)) |ET| 
-1  |BT| (NODE (NODE \n)(NODE \n)) |ET| 
1  |BT| (NODE (NODE _)(NODE i)(NODE t)(NODE )(NODE \n)(NODE \n)) |ET| 
-0.81403832770916406680328236689093  |BT| (NODE (NODE l)(NODE e)(NODE s)(NODE s)(NODE _)(NODE o)(NODE f)(NODE _)(NODE i)(NODE t)(NODE _)(NODE \n)) |ET| 
1  |BT| (NODE (NODE \n)(NODE \n)) |ET| 
-1  |BT| (NODE (NODE \n)(NODE \n)) |ET| 
0.79820026726721382548390693045803  |BT| (NODE (NODE \3)(NODE _)(NODE -)(NODE _)(NODE \7)(NODE \5)(NODE \7)(NODE \8)(NODE \n)) |ET| 
-1  |BT| (NODE (NODE :)(NODE _)(NODE \4)(NODE \1)(NODE \1)(NODE _)(NODE \3)(NODE \0)(NODE \9)(NODE _)(NODE \1)(NODE \9)(NODE \8)(NODE )(NODE \n)(NODE \n)) |ET| 
1  |BT| (NODE (NODE \n)(NODE \n)) |ET| 
-1  |BT| (NODE (NODE \n)(NODE \n)) |ET| 
1  |BT| (NODE (NODE _)(NODE p)(NODE r)(NODE i)(NODE c)(NODE e)(NODE d)(NODE _)(NODE o)(NODE f)(NODE f)(NODE )(NODE \n)(NODE \n)) |ET| 
-0.5432724740383765293927353923209  |BT| (NODE (NODE \7)(NODE _)(NODE i)(NODE (NODE w)(NODE o)(NODE r))(NODE d)(NODE s)(NODE (NODE w)(NODE o)(NODE r))(NODE t)(NODE h)(NODE l)(NODE )(NODE \n)(NODE \n)) |ET| 
1  |BT| (NODE (NODE \n)(NODE \n)) |ET| 
-1  |BT| (NODE (NODE \n)(NODE \n)) |ET| 
1  |BT| (NODE (NODE t)(NODE h)(NODE i)(NODE s)(NODE _)(NODE v)(NODE o)(NODE l)(NODE u)(NODE m)(NODE e)(NODE _)(NODE \n)) |ET| 
-0.9566535128409140442684588379052  |BT| (NODE (NODE l)(NODE e)(NODE t)(NODE _)(NODE m)(NODE e)(NODE _)(NODE s)(NODE h)(NODE o)(NODE w)(NODE )(NODE \n)(NODE \n)) |ET| 
1  |BT| (NODE (NODE \n)(NODE \n)) |ET| 
-1  |BT| (NODE (NODE \n)(NODE \n)) |ET| 
1  |BT| (NODE (NODE _)(NODE c)(NODE o)(NODE m)(NODE m)(NODE u)(NODE n)(NODE i)(NODE c)(NODE a)(NODE t)(NODE i)(NODE o)(NODE n)(NODE _)(NODE i)(NODE s)(NODE )(NODE \n)(NODE \n)) |ET| 
-0.99056929080191402636756947686081  |BT| (NODE (NODE _)(NODE o)(NODE n)(NODE f)(NODE i)(NODE d)(NODE e)(NODE n)(NODE t)(NODE i)(NODE a)(NODE l)(NODE _)(NODE d)(NODE i)(NODE s)(NODE c)(NODE r)(NODE _)(NODE \n)) |ET| 
1  |BT| (NODE (NODE \n)(NODE \n)) |ET| 
-1  |BT| (NODE (NODE \n)(NODE \n)) |ET| 
1  |BT| (NODE (NODE a)(NODE r)(NODE e)(NODE _)(NODE (NODE o)(NODE n)(NODE _))(NODE d)(NODE (NODE i)(NODE s)(NODE t))(NODE r)(NODE i)(NODE b)(NODE u)(NODE t)(NODE i)(NODE (NODE o)(NODE n)(NODE _))(NODE l)(NODE (NODE i)(NODE s)(NODE t))(NODE _)(NODE \)) |ET| 
-1  |BT| (NODE (NODE (NODE (NODE -)(NODE _))(NODE (NODE -)(NODE _)))(NODE (NODE (NODE (NODE -)(NODE _))(NODE (NODE -)(NODE _)))(NODE (NODE -)(NODE _)))(NODE e)(NODE n)(NODE d)(NODE _)(NODE p)(NODE g)(NODE p)(NODE _)(NODE s)(NODE i)(NODE g)(NODE n)(NODE a)(NODE t)(NODE u)(NODE r)(NODE e)(NODE _)(NODE (NODE (NODE (NODE -)(NODE _))(NODE (NODE -)(NODE _)))(NODE (NODE -)(NODE _)))(NODE (NODE -)(NODE _))(NODE -)(NODE )(NODE \n)(NODE \n)) |ET| 
1  |BT| (NODE (NODE \n)(NODE \n)) |ET| 
-1  |BT| (NODE (NODE \n)(NODE \n)) |ET| 
0.93624017528390623965606209821999  |BT| (NODE (NODE \1)(NODE \2)(NODE (NODE _)(NODE /)(NODE _))(NODE \1)(NODE \4)(NODE (NODE _)(NODE /)(NODE _))(NODE \9)(NODE (NODE \9)(NODE _))(NODE \0)(NODE (NODE \9)(NODE _))(NODE :)(NODE _)(NODE \1)(NODE \0)(NODE _)(NODE a)(NODE m)(NODE )(NODE \n)(NODE \n)) |ET| 
-1  |BT| (NODE (NODE -)(NODE _)(NODE a)(NODE n)(NODE d)(NODE (NODE _)(NODE f)(NODE i))(NODE l)(NODE l)(NODE _)(NODE o)(NODE u)(NODE t)(NODE (NODE _)(NODE f)(NODE i))(NODE e)(NODE l)(NODE d)(NODE b)(NODE r)(NODE )(NODE \n)(NODE \n)) |ET| 
1  |BT| (NODE (NODE \n)(NODE \n)) |ET| 
-1  |BT| (NODE (NODE \n)(NODE \n)) |ET| 
1  |BT| (NODE (NODE s)(NODE l)(NODE i)(NODE d)(NODE i)(NODE n)(NODE g)(NODE _)(NODE s)(NODE c)(NODE a)(NODE l)(NODE e)(NODE _)(NODE \n)) |ET| 
-1  |BT| (NODE (NODE u)(NODE n)(NODE l)(NODE i)(NODE m)(NODE i)(NODE t)(NODE e)(NODE (NODE d)(NODE _))(NODE a)(NODE c)(NODE c)(NODE e)(NODE s)(NODE s)(NODE _)(NODE :)(NODE _)(NODE u)(NODE s)(NODE (NODE d)(NODE _))(NODE \8)(NODE _)(NODE \n)) |ET| 
1  |BT| (NODE (NODE \n)(NODE \n)) |ET| 
-1  |BT| (NODE (NODE _)(NODE \n)) |ET| 
1  |BT| (NODE (NODE c)(NODE h)(NODE a)(NODE m)(NODE b)(NODE e)(NODE r)(NODE s)(NODE (NODE _)(NODE /)(NODE _))(NODE c)(NODE o)(NODE r)(NODE p)(NODE (NODE _)(NODE /)(NODE _))(NODE (NODE e)(NODE n)(NODE r)(NODE o)(NODE n))(NODE _)(NODE @)(NODE _)(NODE (NODE e)(NODE n)(NODE r)(NODE o)(NODE n))(NODE )(NODE \n)(NODE \n)) |ET| 
-0.71859367169275123465865817706799  |BT| (NODE (NODE l)(NODE q)(NODE l)(NODE o)(NODE k)(NODE e)(NODE o)(NODE l)(NODE n)(NODE q)(NODE )(NODE \n)(NODE \n)) |ET| 
1  |BT| (NODE (NODE _)(NODE \n)) |ET| 
-1  |BT| (NODE (NODE _)(NODE \n)) |ET| 
1  |BT| (NODE (NODE n)(NODE e)(NODE e)(NODE d)(NODE _)(NODE t)(NODE o)(NODE _)(NODE k)(NODE n)(NODE o)(NODE w)(NODE _)(NODE s)(NODE o)(NODE o)(NODE n)(NODE )(NODE \n)(NODE \n)) |ET| 
-0.97181622044643067859226448490517  |BT| (NODE (NODE a)(NODE n)(NODE d)(NODE _)(NODE f)(NODE a)(NODE t)(NODE s)(NODE r)(NODE h)(NODE o)(NODE m)(NODE b)(NODE u)(NODE s)(NODE )(NODE \n)(NODE \n)) |ET| 
1  |BT| (NODE (NODE _)(NODE \n)) |ET| 
-1  |BT| (NODE (NODE _)(NODE \n)) |ET| 
1  |BT| (NODE (NODE t)(NODE h)(NODE a)(NODE n)(NODE k)(NODE s)(NODE )(NODE \n)(NODE \n)) |ET| 
-1  |BT| (NODE (NODE =)(NODE _)(NODE a)(NODE k)(NODE a)(NODE a)(NODE )(NODE \n)(NODE \n)) |ET| 
1  |BT| (NODE (NODE _)(NODE \n)) |ET| 
-1  |BT| (NODE (NODE _)(NODE \n)) |ET| 
1  |BT| (NODE (NODE _)(NODE h)(NODE o)(NODE w)(NODE a)(NODE r)(NODE d)(NODE )(NODE \n)(NODE \n)) |ET| 
-1  |BT| (NODE (NODE f)(NODE r)(NODE a)(NODE n)(NODE a)(NODE i)(NODE s)(NODE )(NODE \n)(NODE \n)) |ET| 
1  |BT| (NODE (NODE _)(NODE \n)) |ET| 
-1  |BT| (NODE (NODE _)(NODE \n)) |ET| 
1  |BT| (NODE (NODE l)(NODE a)(NODE u)(NODE r)(NODE i)(NODE (NODE _)(NODE a))(NODE (NODE _)(NODE a))(NODE l)(NODE l)(NODE e)(NODE n)(NODE )(NODE \n)(NODE \n)) |ET| 
-0.94707187900330291885353517500334  |BT| (NODE (NODE s)(NODE i)(NODE n)(NODE c)(NODE e)(NODE r)(NODE e)(NODE l)(NODE y)(NODE _)(NODE ,)(NODE )(NODE \n)(NODE \n)) |ET| 
1  |BT| (NODE (NODE _)(NODE \n)) |ET| 
-1  |BT| (NODE (NODE _)(NODE \n)) |ET| 
1  |BT| (NODE (NODE j)(NODE u)(NODE l)(NODE i)(NODE e)(NODE _)(NODE m)(NODE e)(NODE y)(NODE e)(NODE r)(NODE s)(NODE )(NODE \n)(NODE \n)) |ET| 
-1  |BT| (NODE (NODE c)(NODE b)(NODE y)(NODE w)(NODE d)(NODE v)(NODE d)(NODE t)(NODE h)(NODE l)(NODE _)(NODE n)(NODE o)(NODE g)(NODE s)(NODE v)(NODE v)(NODE b)(NODE n)(NODE w)(NODE u)(NODE g)(NODE )(NODE \n)(NODE \n)) |ET| 
1  |BT| (NODE (NODE _)(NODE \n)) |ET| 
-1  |BT| (NODE (NODE _)(NODE \n)) |ET| 
0.84264203184352615139118825027253  |BT| (NODE (NODE a)(NODE v)(NODE a)(NODE i)(NODE l)(NODE a)(NODE b)(NODE l)(NODE e)(NODE (NODE _)(NODE f)(NODE (NODE o)(NODE r)(NODE _)))(NODE q)(NODE u)(NODE (NODE e)(NODE s))(NODE t)(NODE i)(NODE o)(NODE n)(NODE (NODE s)(NODE _))(NODE (NODE o)(NODE r)(NODE _))(NODE a)(NODE (NODE s)(NODE _))(NODE a)(NODE _)(NODE b)(NODE a)(NODE c)(NODE k)(NODE u)(NODE p)(NODE _)(NODE ,)(NODE _)(NODE i)(NODE f)(NODE _)(NODE n)(NODE e)(NODE c)(NODE (NODE e)(NODE s))(NODE s)(NODE (NODE a)(NODE r))(NODE y)(NODE _)(NODE \()(NODE _)(NODE t)(NODE h)(NODE a)(NODE n)(NODE k)(NODE (NODE s)(NODE _))(NODE h)(NODE o)(NODE w)(NODE (NODE a)(NODE r))(NODE d)(NODE (NODE _)(NODE f)(NODE (NODE o)(NODE r)(NODE _)))(NODE a)(NODE l)(NODE l)(NODE )(NODE \n)(NODE \n)) |ET| 
-0.99113903242748579991427959612338  |BT| (NODE (NODE t)(NODE r)(NODE e)(NODE a)(NODE t)(NODE (NODE m)(NODE e)(NODE n))(NODE t)(NODE _)(NODE f)(NODE o)(NODE r)(NODE _)(NODE (NODE m)(NODE e)(NODE n))(NODE _)(NODE w)(NODE h)(NODE o)(NODE )(NODE \n)(NODE \n)) |ET| 
1  |BT| (NODE (NODE _)(NODE \n)) |ET| 
-1  |BT| (NODE (NODE _)(NODE \n)) |ET| 
1  |BT| (NODE (NODE r)(NODE i)(NODE t)(NODE a)(NODE _)(NODE w)(NODE y)(NODE n)(NODE n)(NODE e)(NODE )(NODE \n)(NODE \n)) |ET| 
-0.93411901837235522538804843861726  |BT| (NODE (NODE i)(NODE n)(NODE v)(NODE e)(NODE s)(NODE t)(NODE m)(NODE e)(NODE n)(NODE t)(NODE )(NODE \n)(NODE \n)) |ET| 
1  |BT| (NODE (NODE _)(NODE \n)) |ET| 
-1  |BT| (NODE (NODE _)(NODE \n)) |ET| 
1  |BT| (NODE (NODE (NODE _)(NODE s)(NODE o))(NODE _)(NODE i)(NODE f)(NODE (NODE _)(NODE s)(NODE o))(NODE m)(NODE e)(NODE o)(NODE n)(NODE e)(NODE _)(NODE b)(NODE a)(NODE l)(NODE a)(NODE n)(NODE c)(NODE e)(NODE s)(NODE )(NODE \n)(NODE \n)) |ET| 
-1  |BT| (NODE (NODE c)(NODE r)(NODE a)(NODE c)(NODE k)(NODE e)(NODE (NODE d)(NODE _))(NODE t)(NODE h)(NODE (NODE e)(NODE _))(NODE c)(NODE o)(NODE d)(NODE (NODE e)(NODE _))(NODE a)(NODE n)(NODE (NODE d)(NODE _))(NODE w)(NODE i)(NODE l)(NODE l)(NODE _)(NODE s)(NODE h)(NODE o)(NODE w)(NODE _)(NODE y)(NODE o)(NODE u)(NODE _)(NODE \n)) |ET| 
1  |BT| (NODE (NODE _)(NODE \n)) |ET| 
-1  |BT| (NODE (NODE _)(NODE \n)) |ET| 
0.84265786380885976392107750143623  |BT| (NODE (NODE i)(NODE _)(NODE ')(NODE _)(NODE m)(NODE _)(NODE g)(NODE o)(NODE (NODE (NODE i)(NODE n))(NODE g)(NODE _))(NODE (NODE t)(NODE o))(NODE _)(NODE e)(NODE s)(NODE t)(NODE i)(NODE m)(NODE a)(NODE t)(NODE (NODE e)(NODE _))(NODE \4)(NODE (NODE _)(NODE ,)(NODE _))(NODE \5)(NODE (NODE \0)(NODE \0))(NODE _)(NODE c)(NODE o)(NODE m)(NODE (NODE (NODE i)(NODE n))(NODE g)(NODE _))(NODE u)(NODE p)(NODE _)(NODE (NODE t)(NODE o))(NODE m)(NODE o)(NODE r)(NODE r)(NODE o)(NODE w)(NODE (NODE _)(NODE ,)(NODE _))(NODE w)(NODE i)(NODE t)(NODE h)(NODE _)(NODE a)(NODE _)(NODE \2)(NODE (NODE _)(NODE ,)(NODE _))(NODE (NODE \0)(NODE \0))(NODE \0)(NODE _)(NODE (NODE i)(NODE n))(NODE c)(NODE r)(NODE (NODE e)(NODE a))(NODE s)(NODE (NODE e)(NODE _))(NODE (NODE e)(NODE a))(NODE c)(NODE h)(NODE )(NODE \n)(NODE \n)) |ET| 
-1  |BT| (NODE (NODE d)(NODE j)(NODE j)(NODE d)(NODE n)(NODE j)(NODE _)(NODE \3)(NODE \3)(NODE (NODE _)(NODE x))(NODE k)(NODE (NODE s)(NODE _))(NODE n)(NODE p)(NODE v)(NODE j)(NODE k)(NODE p)(NODE (NODE s)(NODE _))(NODE e)(NODE k)(NODE h)(NODE v)(NODE h)(NODE d)(NODE q)(NODE k)(NODE x)(NODE h)(NODE m)(NODE (NODE _)(NODE x))(NODE v)(NODE g)(NODE w)(NODE k)(NODE )(NODE \n)(NODE \n)) |ET| 
1  |BT| (NODE (NODE _)(NODE \n)) |ET| 
-1  |BT| (NODE (NODE _)(NODE \n)) |ET| 
0.84284541436656834623164513686788  |BT| (NODE (NODE c)(NODE a)(NODE m)(NODE p)(NODE (NODE (NODE _)(NODE /)(NODE _))(NODE h)(NODE o)(NODE u)(NODE (NODE _)(NODE /)(NODE _))(NODE (NODE e)(NODE c)(NODE t)(NODE _))(NODE @)(NODE _)(NODE (NODE e)(NODE c)(NODE t)(NODE _))(NODE ,)(NODE _))(NODE t)(NODE h)(NODE u)(NODE _)(NODE n)(NODE g)(NODE u)(NODE y)(NODE e)(NODE n)(NODE (NODE (NODE _)(NODE /)(NODE _))(NODE h)(NODE o)(NODE u)(NODE (NODE _)(NODE /)(NODE _))(NODE (NODE e)(NODE c)(NODE t)(NODE _))(NODE @)(NODE _)(NODE (NODE e)(NODE c)(NODE t)(NODE _))(NODE ,)(NODE _))(NODE k)(NODE y)(NODE l)(NODE e)(NODE _)(NODE r)(NODE _)(NODE l)(NODE i)(NODE l)(NODE l)(NODE y)(NODE (NODE (NODE _)(NODE /)(NODE _))(NODE h)(NODE o)(NODE u)(NODE (NODE _)(NODE /)(NODE _))(NODE (NODE e)(NODE c)(NODE t)(NODE _))(NODE @)(NODE _)(NODE (NODE e)(NODE c)(NODE t)(NODE _))(NODE ,)(NODE _))(NODE s)(NODE t)(NODE a)(NODE c)(NODE e)(NODE y)(NODE )(NODE \n)(NODE \n)) |ET| 
-1  |BT| (NODE (NODE \3)(NODE _)(NODE (NODE d)(NODE a))(NODE y)(NODE (NODE s)(NODE _))(NODE a)(NODE n)(NODE d)(NODE _)(NODE \2)(NODE _)(NODE n)(NODE i)(NODE g)(NODE h)(NODE t)(NODE (NODE s)(NODE _))(NODE i)(NODE n)(NODE (NODE _)(NODE f))(NODE t)(NODE _)(NODE l)(NODE a)(NODE u)(NODE d)(NODE e)(NODE r)(NODE (NODE d)(NODE a))(NODE l)(NODE e)(NODE (NODE _)(NODE f))(NODE l)(NODE (NODE o)(NODE r))(NODE i)(NODE (NODE d)(NODE a))(NODE _)(NODE h)(NODE o)(NODE m)(NODE (NODE e)(NODE _))(NODE o)(NODE f)(NODE _)(NODE t)(NODE h)(NODE (NODE e)(NODE _))(NODE w)(NODE (NODE o)(NODE r))(NODE l)(NODE d)(NODE s)(NODE )(NODE \n)(NODE \n)) |ET| 
1  |BT| (NODE (NODE _)(NODE \n)) |ET| 
-1  |BT| (NODE (NODE _)(NODE \n)) |ET| 
0.84248425845360286334795318907709  |BT| (NODE (NODE w)(NODE i)(NODE (NODE t)(NODE h))(NODE _)(NODE (NODE m)(NODE e))(NODE m)(NODE b)(NODE (NODE e)(NODE r))(NODE s)(NODE _)(NODE f)(NODE r)(NODE (NODE o)(NODE m))(NODE (NODE _)(NODE c))(NODE (NODE o)(NODE m))(NODE (NODE m)(NODE e))(NODE r)(NODE c)(NODE i)(NODE a)(NODE l)(NODE _)(NODE (NODE a)(NODE n))(NODE d)(NODE _)(NODE v)(NODE o)(NODE l)(NODE u)(NODE (NODE m)(NODE e))(NODE _)(NODE m)(NODE (NODE a)(NODE n))(NODE a)(NODE g)(NODE (NODE m)(NODE e))(NODE (NODE n)(NODE t))(NODE (NODE _)(NODE c))(NODE o)(NODE n)(NODE c)(NODE (NODE e)(NODE r))(NODE n)(NODE i)(NODE g)(NODE _)(NODE (NODE t)(NODE h))(NODE e)(NODE _)(NODE e)(NODE (NODE n)(NODE t))(NODE e)(NODE x)(NODE _)(NODE a)(NODE c)(NODE c)(NODE o)(NODE u)(NODE (NODE n)(NODE t))(NODE _)(NODE :)(NODE )(NODE \n)(NODE \n)) |ET| 
-1  |BT| (NODE (NODE (NODE t)(NODE r))(NODE (NODE e)(NODE m))(NODE u)(NODE (NODE l)(NODE o))(NODE (NODE u)(NODE s))(NODE (NODE (NODE _)(NODE a))(NODE r))(NODE (NODE b)(NODE i))(NODE (NODE t)(NODE r))(NODE (NODE a)(NODE g))(NODE (NODE e)(NODE (NODE _)(NODE c)))(NODE (NODE o)(NODE n))(NODE j)(NODE u)(NODE g)(NODE (NODE a)(NODE c))(NODE y)(NODE (NODE (NODE _)(NODE c))(NODE a))(NODE (NODE t)(NODE a))(NODE (NODE l)(NODE o))(NODE g)(NODE u)(NODE (NODE e)(NODE (NODE _)(NODE c)))(NODE a)(NODE s)(NODE e)(NODE w)(NODE (NODE o)(NODE r))(NODE k)(NODE (NODE _)(NODE a))(NODE u)(NODE (NODE d)(NODE i))(NODE t)(NODE (NODE o)(NODE r))(NODE (NODE (NODE _)(NODE c))(NODE a))(NODE p)(NODE (NODE (NODE i)(NODE l))(NODE l))(NODE (NODE a)(NODE r))(NODE (NODE y)(NODE _))(NODE (NODE (NODE d)(NODE i))(NODE f))(NODE (NODE f)(NODE r))(NODE (NODE a)(NODE c))(NODE t)(NODE (NODE o)(NODE m))(NODE e)(NODE (NODE t)(NODE e))(NODE r)(NODE (NODE _)(NODE m))(NODE (NODE (NODE i)(NODE l))(NODE l))(NODE i)(NODE (NODE o)(NODE n))(NODE (NODE t)(NODE h)(NODE _))(NODE o)(NODE s)(NODE (NODE t)(NODE e))(NODE o)(NODE p)(NODE a)(NODE (NODE t)(NODE h)(NODE _))(NODE h)(NODE (NODE o)(NODE n))(NODE e)(NODE y)(NODE (NODE m)(NODE o))(NODE (NODE o)(NODE n))(NODE (NODE _)(NODE p))(NODE r)(NODE (NODE e)(NODE x))(NODE (NODE y)(NODE _))(NODE j)(NODE e)(NODE d)(NODE (NODE _)(NODE h))(NODE (NODE a)(NODE g))(NODE g)(NODE (NODE l)(NODE e))(NODE (NODE _)(NODE p))(NODE a)(NODE n)(NODE (NODE g)(NODE _))(NODE s)(NODE (NODE u)(NODE b))(NODE t)(NODE (NODE l)(NODE e))(NODE t)(NODE (NODE y)(NODE _))(NODE e)(NODE i)(NODE g)(NODE h)(NODE t)(NODE _)(NODE d)(NODE (NODE o)(NODE m))(NODE (NODE i)(NODE n))(NODE (NODE i)(NODE c))(NODE k)(NODE (NODE _)(NODE h))(NODE (NODE a)(NODE r))(NODE (NODE m)(NODE o))(NODE n)(NODE _)(NODE e)(NODE (NODE a)(NODE r))(NODE s)(NODE p)(NODE l)(NODE i)(NODE t)(NODE t)(NODE (NODE i)(NODE n))(NODE (NODE g)(NODE _))(NODE (NODE e)(NODE x))(NODE (NODE t)(NODE r))(NODE u)(NODE d)(NODE e)(NODE (NODE (NODE _)(NODE a))(NODE r))(NODE c)(NODE a)(NODE (NODE d)(NODE i))(NODE a)(NODE _)(NODE g)(NODE l)(NODE u)(NODE (NODE t)(NODE a))(NODE m)(NODE a)(NODE (NODE t)(NODE e))(NODE (NODE _)(NODE m))(NODE (NODE e)(NODE m))(NODE p)(NODE h)(NODE i)(NODE s)(NODE _)(NODE (NODE f)(NODE r))(NODE (NODE e)(NODE s))(NODE c)(NODE o)(NODE (NODE e)(NODE s))(NODE (NODE (NODE _)(NODE c))(NODE a))(NODE (NODE v)(NODE e))(NODE (NODE _)(NODE p))(NODE s)(NODE y)(NODE c)(NODE h)(NODE o)(NODE (NODE a)(NODE c))(NODE o)(NODE (NODE u)(NODE s))(NODE t)(NODE (NODE i)(NODE c))(NODE (NODE (NODE _)(NODE c))(NODE a))(NODE s)(NODE h)(NODE m)(NODE e)(NODE r)(NODE (NODE e)(NODE _))(NODE n)(NODE (NODE u)(NODE b))(NODE (NODE i)(NODE l))(NODE (NODE e)(NODE _))(NODE (NODE (NODE d)(NODE i))(NODE f))(NODE f)(NODE (NODE u)(NODE s))(NODE i)(NODE (NODE v)(NODE e))(NODE _)(NODE (NODE b)(NODE i))(NODE n)(NODE (NODE a)(NODE r))(NODE y)(NODE )(NODE \n)(NODE \n)) |ET| 
1  |BT| (NODE (NODE _)(NODE \n)) |ET| 
-1  |BT| (NODE (NODE _)(NODE \n)) |ET| 
0.84337975713906221386650940985419  |BT| (NODE (NODE a)(NODE _)(NODE v)(NODE o)(NODE l)(NODE u)(NODE m)(NODE (NODE e)(NODE _))(NODE o)(NODE f)(NODE _)(NODE \7)(NODE \2)(NODE \4)(NODE \7)(NODE _)(NODE m)(NODE m)(NODE _)(NODE s)(NODE h)(NODE o)(NODE w)(NODE s)(NODE (NODE _)(NODE t)(NODE o)(NODE _))(NODE h)(NODE a)(NODE v)(NODE (NODE e)(NODE _))(NODE b)(NODE e)(NODE e)(NODE n)(NODE _)(NODE a)(NODE l)(NODE l)(NODE o)(NODE c)(NODE a)(NODE t)(NODE e)(NODE d)(NODE (NODE _)(NODE t)(NODE o)(NODE _))(NODE t)(NODE h)(NODE (NODE e)(NODE _))(NODE r)(NODE e)(NODE l)(NODE i)(NODE a)(NODE (NODE n)(NODE t))(NODE _)(NODE \2)(NODE \0)(NODE \1)(NODE _)(NODE c)(NODE o)(NODE (NODE n)(NODE t))(NODE r)(NODE a)(NODE c)(NODE t)(NODE )(NODE \n)(NODE \n)) |ET| 
-1  |BT| (NODE (NODE (NODE d)(NODE a))(NODE b)(NODE (NODE b)(NODE l))(NODE (NODE e)(NODE (NODE _)(NODE b)))(NODE a)(NODE (NODE m)(NODE _))(NODE s)(NODE (NODE e)(NODE r))(NODE v)(NODE o)(NODE m)(NODE (NODE e)(NODE c))(NODE h)(NODE (NODE a)(NODE n))(NODE i)(NODE s)(NODE (NODE m)(NODE _))(NODE f)(NODE (NODE e)(NODE r))(NODE r)(NODE (NODE e)(NODE (NODE t)(NODE _)))(NODE c)(NODE (NODE a)(NODE n))(NODE o)(NODE p)(NODE y)(NODE (NODE _)(NODE b))(NODE (NODE o)(NODE o))(NODE k)(NODE c)(NODE a)(NODE s)(NODE (NODE e)(NODE (NODE _)(NODE b)))(NODE e)(NODE f)(NODE o)(NODE g)(NODE (NODE _)(NODE (NODE s)(NODE e)))(NODE d)(NODE u)(NODE c)(NODE (NODE t)(NODE i))(NODE v)(NODE (NODE (NODE e)(NODE _))(NODE e))(NODE (NODE l)(NODE a))(NODE p)(NODE (NODE s)(NODE e))(NODE (NODE _)(NODE b))(NODE (NODE a)(NODE l))(NODE (NODE l)(NODE a))(NODE r)(NODE (NODE d)(NODE _))(NODE (NODE d)(NODE a))(NODE (NODE p)(NODE h))(NODE n)(NODE (NODE e)(NODE _))(NODE a)(NODE c)(NODE r)(NODE y)(NODE (NODE (NODE l)(NODE a))(NODE t))(NODE (NODE (NODE e)(NODE _))(NODE d))(NODE (NODE e)(NODE r))(NODE i)(NODE d)(NODE (NODE (NODE e)(NODE _))(NODE d))(NODE (NODE e)(NODE c))(NODE a)(NODE (NODE d)(NODE e))(NODE (NODE n)(NODE (NODE t)(NODE _)))(NODE (NODE d)(NODE e))(NODE s)(NODE o)(NODE (NODE (NODE l)(NODE a))(NODE t))(NODE (NODE (NODE e)(NODE _))(NODE e))(NODE l)(NODE (NODE s)(NODE e))(NODE (NODE _)(NODE (NODE s)(NODE e)))(NODE (NODE q)(NODE u))(NODE e)(NODE (NODE s)(NODE t))(NODE r)(NODE a)(NODE (NODE (NODE t)(NODE i))(NODE (NODE o)(NODE n))(NODE _))(NODE c)(NODE (NODE o)(NODE n))(NODE (NODE d)(NODE i))(NODE (NODE (NODE t)(NODE i))(NODE (NODE o)(NODE n))(NODE _))(NODE (NODE l)(NODE i))(NODE g)(NODE a)(NODE m)(NODE e)(NODE (NODE n)(NODE (NODE t)(NODE _)))(NODE o)(NODE r)(NODE n)(NODE (NODE a)(NODE t))(NODE e)(NODE l)(NODE (NODE y)(NODE _))(NODE y)(NODE a)(NODE (NODE q)(NODE u))(NODE i)(NODE _)(NODE g)(NODE i)(NODE (NODE b)(NODE l))(NODE (NODE e)(NODE (NODE t)(NODE _)))(NODE e)(NODE m)(NODE (NODE p)(NODE h))(NODE y)(NODE (NODE s)(NODE e))(NODE m)(NODE (NODE a)(NODE t))(NODE o)(NODE u)(NODE s)(NODE _)(NODE w)(NODE (NODE o)(NODE o))(NODE d)(NODE (NODE l)(NODE a))(NODE n)(NODE (NODE d)(NODE _))(NODE (NODE l)(NODE i))(NODE (NODE e)(NODE _))(NODE (NODE s)(NODE e))(NODE g)(NODE o)(NODE v)(NODE i)(NODE (NODE a)(NODE _))(NODE (NODE a)(NODE l))(NODE m)(NODE i)(NODE g)(NODE h)(NODE t)(NODE (NODE y)(NODE _))(NODE c)(NODE o)(NODE f)(NODE f)(NODE e)(NODE (NODE y)(NODE _))(NODE s)(NODE h)(NODE u)(NODE (NODE t)(NODE _))(NODE c)(NODE h)(NODE i)(NODE n)(NODE (NODE a)(NODE _))(NODE c)(NODE l)(NODE u)(NODE b)(NODE r)(NODE (NODE o)(NODE o))(NODE (NODE m)(NODE _))(NODE (NODE d)(NODE i))(NODE a)(NODE g)(NODE n)(NODE o)(NODE (NODE s)(NODE t))(NODE i)(NODE c)(NODE i)(NODE (NODE a)(NODE n))(NODE )(NODE \n)(NODE \n)) |ET| 
1  |BT| (NODE (NODE _)(NODE \n)) |ET| 
-1  |BT| (NODE (NODE _)(NODE \n)) |ET| 
0.84253669801188990629015052036266  |BT| (NODE (NODE i)(NODE _)(NODE (NODE h)(NODE a))(NODE v)(NODE (NODE e)(NODE _))(NODE t)(NODE o)(NODE _)(NODE c)(NODE r)(NODE e)(NODE a)(NODE t)(NODE (NODE e)(NODE _))(NODE a)(NODE c)(NODE c)(NODE o)(NODE u)(NODE (NODE n)(NODE t))(NODE i)(NODE (NODE n)(NODE g))(NODE (NODE _)(NODE a))(NODE r)(NODE r)(NODE a)(NODE (NODE n)(NODE g))(NODE e)(NODE m)(NODE e)(NODE (NODE n)(NODE t))(NODE _)(NODE f)(NODE o)(NODE r)(NODE _)(NODE p)(NODE u)(NODE r)(NODE c)(NODE (NODE h)(NODE a))(NODE s)(NODE (NODE e)(NODE _))(NODE f)(NODE r)(NODE o)(NODE m)(NODE _)(NODE u)(NODE n)(NODE o)(NODE c)(NODE a)(NODE l)(NODE _)(NODE e)(NODE n)(NODE e)(NODE r)(NODE g)(NODE y)(NODE (NODE _)(NODE a))(NODE t)(NODE )(NODE \n)(NODE \n)) |ET| 
-1  |BT| (NODE (NODE (NODE _)(NODE a))(NODE l)(NODE (NODE l)(NODE (NODE _)(NODE a)))(NODE r)(NODE (NODE r)(NODE a))(NODE n)(NODE g)(NODE e)(NODE (NODE (NODE m)(NODE (NODE e)(NODE n)))(NODE t))(NODE (NODE s)(NODE (NODE _)(NODE i)))(NODE (NODE n)(NODE _))(NODE r)(NODE (NODE e)(NODE l))(NODE (NODE a)(NODE (NODE t)(NODE i)))(NODE o)(NODE (NODE n)(NODE _))(NODE (NODE t)(NODE o)(NODE _))(NODE (NODE t)(NODE h))(NODE i)(NODE (NODE s)(NODE (NODE _)(NODE i)))(NODE n)(NODE (NODE v)(NODE e))(NODE s)(NODE t)(NODE (NODE (NODE m)(NODE (NODE e)(NODE n)))(NODE t))(NODE (NODE (NODE _)(NODE i))(NODE n)(NODE i)(NODE (NODE t)(NODE i)))(NODE (NODE a)(NODE (NODE t)(NODE i)))(NODE (NODE v)(NODE e))(NODE (NODE _)(NODE ,))(NODE (NODE _)(NODE a))(NODE (NODE s)(NODE _))(NODE w)(NODE (NODE e)(NODE l))(NODE (NODE l)(NODE (NODE _)(NODE a)))(NODE (NODE s)(NODE _))(NODE (NODE t)(NODE h))(NODE e)(NODE (NODE (NODE _)(NODE i))(NODE n)(NODE i)(NODE (NODE t)(NODE i)))(NODE (NODE a)(NODE l)(NODE _))(NODE (NODE c)(NODE a))(NODE p)(NODE (NODE i)(NODE t))(NODE (NODE a)(NODE l)(NODE _))(NODE f)(NODE o)(NODE r)(NODE (NODE _)(NODE i))(NODE t)(NODE (NODE s)(NODE _))(NODE (NODE t)(NODE a))(NODE k)(NODE (NODE e)(NODE _))(NODE (NODE o)(NODE f))(NODE f)(NODE _)(NODE (NODE h)(NODE a))(NODE (NODE s)(NODE _))(NODE b)(NODE e)(NODE (NODE e)(NODE n))(NODE _)(NODE (NODE t)(NODE a))(NODE c)(NODE (NODE t)(NODE i))(NODE (NODE c)(NODE a))(NODE (NODE l)(NODE l))(NODE (NODE y)(NODE _))(NODE s)(NODE e)(NODE t)(NODE (NODE _)(NODE a))(NODE (NODE s)(NODE i))(NODE d)(NODE (NODE e)(NODE _))(NODE (NODE t)(NODE o)(NODE _))(NODE c)(NODE o)(NODE m)(NODE (NODE m)(NODE (NODE e)(NODE n)))(NODE c)(NODE (NODE e)(NODE _))(NODE w)(NODE (NODE h)(NODE a))(NODE t)(NODE e)(NODE (NODE v)(NODE e))(NODE r)(NODE _)(NODE b)(NODE u)(NODE (NODE s)(NODE i))(NODE n)(NODE e)(NODE s)(NODE (NODE s)(NODE _))(NODE y)(NODE (NODE o)(NODE u))(NODE _)(NODE d)(NODE e)(NODE e)(NODE m)(NODE e)(NODE (NODE d)(NODE _))(NODE f)(NODE (NODE i)(NODE t))(NODE (NODE _)(NODE ,))(NODE _)(NODE (NODE t)(NODE h))(NODE a)(NODE t)(NODE _)(NODE w)(NODE i)(NODE (NODE l)(NODE l))(NODE _)(NODE t)(NODE u)(NODE r)(NODE (NODE n)(NODE _))(NODE a)(NODE r)(NODE (NODE o)(NODE u))(NODE n)(NODE (NODE d)(NODE _))(NODE p)(NODE r)(NODE (NODE o)(NODE f))(NODE (NODE i)(NODE t))(NODE _)(NODE f)(NODE a)(NODE v)(NODE (NODE o)(NODE u))(NODE (NODE r)(NODE a))(NODE b)(NODE l)(NODE (NODE y)(NODE _))(NODE \n)) |ET| 
1  |BT| (NODE (NODE _)(NODE \n)) |ET| 
-1  |BT| (NODE (NODE _)(NODE \n)) |ET| 
0.84253930083498340675163262858405  |BT| (NODE (NODE b)(NODE (NODE e)(NODE _))(NODE a)(NODE _)(NODE s)(NODE p)(NODE o)(NODE (NODE t)(NODE _))(NODE t)(NODE i)(NODE c)(NODE k)(NODE e)(NODE (NODE t)(NODE _))(NODE f)(NODE o)(NODE r)(NODE (NODE _)(NODE t))(NODE h)(NODE (NODE e)(NODE _))(NODE i)(NODE n)(NODE c)(NODE (NODE r)(NODE e))(NODE (NODE m)(NODE e))(NODE n)(NODE t)(NODE a)(NODE l)(NODE _)(NODE v)(NODE o)(NODE l)(NODE u)(NODE (NODE m)(NODE e))(NODE s)(NODE _)(NODE d)(NODE e)(NODE l)(NODE i)(NODE v)(NODE e)(NODE (NODE r)(NODE e))(NODE d)(NODE (NODE _)(NODE t))(NODE o)(NODE _)(NODE (NODE m)(NODE e))(NODE t)(NODE e)(NODE r)(NODE _)(NODE \9)(NODE \6)(NODE \1)(NODE \0)(NODE _)(NODE \()(NODE _)(NODE c)(NODE a)(NODE g)(NODE e)(NODE )(NODE \n)(NODE \n)) |ET| 
-1  |BT| (NODE (NODE a)(NODE (NODE t)(NODE _))(NODE (NODE t)(NODE h))(NODE (NODE e)(NODE _))(NODE m)(NODE o)(NODE (NODE m)(NODE e)(NODE (NODE n)(NODE (NODE t)(NODE _))))(NODE (NODE ,)(NODE (NODE _)(NODE w)))(NODE (NODE e)(NODE _))(NODE (NODE w)(NODE i))(NODE l)(NODE l)(NODE _)(NODE b)(NODE (NODE e)(NODE _))(NODE (NODE r)(NODE e))(NODE q)(NODE u)(NODE i)(NODE r)(NODE (NODE i)(NODE n))(NODE g)(NODE (NODE (NODE _)(NODE y)(NODE (NODE o)(NODE u)))(NODE r)(NODE (NODE _)(NODE a)))(NODE s)(NODE s)(NODE i)(NODE s)(NODE t)(NODE (NODE a)(NODE n))(NODE c)(NODE (NODE (NODE e)(NODE _))(NODE (NODE i)(NODE n)))(NODE (NODE _)(NODE a))(NODE (NODE _)(NODE m))(NODE (NODE a)(NODE t))(NODE (NODE t)(NODE e))(NODE (NODE r)(NODE _))(NODE (NODE t)(NODE h))(NODE (NODE a)(NODE t))(NODE (NODE (NODE _)(NODE (NODE i)(NODE n)))(NODE v))(NODE o)(NODE l)(NODE v)(NODE (NODE e)(NODE s))(NODE (NODE (NODE _)(NODE (NODE i)(NODE n)))(NODE v))(NODE (NODE e)(NODE s))(NODE t)(NODE (NODE m)(NODE e)(NODE (NODE n)(NODE (NODE t)(NODE _))))(NODE o)(NODE f)(NODE (NODE _)(NODE m))(NODE (NODE o)(NODE n))(NODE i)(NODE (NODE e)(NODE s))(NODE _)(NODE (NODE ,)(NODE (NODE _)(NODE w)))(NODE h)(NODE (NODE i)(NODE c))(NODE h)(NODE (NODE _)(NODE w))(NODE (NODE (NODE e)(NODE _))(NODE (NODE i)(NODE n)))(NODE (NODE t)(NODE e))(NODE n)(NODE d)(NODE (NODE _)(NODE t))(NODE o)(NODE (NODE _)(NODE t))(NODE r)(NODE (NODE a)(NODE n))(NODE s)(NODE f)(NODE e)(NODE (NODE r)(NODE _))(NODE t)(NODE o)(NODE (NODE (NODE _)(NODE y)(NODE (NODE o)(NODE u)))(NODE r)(NODE (NODE _)(NODE a)))(NODE c)(NODE c)(NODE (NODE o)(NODE u))(NODE (NODE n)(NODE (NODE t)(NODE _)))(NODE ,)(NODE _)(NODE u)(NODE p)(NODE (NODE (NODE o)(NODE n))(NODE _))(NODE c)(NODE l)(NODE a)(NODE r)(NODE i)(NODE f)(NODE (NODE i)(NODE c))(NODE (NODE (NODE a)(NODE t))(NODE i))(NODE (NODE (NODE o)(NODE n))(NODE _))(NODE (NODE a)(NODE n))(NODE d)(NODE (NODE _)(NODE a))(NODE (NODE _)(NODE w))(NODE o)(NODE r)(NODE k)(NODE a)(NODE b)(NODE l)(NODE (NODE e)(NODE _))(NODE a)(NODE g)(NODE (NODE r)(NODE e))(NODE e)(NODE (NODE m)(NODE e)(NODE (NODE n)(NODE (NODE t)(NODE _))))(NODE (NODE r)(NODE e))(NODE a)(NODE c)(NODE (NODE h)(NODE e))(NODE d)(NODE (NODE _)(NODE (NODE i)(NODE n)))(NODE _)(NODE c)(NODE (NODE o)(NODE n))(NODE s)(NODE u)(NODE m)(NODE m)(NODE (NODE (NODE a)(NODE t))(NODE i))(NODE n)(NODE g)(NODE (NODE _)(NODE t))(NODE (NODE h)(NODE e))(NODE _)(NODE p)(NODE r)(NODE o)(NODE j)(NODE e)(NODE c)(NODE (NODE t)(NODE _))(NODE (NODE w)(NODE i))(NODE (NODE t)(NODE h))(NODE (NODE _)(NODE y)(NODE (NODE o)(NODE u)))(NODE _)(NODE \n)) |ET| 
1  |BT| (NODE (NODE _)(NODE \n)) |ET| 
-1  |BT| (NODE (NODE _)(NODE \n)) |ET| 
0.84251846005561159547170291261864  |BT| (NODE (NODE t)(NODE o)(NODE _)(NODE :)(NODE _)(NODE (NODE g)(NODE e))(NODE o)(NODE r)(NODE (NODE g)(NODE e))(NODE _)(NODE s)(NODE m)(NODE i)(NODE (NODE t)(NODE h))(NODE _)(NODE ,)(NODE (NODE _)(NODE e))(NODE d)(NODE w)(NODE a)(NODE r)(NODE d)(NODE _)(NODE t)(NODE (NODE e)(NODE r))(NODE r)(NODE (NODE y)(NODE (NODE _)(NODE /)(NODE _))(NODE h)(NODE o)(NODE u)(NODE (NODE _)(NODE /)(NODE _))(NODE e)(NODE (NODE c)(NODE t)(NODE _))(NODE @)(NODE (NODE _)(NODE e))(NODE (NODE c)(NODE t)(NODE _))(NODE ,))(NODE (NODE _)(NODE k))(NODE a)(NODE (NODE t)(NODE h))(NODE (NODE e)(NODE r))(NODE i)(NODE n)(NODE e)(NODE _)(NODE l)(NODE (NODE _)(NODE k))(NODE e)(NODE l)(NODE l)(NODE (NODE y)(NODE (NODE _)(NODE /)(NODE _))(NODE h)(NODE o)(NODE u)(NODE (NODE _)(NODE /)(NODE _))(NODE e)(NODE (NODE c)(NODE t)(NODE _))(NODE @)(NODE (NODE _)(NODE e))(NODE (NODE c)(NODE t)(NODE _))(NODE ,))(NODE )(NODE \n)(NODE \n)) |ET| 
-1  |BT| (NODE (NODE (NODE _)(NODE (NODE y)(NODE (NODE o)(NODE u))))(NODE (NODE _)(NODE w))(NODE (NODE i)(NODE (NODE l)(NODE l)))(NODE (NODE _)(NODE b))(NODE (NODE (NODE e)(NODE _))(NODE t))(NODE h)(NODE (NODE e)(NODE _))(NODE (NODE o)(NODE n))(NODE (NODE (NODE e)(NODE _))(NODE t))(NODE o)(NODE (NODE _)(NODE b))(NODE (NODE e)(NODE _))(NODE d)(NODE o)(NODE (NODE i)(NODE n))(NODE g)(NODE (NODE _)(NODE a))(NODE (NODE l)(NODE l))(NODE (NODE (NODE _)(NODE t))(NODE (NODE h)(NODE e)))(NODE (NODE s)(NODE (NODE e)(NODE _)))(NODE ,)(NODE (NODE _)(NODE a))(NODE (NODE n)(NODE d))(NODE (NODE _)(NODE (NODE i)(NODE n)))(NODE (NODE (NODE (NODE _)(NODE t))(NODE (NODE h)(NODE e)))(NODE _))(NODE c)(NODE (NODE o)(NODE u))(NODE r)(NODE (NODE s)(NODE (NODE e)(NODE _)))(NODE (NODE o)(NODE f)(NODE (NODE _)(NODE t)))(NODE r)(NODE (NODE a)(NODE n))(NODE (NODE s)(NODE f))(NODE (NODE e)(NODE (NODE r)(NODE _))(NODE (NODE ,)(NODE _)))(NODE i)(NODE f)(NODE (NODE _)(NODE f))(NODE o)(NODE (NODE r)(NODE _))(NODE (NODE a)(NODE n))(NODE (NODE y)(NODE _)(NODE (NODE r)(NODE e)))(NODE a)(NODE s)(NODE (NODE o)(NODE n))(NODE (NODE _)(NODE w))(NODE (NODE h)(NODE a))(NODE t)(NODE (NODE s)(NODE o))(NODE e)(NODE v)(NODE (NODE e)(NODE (NODE r)(NODE _))(NODE (NODE ,)(NODE _)))(NODE (NODE y)(NODE (NODE o)(NODE u)))(NODE (NODE _)(NODE (NODE i)(NODE n)))(NODE c)(NODE u)(NODE r)(NODE (NODE r)(NODE e))(NODE d)(NODE _)(NODE (NODE s)(NODE o))(NODE (NODE m)(NODE (NODE e)(NODE _)))(NODE b)(NODE (NODE i)(NODE (NODE l)(NODE l)))(NODE (NODE s)(NODE _))(NODE (NODE ,)(NODE _))(NODE w)(NODE (NODE e)(NODE _))(NODE s)(NODE (NODE h)(NODE a))(NODE (NODE l)(NODE l))(NODE (NODE _)(NODE a))(NODE d)(NODE e)(NODE q)(NODE u)(NODE (NODE a)(NODE t))(NODE e)(NODE l)(NODE (NODE y)(NODE _)(NODE (NODE r)(NODE e)))(NODE t)(NODE i)(NODE (NODE r)(NODE e))(NODE _)(NODE s)(NODE a)(NODE (NODE m)(NODE (NODE e)(NODE _)))(NODE (NODE ,)(NODE _))(NODE u)(NODE p)(NODE (NODE o)(NODE n))(NODE (NODE (NODE (NODE _)(NODE t))(NODE (NODE h)(NODE e)))(NODE _))(NODE s)(NODE u)(NODE (NODE c)(NODE c))(NODE e)(NODE s)(NODE (NODE s)(NODE f))(NODE u)(NODE l)(NODE _)(NODE c)(NODE (NODE o)(NODE n))(NODE f)(NODE i)(NODE r)(NODE m)(NODE (NODE a)(NODE t))(NODE i)(NODE (NODE o)(NODE n))(NODE _)(NODE (NODE o)(NODE f)(NODE (NODE _)(NODE t)))(NODE (NODE h)(NODE e))(NODE (NODE _)(NODE f))(NODE u)(NODE (NODE n)(NODE d))(NODE (NODE s)(NODE _))(NODE (NODE i)(NODE n))(NODE (NODE _)(NODE (NODE y)(NODE (NODE o)(NODE u))))(NODE (NODE r)(NODE _))(NODE a)(NODE (NODE c)(NODE c))(NODE (NODE o)(NODE u))(NODE n)(NODE t)(NODE _)(NODE \n)) |ET| 
1  |BT| (NODE (NODE _)(NODE \n)) |ET| 
-1  |BT| (NODE (NODE _)(NODE \n)) |ET| 
0.84270143076720738228857499052538  |BT| (NODE (NODE (NODE i)(NODE n))(NODE (NODE _)(NODE t)(NODE h))(NODE (NODE e)(NODE _))(NODE (NODE i)(NODE n))(NODE i)(NODE (NODE t)(NODE i))(NODE a)(NODE l)(NODE _)(NODE p)(NODE h)(NODE a)(NODE s)(NODE e)(NODE (NODE s)(NODE _))(NODE o)(NODE f)(NODE (NODE _)(NODE t)(NODE h))(NODE i)(NODE (NODE s)(NODE _))(NODE t)(NODE r)(NODE (NODE a)(NODE n))(NODE s)(NODE i)(NODE s)(NODE (NODE t)(NODE i))(NODE o)(NODE n)(NODE _)(NODE ,)(NODE _)(NODE i)(NODE _)(NODE w)(NODE o)(NODE u)(NODE l)(NODE d)(NODE _)(NODE l)(NODE i)(NODE k)(NODE (NODE e)(NODE _))(NODE t)(NODE o)(NODE _)(NODE o)(NODE r)(NODE g)(NODE (NODE a)(NODE n))(NODE i)(NODE z)(NODE (NODE e)(NODE _))(NODE (NODE a)(NODE n))(NODE _)(NODE e)(NODE n)(NODE t)(NODE e)(NODE x)(NODE )(NODE \n)(NODE \n)) |ET| 
-1  |BT| (NODE (NODE i)(NODE (NODE n)(NODE d))(NODE (NODE i)(NODE r))(NODE e)(NODE c)(NODE (NODE t)(NODE _))(NODE o)(NODE b)(NODE v)(NODE i)(NODE (NODE o)(NODE u))(NODE (NODE s)(NODE _))(NODE (NODE r)(NODE o))(NODE e)(NODE b)(NODE u)(NODE c)(NODE k)(NODE (NODE _)(NODE s))(NODE o)(NODE (NODE m)(NODE a))(NODE (NODE (NODE _)(NODE c))(NODE o))(NODE (NODE r)(NODE n))(NODE f)(NODE (NODE i)(NODE e))(NODE l)(NODE d)(NODE (NODE _)(NODE c))(NODE (NODE r)(NODE (NODE a)(NODE n)))(NODE (NODE e)(NODE _))(NODE w)(NODE (NODE a)(NODE t))(NODE (NODE t)(NODE a))(NODE (NODE g)(NODE (NODE e)(NODE _)))(NODE (NODE i)(NODE r))(NODE (NODE (NODE _)(NODE c))(NODE o))(NODE (NODE l)(NODE l))(NODE (NODE i)(NODE e))(NODE r)(NODE (NODE (NODE _)(NODE s))(NODE t))(NODE (NODE o)(NODE r))(NODE k)(NODE (NODE _)(NODE b))(NODE r)(NODE u)(NODE n)(NODE (NODE t)(NODE _))(NODE t)(NODE (NODE r)(NODE (NODE a)(NODE n)))(NODE s)(NODE (NODE c)(NODE e))(NODE (NODE n)(NODE d))(NODE (NODE e)(NODE n))(NODE (NODE t)(NODE a))(NODE (NODE l)(NODE _))(NODE (NODE l)(NODE e))(NODE (NODE a)(NODE t))(NODE (NODE h)(NODE e))(NODE r)(NODE y)(NODE (NODE _)(NODE b))(NODE u)(NODE (NODE r)(NODE n))(NODE s)(NODE (NODE i)(NODE d))(NODE (NODE e)(NODE _))(NODE (NODE h)(NODE e))(NODE i)(NODE (NODE g)(NODE h))(NODE t)(NODE (NODE e)(NODE n))(NODE (NODE _)(NODE p))(NODE l)(NODE (NODE (NODE a)(NODE n))(NODE o))(NODE c)(NODE o)(NODE n)(NODE v)(NODE e)(NODE x)(NODE (NODE (NODE _)(NODE c))(NODE o))(NODE (NODE o)(NODE r))(NODE d)(NODE i)(NODE n)(NODE (NODE a)(NODE t))(NODE (NODE e)(NODE _))(NODE (NODE j)(NODE u))(NODE (NODE j)(NODE u))(NODE _)(NODE (NODE m)(NODE a))(NODE r)(NODE l)(NODE b)(NODE (NODE o)(NODE r))(NODE (NODE o)(NODE u))(NODE (NODE g)(NODE h))(NODE (NODE _)(NODE p))(NODE (NODE r)(NODE o))(NODE p)(NODE o)(NODE s)(NODE a)(NODE (NODE l)(NODE _))(NODE a)(NODE (NODE l)(NODE l))(NODE o)(NODE (NODE t)(NODE _))(NODE j)(NODE (NODE (NODE a)(NODE n))(NODE o))(NODE (NODE s)(NODE _))(NODE (NODE a)(NODE r))(NODE t)(NODE i)(NODE f)(NODE i)(NODE (NODE c)(NODE e))(NODE (NODE (NODE _)(NODE s))(NODE t))(NODE u)(NODE r)(NODE (NODE b)(NODE r))(NODE (NODE i)(NODE d))(NODE (NODE g)(NODE (NODE e)(NODE _)))(NODE d)(NODE (NODE a)(NODE r))(NODE (NODE l)(NODE e))(NODE n)(NODE (NODE e)(NODE _))(NODE (NODE b)(NODE r))(NODE e)(NODE a)(NODE k)(NODE )(NODE \n)(NODE \n)) |ET| 
1  |BT| (NODE (NODE _)(NODE \n)) |ET| 
-1  |BT| (NODE (NODE _)(NODE \0)(NODE _)(NODE \n)) |ET| 
0.8424633028124739464459480586811  |BT| (NODE (NODE i)(NODE _)(NODE w)(NODE i)(NODE l)(NODE (NODE l)(NODE _))(NODE h)(NODE a)(NODE v)(NODE (NODE e)(NODE _))(NODE m)(NODE (NODE y)(NODE _))(NODE a)(NODE s)(NODE s)(NODE i)(NODE s)(NODE t)(NODE a)(NODE n)(NODE t)(NODE _)(NODE t)(NODE o)(NODE _)(NODE c)(NODE o)(NODE (NODE o)(NODE r))(NODE d)(NODE (NODE i)(NODE n))(NODE a)(NODE t)(NODE (NODE e)(NODE _))(NODE t)(NODE h)(NODE (NODE e)(NODE _))(NODE (NODE i)(NODE n))(NODE i)(NODE (NODE t)(NODE i))(NODE a)(NODE (NODE l)(NODE _))(NODE m)(NODE e)(NODE e)(NODE (NODE t)(NODE i))(NODE n)(NODE g)(NODE _)(NODE f)(NODE (NODE o)(NODE r))(NODE _)(NODE e)(NODE a)(NODE r)(NODE l)(NODE (NODE y)(NODE _))(NODE \1)(NODE _)(NODE /)(NODE _)(NODE \2)(NODE \0)(NODE \0)(NODE \0)(NODE _)(NODE \n)) |ET| 
-1  |BT| (NODE (NODE -)(NODE (NODE _)(NODE c))(NODE o)(NODE n)(NODE t)(NODE (NODE r)(NODE (NODE o)(NODE l)))(NODE l)(NODE e)(NODE d)(NODE (NODE _)(NODE c))(NODE h)(NODE (NODE o)(NODE l))(NODE e)(NODE s)(NODE t)(NODE e)(NODE (NODE r)(NODE (NODE o)(NODE l)))(NODE )(NODE \n)(NODE \n)) |ET| 
1  |BT| (NODE (NODE _)(NODE m)(NODE _)(NODE \n)) |ET| 
-1  |BT| (NODE (NODE _)(NODE b)(NODE r)(NODE )(NODE \n)(NODE \n)) |ET| 
0.92996732285239791515607521432685  |BT| (NODE (NODE S)(NODE u)(NODE b)(NODE j)(NODE e)(NODE c)(NODE t)(NODE :)(NODE _)(NODE m)(NODE i)(NODE s)(NODE c)(NODE e)(NODE l)(NODE l)(NODE a)(NODE n)(NODE e)(NODE o)(NODE u)(NODE s)(NODE )(NODE \n)(NODE \n)) |ET| 
-0.99281469728653393147510541894007  |BT| (NODE (NODE h)(NODE t)(NODE t)(NODE p)(NODE _)(NODE :)(NODE (NODE _)(NODE /))(NODE (NODE _)(NODE /))(NODE _)(NODE w)(NODE w)(NODE w)(NODE _)(NODE \n)) |ET| 
1  |BT| (NODE (NODE _)(NODE \2)(NODE \0)(NODE )(NODE \n)(NODE \n)) |ET| 
-1  |BT| (NODE (NODE _)(NODE c)(NODE o)(NODE m)(NODE )(NODE \n)(NODE \n)) |ET| 
1  |BT| (NODE (NODE b)(NODE o)(NODE b)(NODE _)(NODE w)(NODE i)(NODE t)(NODE h)(NODE e)(NODE r)(NODE s)(NODE _)(NODE >)(NODE _)(NODE <)(NODE )(NODE \n)(NODE \n)) |ET| 
-1  |BT| (NODE (NODE (NODE (NODE -)(NODE _))(NODE (NODE -)(NODE _)))(NODE (NODE (NODE (NODE -)(NODE _))(NODE (NODE -)(NODE _)))(NODE (NODE -)(NODE _)))(NODE b)(NODE e)(NODE g)(NODE i)(NODE n)(NODE _)(NODE p)(NODE g)(NODE p)(NODE _)(NODE s)(NODE i)(NODE g)(NODE n)(NODE a)(NODE t)(NODE u)(NODE r)(NODE e)(NODE _)(NODE (NODE (NODE (NODE -)(NODE _))(NODE (NODE -)(NODE _)))(NODE (NODE -)(NODE _)))(NODE (NODE -)(NODE _))(NODE -)(NODE )(NODE \n)(NODE \n)) |ET| 
1  |BT| (NODE (NODE _)(NODE l)(NODE e)(NODE t)(NODE )(NODE \n)(NODE \n)) |ET| 
-1  |BT| (NODE (NODE l)(NODE _)(NODE \n)) |ET| 
0.99747771141035523889684100140585  |BT| (NODE (NODE e)(NODE n)(NODE r)(NODE o)(NODE n)(NODE _)(NODE n)(NODE (NODE o)(NODE r))(NODE t)(NODE h)(NODE _)(NODE a)(NODE m)(NODE e)(NODE r)(NODE i)(NODE c)(NODE a)(NODE _)(NODE c)(NODE (NODE o)(NODE r))(NODE p)(NODE _)(NODE \n)) |ET| 
-0.94463009596573954684828322569956  |BT| (NODE (NODE -)(NODE _)(NODE p)(NODE h)(NODE e)(NODE n)(NODE t)(NODE e)(NODE r)(NODE m)(NODE i)(NODE n)(NODE e)(NODE )(NODE \n)(NODE \n)) |ET| 
1  |BT| (NODE (NODE d)(NODE _)(NODE \n)) |ET| 
-1  |BT| (NODE (NODE \n)) |ET| 
1  |BT| (NODE (NODE c)(NODE a)(NODE r)(NODE l)(NODE o)(NODE s)(NODE _)(NODE ,)(NODE )(NODE \n)(NODE \n)) |ET| 
-0.13778609356267806917983875791833  |BT| (NODE (NODE _)(NODE \1)(NODE \6)(NODE \1)(NODE _)(NODE \n)) |ET| 
-1  |BT| (NODE (NODE c)(NODE a)(NODE d)(NODE e)(NODE a)(NODE u)(NODE _)(NODE !)(NODE )(NODE \n)(NODE \n)) |ET| 
1  |BT| (NODE (NODE \n)) |ET| 
-1  |BT| (NODE (NODE \n)) |ET| 
1  |BT| (NODE (NODE n)(NODE o)(NODE v)(NODE e)(NODE m)(NODE b)(NODE e)(NODE r)(NODE _)(NODE c)(NODE l)(NODE o)(NODE s)(NODE e)(NODE _)(NODE \n)) |ET| 
-1  |BT| (NODE (NODE s)(NODE u)(NODE c)(NODE c)(NODE e)(NODE s)(NODE (NODE s)(NODE _))(NODE i)(NODE (NODE s)(NODE _))(NODE \n)) |ET| 
1  |BT| (NODE (NODE \n)) |ET| 
-1  |BT| (NODE (NODE m)(NODE o)(NODE n)(NODE e)(NODE y)(NODE )(NODE \n)(NODE \n)) |ET| 
1  |BT| (NODE (NODE p)(NODE l)(NODE e)(NODE a)(NODE s)(NODE (NODE e)(NODE _))(NODE a)(NODE d)(NODE v)(NODE i)(NODE c)(NODE (NODE e)(NODE _))(NODE \n)) |ET| 
-0.41232785613487243914221380691743  |BT| (NODE (NODE \0)(NODE \2)(NODE (NODE _)(NODE /)(NODE _)(NODE \2))(NODE \7)(NODE (NODE _)(NODE /)(NODE _)(NODE \2))(NODE \0)(NODE \0)(NODE \3)(NODE )(NODE \n)(NODE \n)) |ET| 
1  |BT| (NODE (NODE m)(NODE e)(NODE )(NODE \n)(NODE \n)) |ET| 
-1  |BT| (NODE (NODE \n)) |ET| 
0.90912857869538055144431609733147  |BT| (NODE (NODE _)(NODE \9)(NODE \8)(NODE \1)(NODE \0)(NODE (NODE _)(NODE \1))(NODE (NODE _)(NODE \1))(NODE \0)(NODE (NODE \0)(NODE _))(NODE %)(NODE _)(NODE l)(NODE e)(NODE s)(NODE s)(NODE _)(NODE $)(NODE _)(NODE (NODE \0)(NODE _))(NODE \n)) |ET| 
-1  |BT| (NODE (NODE (NODE _)(NODE o))(NODE n)(NODE e)(NODE (NODE _)(NODE o))(NODE f)(NODE f)(NODE (NODE e)(NODE r)(NODE _))(NODE p)(NODE (NODE e)(NODE r)(NODE _))(NODE (NODE h)(NODE o))(NODE u)(NODE s)(NODE e)(NODE (NODE h)(NODE o))(NODE l)(NODE d)(NODE _)(NODE \n)) |ET| 
1  |BT| (NODE (NODE \n)) |ET| 
-1  |BT| (NODE (NODE \n)) |ET| 
1  |BT| (NODE (NODE f)(NODE y)(NODE i)(NODE _)(NODE :)(NODE )(NODE \n)(NODE \n)) |ET| 
-1  |BT| (NODE (NODE _)(NODE h)(NODE t)(NODE m)(NODE l)(NODE )(NODE \n)(NODE \n)) |ET| 
1  |BT| (NODE (NODE \n)) |ET| 
-1  |BT| (NODE (NODE \n)) |ET| 
0.99354477254644257833149367797887  |BT| (NODE (NODE (NODE ")(NODE _))(NODE a)(NODE c)(NODE c)(NODE o)(NODE u)(NODE n)(NODE t)(NODE _)(NODE (NODE ")(NODE _))(NODE t)(NODE e)(NODE a)(NODE m)(NODE _)(NODE \n)) |ET| 
-1  |BT| (NODE (NODE f)(NODE i)(NODE c)(NODE h)(NODE i)(NODE e)(NODE r)(NODE _)(NODE d)(NODE (NODE e)(NODE _))(NODE r)(NODE o)(NODE u)(NODE t)(NODE a)(NODE g)(NODE (NODE e)(NODE _))(NODE \n)) |ET| 
1  |BT| (NODE (NODE \n)) |ET| 
-1  |BT| (NODE (NODE \n)) |ET| 
1  |BT| (NODE (NODE _)(NODE f)(NODE o)(NODE r)(NODE _)(NODE t)(NODE h)(NODE e)(NODE )(NODE \n)(NODE \n)) |ET| 
-1  |BT| (NODE (NODE _)(NODE \6)(NODE \3)(NODE _)(NODE \n)) |ET| 
1  |BT| (NODE (NODE \n)) |ET| 
-1  |BT| (NODE (NODE \n)) |ET| 
0.62258704686964394525716670614202  |BT| (NODE (NODE \3)(NODE _)(NODE ,)(NODE _)(NODE \0)(NODE \0)(NODE \0)(NODE _)(NODE m)(NODE m)(NODE b)(NODE t)(NODE u)(NODE _)(NODE /)(NODE _)(NODE d)(NODE _)(NODE \)) |ET| 
-0.92774059566093480810877736075781  |BT| (NODE (NODE d)(NODE e)(NODE (NODE a)(NODE r))(NODE _)(NODE p)(NODE (NODE a)(NODE r))(NODE t)(NODE n)(NODE e)(NODE r)(NODE _)(NODE ,)(NODE )(NODE \n)(NODE \n)) |ET| 
1  |BT| (NODE (NODE \n)(NODE \n)) |ET| 
-0.85773419599652189759808607050218  |BT| (NODE (NODE z)(NODE (NODE u)(NODE p))(NODE y)(NODE m)(NODE v)(NODE _)(NODE (NODE u)(NODE p))(NODE d)(NODE i)(NODE )(NODE \n)(NODE \n)) |ET| 
1  |BT| (NODE (NODE k)(NODE i)(NODE m)(NODE _)(NODE /)(NODE _)(NODE a)(NODE n)(NODE i)(NODE t)(NODE a)(NODE _)(NODE -)(NODE )(NODE \n)(NODE \n)) |ET| 
-1  |BT| (NODE (NODE _)(NODE h)(NODE t)(NODE m)(NODE l)(NODE g)(NODE e)(NODE t)(NODE )(NODE \n)(NODE \n)) |ET| 
1  |BT| (NODE (NODE d)(NODE o)(NODE r)(NODE c)(NODE h)(NODE e)(NODE u)(NODE s)(NODE _)(NODE \n)) |ET| 
-0.55111626104917454949116972784395  |BT| (NODE (NODE _)(NODE d)(NODE e)(NODE m)(NODE o)(NODE k)(NODE r)(NODE i)(NODE t)(NODE o)(NODE s)(NODE _)(NODE \n)) |ET| 
1  |BT| (NODE (NODE (NODE _)(NODE t))(NODE g)(NODE t)(NODE _)(NODE o)(NODE n)(NODE (NODE _)(NODE t))(NODE h)(NODE e)(NODE )(NODE \n)(NODE \n)) |ET| 
-1  |BT| (NODE (NODE w)(NODE h)(NODE a)(NODE (NODE t)(NODE _))(NODE i)(NODE (NODE t)(NODE _))(NODE d)(NODE o)(NODE e)(NODE s)(NODE )(NODE \n)(NODE \n)) |ET| 
1  |BT| (NODE (NODE k)(NODE i)(NODE m)(NODE b)(NODE e)(NODE r)(NODE l)(NODE y)(NODE _)(NODE v)(NODE a)(NODE u)(NODE g)(NODE h)(NODE n)(NODE )(NODE \n)(NODE \n)) |ET| 
-1  |BT| (NODE (NODE f)(NODE r)(NODE e)(NODE (NODE e)(NODE _))(NODE c)(NODE a)(NODE b)(NODE l)(NODE (NODE e)(NODE _))(NODE @)(NODE _)(NODE t)(NODE v)(NODE )(NODE \n)(NODE \n)) |ET| 
1  |BT| (NODE (NODE _)(NODE i)(NODE _)(NODE w)(NODE o)(NODE u)(NODE l)(NODE d)(NODE )(NODE \n)(NODE \n)) |ET| 
-1  |BT| (NODE (NODE \4)(NODE _)(NODE \n)) |ET| 
1  |BT| (NODE (NODE s)(NODE y)(NODE s)(NODE t)(NODE e)(NODE m)(NODE _)(NODE \n)) |ET| 
-0.79408003809782934379057905971422  |BT| (NODE (NODE s)(NODE i)(NODE n)(NODE c)(NODE e)(NODE r)(NODE e)(NODE l)(NODE y)(NODE )(NODE \n)(NODE \n)) |ET| 
1  |BT| (NODE (NODE (NODE |)(NODE _))(NODE (NODE |)(NODE _))(NODE (NODE |)(NODE _))(NODE |)(NODE )(NODE \n)(NODE \n)) |ET| 
-0.9965502550353886324074892399949  |BT| (NODE (NODE _)(NODE (NODE o)(NODE u))(NODE l)(NODE d)(NODE _)(NODE y)(NODE (NODE o)(NODE u))(NODE _)(NODE l)(NODE i)(NODE k)(NODE e)(NODE )(NODE \n)(NODE \n)) |ET| 
1  |BT| (NODE (NODE h)(NODE c)(NODE \n)) |ET| 
-1  |BT| (NODE (NODE /)(NODE _)(NODE h)(NODE e)(NODE a)(NODE d)(NODE )(NODE \n)(NODE \n)) |ET| 
1  |BT| (NODE (NODE _)(NODE e)(NODE n)(NODE t)(NODE e)(NODE x)(NODE _)(NODE i)(NODE s)(NODE )(NODE \n)(NODE \n)) |ET| 
-1  |BT| (NODE (NODE _)(NODE e)(NODE _)(NODE !)(NODE )(NODE \n)(NODE \n)) |ET| 
1  |BT| (NODE (NODE l)(NODE a)(NODE u)(NODE r)(NODE i)(NODE _)(NODE \n)) |ET| 
-1  |BT| (NODE (NODE c)(NODE (NODE l)(NODE i))(NODE (NODE l)(NODE i))(NODE n)(NODE g)(NODE s)(NODE _)(NODE \n)) |ET| 
1  |BT| (NODE (NODE _)(NODE \0)(NODE \5)(NODE _)(NODE c)(NODE e)(NODE n)(NODE t)(NODE _)(NODE f)(NODE e)(NODE e)(NODE )(NODE \n)(NODE \n)) |ET| 
-0.93509350798992896258710061374586  |BT| (NODE (NODE t)(NODE h)(NODE i)(NODE e)(NODE r)(NODE r)(NODE y)(NODE _)(NODE e)(NODE h)(NODE r)(NODE m)(NODE a)(NODE n)(NODE n)(NODE )(NODE \n)(NODE \n)) |ET| 
1  |BT| (NODE (NODE (NODE g)(NODE e))(NODE o)(NODE r)(NODE (NODE g)(NODE e))(NODE _)(NODE x)(NODE _)(NODE \3)(NODE _)(NODE -)(NODE _)(NODE \6)(NODE \9)(NODE \9)(NODE \2)(NODE )(NODE \n)(NODE \n)) |ET| 
-1  |BT| (NODE (NODE S)(NODE u)(NODE b)(NODE j)(NODE e)(NODE c)(NODE t)(NODE :)(NODE _)(NODE s)(NODE m)(NODE o)(NODE k)(NODE e)(NODE _)(NODE \9)(NODE \8)(NODE \8)(NODE \5)(NODE )(NODE \n)(NODE \n)) |ET| 
1  |BT| (NODE (NODE d)(NODE (NODE a)(NODE r))(NODE e)(NODE n)(NODE _)(NODE j)(NODE _)(NODE f)(NODE (NODE a)(NODE r))(NODE m)(NODE e)(NODE r)(NODE )(NODE \n)(NODE \n)) |ET| 
-0.47072483344492438428474656575418  |BT| (NODE (NODE _)(NODE r)(NODE o)(NODE n)(NODE g)(NODE e)(NODE r)(NODE _)(NODE e)(NODE _)(NODE \n)) |ET| 
1  |BT| (NODE (NODE S)(NODE u)(NODE b)(NODE j)(NODE e)(NODE c)(NODE t)(NODE :)(NODE _)(NODE k)(NODE i)(NODE n)(NODE g)(NODE _)(NODE r)(NODE a)(NODE n)(NODE c)(NODE h)(NODE )(NODE \n)(NODE \n)) |ET| 
-1  |BT| (NODE (NODE d)(NODE i)(NODE s)(NODE c)(NODE l)(NODE a)(NODE i)(NODE m)(NODE e)(NODE r)(NODE _)(NODE :)(NODE _)(NODE p)(NODE l)(NODE (NODE e)(NODE a))(NODE s)(NODE e)(NODE _)(NODE r)(NODE (NODE e)(NODE a))(NODE d)(NODE (NODE (NODE _)(NODE *))(NODE (NODE _)(NODE *)))(NODE (NODE (NODE _)(NODE *))(NODE (NODE _)(NODE *)))(NODE (NODE (NODE _)(NODE *))(NODE (NODE _)(NODE *)))(NODE (NODE _)(NODE *))(NODE )(NODE \n)(NODE \n)) |ET| 
1  |BT| (NODE (NODE r)(NODE e)(NODE s)(NODE o)(NODE l)(NODE v)(NODE e)(NODE d)(NODE _)(NODE \n)) |ET| 
-0.76111973816716127494430566002848  |BT| (NODE (NODE l)(NODE e)(NODE v)(NODE i)(NODE t)(NODE r)(NODE a)(NODE )(NODE \n)(NODE \n)) |ET| 
0.92853224995947436504195593443001  |BT| (NODE (NODE \1)(NODE \2)(NODE (NODE _)(NODE /)(NODE _))(NODE \1)(NODE \4)(NODE (NODE _)(NODE /)(NODE _))(NODE \9)(NODE \9)(NODE _)(NODE \0)(NODE \2)(NODE (NODE _)(NODE :)(NODE _))(NODE \3)(NODE \8)(NODE (NODE _)(NODE :)(NODE _))(NODE \4)(NODE \5)(NODE _)(NODE p)(NODE m)(NODE )(NODE \n)(NODE \n)) |ET| 
-1  |BT| (NODE (NODE _)(NODE q)(NODE u)(NODE i)(NODE t)(NODE (NODE e)(NODE _))(NODE a)(NODE _)(NODE d)(NODE i)(NODE f)(NODE f)(NODE e)(NODE r)(NODE e)(NODE n)(NODE c)(NODE (NODE e)(NODE _))(NODE ,)(NODE _)(NODE h)(NODE u)(NODE h)(NODE _)(NODE ?)(NODE )(NODE \n)(NODE \n)) |ET| 
1  |BT| (NODE (NODE _)(NODE i)(NODE )(NODE \n)(NODE \n)) |ET| 
-1  |BT| (NODE (NODE _)(NODE \0)(NODE )(NODE \n)(NODE \n)) |ET| 
0.98895474623400070335321743186796  |BT| (NODE (NODE a)(NODE _)(NODE p)(NODE o)(NODE i)(NODE n)(NODE (NODE t)(NODE _))(NODE (NODE n)(NODE o)(NODE m)(NODE _))(NODE \()(NODE (NODE _)(NODE o))(NODE n)(NODE _)(NODE h)(NODE p)(NODE l)(NODE (NODE _)(NODE o))(NODE r)(NODE _)(NODE k)(NODE r)(NODE g)(NODE p)(NODE _)(NODE \)) |ET| 
-0.978167396830374791250051202951  |BT| (NODE (NODE a)(NODE s)(NODE (NODE s)(NODE _))(NODE v)(NODE i)(NODE d)(NODE e)(NODE o)(NODE (NODE s)(NODE _))(NODE /)(NODE _)(NODE t)(NODE d)(NODE )(NODE \n)(NODE \n)) |ET| 
1  |BT| (NODE (NODE d)(NODE a)(NODE r)(NODE e)(NODE n)(NODE _)(NODE -)(NODE )(NODE \n)(NODE \n)) |ET| 
-0.89228711950863182078563795585069  |BT| (NODE (NODE o)(NODE e)(NODE s)(NODE x)(NODE p)(NODE z)(NODE u)(NODE f)(NODE _)(NODE d)(NODE v)(NODE a)(NODE f)(NODE v)(NODE )(NODE \n)(NODE \n)) |ET| 
0.86123021862222715050450005946914  |BT| (NODE (NODE _)(NODE \6)(NODE \2)(NODE \4)(NODE \1)(NODE \3)(NODE (NODE _)(NODE \2)(NODE \5))(NODE \2)(NODE \0)(NODE \5)(NODE \0)(NODE \4)(NODE \0)(NODE \6)(NODE (NODE _)(NODE \2)(NODE \5))(NODE \5)(NODE \3)(NODE \2)(NODE \6)(NODE \8)(NODE \3)(NODE \7)(NODE )(NODE \n)(NODE \n)) |ET| 
-1  |BT| (NODE (NODE r)(NODE x)(NODE _)(NODE m)(NODE (NODE e)(NODE d))(NODE i)(NODE c)(NODE a)(NODE t)(NODE i)(NODE o)(NODE n)(NODE s)(NODE _)(NODE d)(NODE e)(NODE l)(NODE i)(NODE v)(NODE e)(NODE r)(NODE (NODE e)(NODE d))(NODE )(NODE \n)(NODE \n)) |ET| 
1  |BT| (NODE (NODE l)(NODE a)(NODE s)(NODE t)(NODE _)(NODE w)(NODE e)(NODE e)(NODE k)(NODE _)(NODE \n)) |ET| 
-1  |BT| (NODE (NODE _)(NODE x)(NODE _)(NODE \n)) |ET| 
0.93532744492840613759199186461046  |BT| (NODE (NODE s)(NODE u)(NODE p)(NODE p)(NODE o)(NODE r)(NODE t)(NODE _)(NODE q)(NODE u)(NODE e)(NODE s)(NODE t)(NODE i)(NODE o)(NODE n)(NODE (NODE s)(NODE _))(NODE /)(NODE _)(NODE p)(NODE r)(NODE o)(NODE b)(NODE l)(NODE e)(NODE m)(NODE (NODE s)(NODE _))(NODE :)(NODE )(NODE \n)(NODE \n)) |ET| 
-1  |BT| (NODE (NODE -)(NODE _)(NODE r)(NODE e)(NODE d)(NODE u)(NODE (NODE c)(NODE e))(NODE s)(NODE _)(NODE (NODE c)(NODE e))(NODE l)(NODE l)(NODE u)(NODE l)(NODE i)(NODE t)(NODE e)(NODE )(NODE \n)(NODE \n)) |ET| 
1  |BT| (NODE (NODE _)(NODE m)(NODE _)(NODE \n)) |ET| 
-0.55092284305206995487225185570423  |BT| (NODE (NODE _)(NODE e)(NODE a)(NODE r)(NODE n)(NODE _)(NODE m)(NODE o)(NODE r)(NODE _)(NODE \n)) |ET| 
1  |BT| (NODE (NODE _)(NODE c)(NODE (NODE o)(NODE u))(NODE l)(NODE d)(NODE _)(NODE y)(NODE (NODE o)(NODE u))(NODE _)(NODE p)(NODE l)(NODE e)(NODE a)(NODE s)(NODE e)(NODE _)(NODE g)(NODE e)(NODE t)(NODE )(NODE \n)(NODE \n)) |ET| 
-1  |BT| (NODE (NODE o)(NODE k)(NODE _)(NODE w)(NODE h)(NODE (NODE a)(NODE t))(NODE _)(NODE ')(NODE _)(NODE s)(NODE _)(NODE t)(NODE h)(NODE e)(NODE _)(NODE c)(NODE (NODE a)(NODE t))(NODE c)(NODE h)(NODE _)(NODE ?)(NODE )(NODE \n)(NODE \n)) |ET| 
1  |BT| (NODE (NODE _)(NODE \1)(NODE \6)(NODE \8)(NODE \9)(NODE _)(NODE f)(NODE a)(NODE x)(NODE _)(NODE \n)) |ET| 
-0.8693093250799157623021073959535  |BT| (NODE (NODE _)(NODE i)(NODE f)(NODE e)(NODE _)(NODE t)(NODE o)(NODE d)(NODE a)(NODE y)(NODE _)(NODE !)(NODE )(NODE \n)(NODE \n)) |ET| 
1  |BT| (NODE (NODE \1)(NODE (NODE \0)(NODE _))(NODE ,)(NODE _)(NODE \0)(NODE \0)(NODE (NODE \0)(NODE _))(NODE g)(NODE (NODE r)(NODE o))(NODE s)(NODE s)(NODE _)(NODE f)(NODE (NODE o)(NODE r))(NODE _)(NODE t)(NODE o)(NODE m)(NODE (NODE o)(NODE r))(NODE (NODE r)(NODE o))(NODE w)(NODE _)(NODE \n)) |ET| 
-1  |BT| (NODE (NODE _)(NODE o)(NODE f)(NODE f)(NODE e)(NODE r)(NODE _)(NODE v)(NODE a)(NODE l)(NODE i)(NODE (NODE d)(NODE _))(NODE i)(NODE n)(NODE _)(NODE u)(NODE s)(NODE _)(NODE (NODE a)(NODE n))(NODE (NODE d)(NODE _))(NODE c)(NODE (NODE a)(NODE n))(NODE a)(NODE d)(NODE a)(NODE _)(NODE \n)) |ET| 
1  |BT| (NODE (NODE f)(NODE o)(NODE x)(NODE (NODE _)(NODE /)(NODE (NODE _)(NODE e)))(NODE c)(NODE f)(NODE (NODE _)(NODE /)(NODE (NODE _)(NODE e)))(NODE (NODE n)(NODE r)(NODE o)(NODE n))(NODE _)(NODE @)(NODE (NODE _)(NODE e))(NODE (NODE n)(NODE r)(NODE o)(NODE n))(NODE )(NODE \n)(NODE \n)) |ET| 
-1  |BT| (NODE (NODE n)(NODE o)(NODE w)(NODE _)(NODE w)(NODE h)(NODE i)(NODE l)(NODE e)(NODE _)(NODE y)(NODE o)(NODE u)(NODE _)(NODE c)(NODE a)(NODE n)(NODE _)(NODE \n)) |ET| 
1  |BT| (NODE (NODE s)(NODE c)(NODE o)(NODE t)(NODE t)(NODE y)(NODE _)(NODE /)(NODE _)(NODE r)(NODE i)(NODE c)(NODE h)(NODE a)(NODE r)(NODE d)(NODE _)(NODE ,)(NODE )(NODE \n)(NODE \n)) |ET| 
-1  |BT| (NODE (NODE a)(NODE (NODE _)(NODE f)(NODE i)(NODE r)(NODE s)(NODE t)(NODE _))(NODE c)(NODE o)(NODE m)(NODE e)(NODE (NODE _)(NODE f)(NODE i)(NODE r)(NODE s)(NODE t)(NODE _))(NODE s)(NODE e)(NODE r)(NODE v)(NODE e)(NODE _)(NODE b)(NODE a)(NODE s)(NODE i)(NODE s)(NODE _)(NODE \n)) |ET| 
0.89810445996010346281224201447912  |BT| (NODE (NODE _)(NODE p)(NODE l)(NODE e)(NODE a)(NODE s)(NODE e)(NODE (NODE _)(NODE c))(NODE (NODE a)(NODE l))(NODE l)(NODE (NODE _)(NODE c))(NODE h)(NODE y)(NODE r)(NODE (NODE a)(NODE l))(NODE _)(NODE a)(NODE t)(NODE )(NODE \n)(NODE \n)) |ET| 
-1  |BT| (NODE (NODE h)(NODE t)(NODE t)(NODE p)(NODE _)(NODE :)(NODE (NODE _)(NODE /))(NODE (NODE _)(NODE /))(NODE _)(NODE l)(NODE i)(NODE s)(NODE t)(NODE _)(NODE \n)) |ET| 
0.95304595146215798084909920362406  |BT| (NODE (NODE *)(NODE _)(NODE g)(NODE a)(NODE (NODE s)(NODE _))(NODE d)(NODE e)(NODE l)(NODE i)(NODE v)(NODE e)(NODE r)(NODE i)(NODE e)(NODE (NODE s)(NODE _))(NODE i)(NODE n)(NODE t)(NODE o)(NODE _)(NODE h)(NODE p)(NODE l)(NODE )(NODE \n)(NODE \n)) |ET| 
-1  |BT| (NODE (NODE -)(NODE _)(NODE (NODE i)(NODE n))(NODE c)(NODE (NODE r)(NODE e))(NODE a)(NODE s)(NODE e)(NODE d)(NODE _)(NODE s)(NODE k)(NODE (NODE i)(NODE n))(NODE (NODE _)(NODE t))(NODE h)(NODE i)(NODE c)(NODE k)(NODE n)(NODE e)(NODE s)(NODE s)(NODE (NODE _)(NODE t))(NODE e)(NODE x)(NODE t)(NODE u)(NODE (NODE r)(NODE e))(NODE )(NODE \n)(NODE \n)) |ET| 
1  |BT| (NODE (NODE (NODE _)(NODE i))(NODE t)(NODE (NODE _)(NODE i))(NODE s)(NODE _)(NODE m)(NODE y)(NODE )(NODE \n)(NODE \n)) |ET| 
-1  |BT| (NODE (NODE s)(NODE _)(NODE \n)) |ET| 
0.94082450211518753313555407657987  |BT| (NODE (NODE p)(NODE o)(NODE s)(NODE i)(NODE t)(NODE i)(NODE o)(NODE n)(NODE _)(NODE t)(NODE o)(NODE _)(NODE c)(NODE a)(NODE l)(NODE l)(NODE _)(NODE b)(NODE o)(NODE b)(NODE _)(NODE d)(NODE o)(NODE r)(NODE c)(NODE h)(NODE e)(NODE u)(NODE s)(NODE _)(NODE \n)) |ET| 
-1  |BT| (NODE (NODE (NODE (NODE *)(NODE _))(NODE (NODE *)(NODE _)))(NODE (NODE (NODE *)(NODE _))(NODE (NODE *)(NODE _)))(NODE (NODE (NODE *)(NODE _))(NODE (NODE *)(NODE _)))(NODE (NODE *)(NODE _))(NODE i)(NODE m)(NODE p)(NODE o)(NODE r)(NODE t)(NODE (NODE a)(NODE n))(NODE t)(NODE _)(NODE n)(NODE o)(NODE t)(NODE i)(NODE c)(NODE e)(NODE _)(NODE (NODE a)(NODE n))(NODE d)(NODE )(NODE \n)(NODE \n)) |ET| 
1  |BT| (NODE (NODE d)(NODE _)(NODE \n)) |ET| 
-0.87269357829605720411336733377539  |BT| (NODE (NODE _)(NODE d)(NODE o)(NODE c)(NODE u)(NODE m)(NODE e)(NODE n)(NODE t)(NODE )(NODE \n)(NODE \n)) |ET| 
0.95404080937800350703525964490836  |BT| (NODE (NODE _)(NODE s)(NODE e)(NODE t)(NODE t)(NODE l)(NODE e)(NODE m)(NODE e)(NODE n)(NODE t)(NODE s)(NODE )(NODE \n)(NODE \n)) |ET| 
-1  |BT| (NODE (NODE m)(NODE o)(NODE (NODE d)(NODE e))(NODE s)(NODE _)(NODE (NODE d)(NODE e))(NODE _)(NODE p)(NODE a)(NODE i)(NODE e)(NODE m)(NODE (NODE e)(NODE n))(NODE t)(NODE _)(NODE (NODE e)(NODE n))(NODE _)(NODE l)(NODE i)(NODE g)(NODE n)(NODE e)(NODE )(NODE \n)(NODE \n)) |ET| 
0.94910957383691429978256337562925  |BT| (NODE (NODE _)(NODE i)(NODE _)(NODE a)(NODE p)(NODE o)(NODE l)(NODE o)(NODE g)(NODE i)(NODE z)(NODE (NODE e)(NODE _))(NODE f)(NODE o)(NODE r)(NODE _)(NODE t)(NODE h)(NODE (NODE e)(NODE _))(NODE o)(NODE m)(NODE i)(NODE s)(NODE s)(NODE i)(NODE o)(NODE n)(NODE _)(NODE \n)) |ET| 
-1  |BT| (NODE (NODE a)(NODE c)(NODE c)(NODE s)(NODE _)(NODE i)(NODE l)(NODE l)(NODE i)(NODE m)(NODE i)(NODE t)(NODE _)(NODE :)(NODE _)(NODE \8)(NODE _)(NODE ,)(NODE _)(NODE \2)(NODE \5)(NODE )(NODE \n)(NODE \n)) |ET| 
0.9377561361523554239738587057218  |BT| (NODE (NODE s)(NODE u)(NODE b)(NODE j)(NODE e)(NODE c)(NODE t)(NODE _)(NODE :)(NODE _)(NODE m)(NODE i)(NODE s)(NODE c)(NODE e)(NODE l)(NODE l)(NODE a)(NODE n)(NODE e)(NODE o)(NODE u)(NODE s)(NODE )(NODE \n)(NODE \n)) |ET| 
-0.93804226453223171766637733526295  |BT| (NODE (NODE d)(NODE i)(NODE s)(NODE p)(NODE e)(NODE r)(NODE s)(NODE i)(NODE v)(NODE e)(NODE v)(NODE u)(NODE w)(NODE k)(NODE _)(NODE w)(NODE d)(NODE )(NODE \n)(NODE \n)) |ET| 
1  |BT| (NODE (NODE o)(NODE f)(NODE _)(NODE t)(NODE i)(NODE m)(NODE e)(NODE _)(NODE ?)(NODE )(NODE \n)(NODE \n)) |ET| 
-1  |BT| (NODE (NODE \5)(NODE _)(NODE \n)) |ET| 
0.92069492489080329011841286046547  |BT| (NODE (NODE t)(NODE h)(NODE e)(NODE i)(NODE r)(NODE _)(NODE o)(NODE w)(NODE n)(NODE _)(NODE p)(NODE r)(NODE o)(NODE c)(NODE e)(NODE s)(NODE s)(NODE i)(NODE n)(NODE g)(NODE _)(NODE a)(NODE g)(NODE r)(NODE e)(NODE e)(NODE m)(NODE e)(NODE n)(NODE t)(NODE _)(NODE \n)) |ET| 
-1  |BT| (NODE (NODE _)(NODE c)(NODE (NODE o)(NODE m))(NODE p)(NODE l)(NODE e)(NODE (NODE t)(NODE e))(NODE l)(NODE y)(NODE _)(NODE a)(NODE u)(NODE t)(NODE (NODE o)(NODE m))(NODE a)(NODE (NODE t)(NODE e))(NODE d)(NODE _)(NODE !)(NODE )(NODE \n)(NODE \n)) |ET| 
1  |BT| (NODE (NODE _)(NODE \2)(NODE \5)(NODE \8)(NODE )(NODE \n)(NODE \n)) |ET| 
-1  |BT| (NODE (NODE n)(NODE a)(NODE m)(NODE e)(NODE )(NODE \n)(NODE \n)) |ET| 
1  |BT| (NODE (NODE (NODE _)(NODE a))(NODE t)(NODE (NODE _)(NODE a))(NODE b)(NODE o)(NODE u)(NODE t)(NODE _)(NODE \6)(NODE _)(NODE ,)(NODE _)(NODE \5)(NODE \0)(NODE \0)(NODE _)(NODE g)(NODE r)(NODE o)(NODE s)(NODE s)(NODE _)(NODE \n)) |ET| 
-1  |BT| (NODE (NODE \1)(NODE \9)(NODE \8)(NODE \7)(NODE _)(NODE -)(NODE _)(NODE \2)(NODE \0)(NODE \0)(NODE \3)(NODE )(NODE \n)(NODE \n)) |ET| 
0.90844538057722801216442576333066  |BT| (NODE (NODE k)(NODE e)(NODE n)(NODE )(NODE \n)(NODE \n)) |ET| 
-1  |BT| (NODE (NODE t)(NODE h)(NODE e)(NODE _)(NODE p)(NODE e)(NODE r)(NODE f)(NODE e)(NODE c)(NODE t)(NODE _)(NODE g)(NODE i)(NODE f)(NODE t)(NODE )(NODE \n)(NODE \n)) |ET| 
0.96203335250533761335844928908045  |BT| (NODE (NODE \1)(NODE \2)(NODE (NODE _)(NODE /)(NODE _))(NODE \2)(NODE \0)(NODE (NODE _)(NODE /)(NODE _))(NODE \9)(NODE \9)(NODE (NODE _)(NODE \0))(NODE \4)(NODE _)(NODE :)(NODE (NODE _)(NODE \0))(NODE \5)(NODE _)(NODE p)(NODE m)(NODE )(NODE \n)(NODE \n)) |ET| 
-1  |BT| (NODE (NODE c)(NODE h)(NODE o)(NODE o)(NODE s)(NODE (NODE e)(NODE (NODE _)(NODE o)))(NODE n)(NODE (NODE e)(NODE (NODE _)(NODE o)))(NODE f)(NODE (NODE _)(NODE o))(NODE u)(NODE r)(NODE _)(NODE u)(NODE n)(NODE l)(NODE i)(NODE m)(NODE i)(NODE t)(NODE e)(NODE d)(NODE )(NODE \n)(NODE \n)) |ET| 
0.93198222634126126617815089048236  |BT| (NODE (NODE h)(NODE e)(NODE r)(NODE o)(NODE d)(NODE (NODE _)(NODE /)(NODE _))(NODE h)(NODE o)(NODE u)(NODE (NODE _)(NODE /)(NODE _))(NODE (NODE e)(NODE c)(NODE t))(NODE _)(NODE @)(NODE _)(NODE (NODE e)(NODE c)(NODE t))(NODE )(NODE \n)(NODE \n)) |ET| 
-1  |BT| (NODE (NODE _)(NODE g)(NODE r)(NODE )(NODE \n)(NODE \n)) |ET| 
0.952953167925075117494770893245  |BT| (NODE (NODE p)(NODE r)(NODE o)(NODE c)(NODE e)(NODE s)(NODE (NODE s)(NODE _))(NODE a)(NODE n)(NODE d)(NODE _)(NODE t)(NODE h)(NODE e)(NODE _)(NODE c)(NODE o)(NODE n)(NODE t)(NODE r)(NODE a)(NODE c)(NODE t)(NODE (NODE s)(NODE _))(NODE \n)) |ET| 
-1  |BT| (NODE (NODE i)(NODE (NODE n)(NODE t))(NODE (NODE e)(NODE l))(NODE (NODE l)(NODE i))(NODE g)(NODE (NODE e)(NODE (NODE n)(NODE t))(NODE _))(NODE (NODE s)(NODE t))(NODE o)(NODE (NODE c)(NODE k))(NODE (NODE _)(NODE p))(NODE i)(NODE (NODE c)(NODE k))(NODE (NODE s)(NODE _))(NODE ,)(NODE (NODE _)(NODE a))(NODE n)(NODE d)(NODE (NODE _)(NODE a))(NODE f)(NODE f)(NODE i)(NODE (NODE l)(NODE i))(NODE (NODE a)(NODE t))(NODE (NODE e)(NODE (NODE s)(NODE _)))(NODE \()(NODE (NODE (NODE _)(NODE i))(NODE s)(NODE p)(NODE _))(NODE \)) |ET| 
0.66830633211075662902800331721664  |BT| (NODE (NODE _)(NODE \3)(NODE \5)(NODE )(NODE \n)(NODE \n)) |ET| 
-1  |BT| (NODE (NODE w)(NODE e)(NODE _)(NODE ')(NODE _)(NODE v)(NODE e)(NODE )(NODE \n)(NODE \n)) |ET| 
0.97799328652846639897688874043524  |BT| (NODE (NODE c)(NODE o)(NODE u)(NODE n)(NODE t)(NODE (NODE e)(NODE r))(NODE p)(NODE a)(NODE r)(NODE t)(NODE y)(NODE _)(NODE c)(NODE p)(NODE _)(NODE i)(NODE d)(NODE _)(NODE n)(NODE u)(NODE m)(NODE b)(NODE (NODE e)(NODE r))(NODE )(NODE \n)(NODE \n)) |ET| 
-1  |BT| (NODE (NODE _)(NODE u)(NODE a)(NODE (NODE _)(NODE t))(NODE o)(NODE _)(NODE d)(NODE (NODE i)(NODE s))(NODE c)(NODE o)(NODE n)(NODE t)(NODE i)(NODE n)(NODE u)(NODE e)(NODE (NODE _)(NODE i))(NODE f)(NODE (NODE _)(NODE t))(NODE h)(NODE (NODE i)(NODE s))(NODE (NODE _)(NODE i))(NODE (NODE s)(NODE _))(NODE h)(NODE a)(NODE r)(NODE d)(NODE _)(NODE m)(NODE e)(NODE s)(NODE (NODE s)(NODE _))(NODE \n)) |ET| 
1  |BT| (NODE (NODE g)(NODE e)(NODE n)(NODE e)(NODE r)(NODE a)(NODE t)(NODE e)(NODE d)(NODE _)(NODE \n)) |ET| 
-1  |BT| (NODE (NODE _)(NODE p)(NODE l)(NODE e)(NODE a)(NODE s)(NODE (NODE e)(NODE _))(NODE n)(NODE o)(NODE t)(NODE (NODE e)(NODE _))(NODE t)(NODE h)(NODE a)(NODE t)(NODE )(NODE \n)(NODE \n)) |ET| 
0.88522139548724010360558622778626  |BT| (NODE (NODE v)(NODE o)(NODE i)(NODE c)(NODE (NODE e)(NODE _))(NODE m)(NODE a)(NODE i)(NODE l)(NODE _)(NODE /)(NODE _)(NODE p)(NODE a)(NODE g)(NODE (NODE e)(NODE _))(NODE \7)(NODE \1)(NODE \3)(NODE (NODE _)(NODE -)(NODE _)(NODE \9))(NODE \6)(NODE \4)(NODE (NODE _)(NODE -)(NODE _)(NODE \9))(NODE \4)(NODE \3)(NODE \4)(NODE \n)) |ET| 
-1  |BT| (NODE (NODE -)(NODE _)(NODE i)(NODE n)(NODE c)(NODE r)(NODE e)(NODE a)(NODE s)(NODE e)(NODE d)(NODE _)(NODE b)(NODE o)(NODE n)(NODE e)(NODE _)(NODE d)(NODE e)(NODE n)(NODE s)(NODE i)(NODE t)(NODE y)(NODE )(NODE \n)(NODE \n)) |ET| 
1  |BT| (NODE (NODE (NODE s)(NODE u))(NODE b)(NODE j)(NODE e)(NODE c)(NODE t)(NODE (NODE _)(NODE :)(NODE _))(NODE r)(NODE e)(NODE (NODE _)(NODE :)(NODE _))(NODE i)(NODE s)(NODE (NODE s)(NODE u))(NODE e)(NODE )(NODE \n)(NODE \n)) |ET| 
-1  |BT| (NODE (NODE (NODE t)(NODE d))(NODE _)(NODE w)(NODE i)(NODE d)(NODE t)(NODE h)(NODE _)(NODE =)(NODE _)(NODE \1)(NODE \4)(NODE _)(NODE n)(NODE b)(NODE s)(NODE p)(NODE _)(NODE ;)(NODE _)(NODE /)(NODE _)(NODE (NODE t)(NODE d))(NODE )(NODE \n)(NODE \n)) |ET| 
0.94539403066589322577328857732937  |BT| (NODE (NODE _)(NODE \1)(NODE \9)(NODE \9)(NODE \9)(NODE _)(NODE j)(NODE o)(NODE s)(NODE e)(NODE y)(NODE _)(NODE r)(NODE a)(NODE n)(NODE c)(NODE h)(NODE _)(NODE n)(NODE o)(NODE m)(NODE )(NODE \n)(NODE \n)) |ET| 
-0.97859607141477111813543388052494  |BT| (NODE (NODE -)(NODE _)(NODE l)(NODE o)(NODE s)(NODE s)(NODE _)(NODE i)(NODE n)(NODE _)(NODE b)(NODE o)(NODE d)(NODE y)(NODE _)(NODE f)(NODE a)(NODE t)(NODE )(NODE \n)(NODE \n)) |ET| 
0.84350178609422898912129085147171  |BT| (NODE (NODE t)(NODE o)(NODE _)(NODE :)(NODE _)(NODE g)(NODE r)(NODE e)(NODE g)(NODE g)(NODE _)(NODE l)(NODE e)(NODE n)(NODE a)(NODE r)(NODE t)(NODE (NODE _)(NODE /)(NODE _))(NODE h)(NODE o)(NODE u)(NODE (NODE _)(NODE /)(NODE _))(NODE (NODE e)(NODE c)(NODE t))(NODE _)(NODE @)(NODE _)(NODE (NODE e)(NODE c)(NODE t))(NODE )(NODE \n)(NODE \n)) |ET| 
-1  |BT| (NODE (NODE \6)(NODE \0)(NODE (NODE (NODE _)(NODE d))(NODE a))(NODE y)(NODE s)(NODE _)(NODE p)(NODE r)(NODE i)(NODE o)(NODE r)(NODE (NODE _)(NODE t))(NODE o)(NODE (NODE _)(NODE d))(NODE e)(NODE s)(NODE i)(NODE r)(NODE e)(NODE d)(NODE (NODE _)(NODE t))(NODE r)(NODE a)(NODE v)(NODE e)(NODE l)(NODE (NODE (NODE _)(NODE d))(NODE a))(NODE t)(NODE e)(NODE _)(NODE \n)) |ET| 
0.99289642411429102075715036335168  |BT| (NODE (NODE _)(NODE t)(NODE h)(NODE i)(NODE s)(NODE _)(NODE h)(NODE o)(NODE p)(NODE e)(NODE f)(NODE u)(NODE l)(NODE l)(NODE y)(NODE )(NODE \n)(NODE \n)) |ET| 
-0.81023247878926829557144628779497  |BT| (NODE (NODE u)(NODE n)(NODE l)(NODE i)(NODE s)(NODE t)(NODE _)(NODE m)(NODE e)(NODE )(NODE \n)(NODE \n)) |ET| 
0.88483837318193792054188406837056  |BT| (NODE (NODE h)(NODE a)(NODE v)(NODE (NODE e)(NODE _))(NODE a)(NODE _)(NODE b)(NODE u)(NODE y)(NODE b)(NODE (NODE a)(NODE c))(NODE k)(NODE _)(NODE i)(NODE n)(NODE _)(NODE p)(NODE l)(NODE (NODE a)(NODE c))(NODE (NODE e)(NODE _))(NODE o)(NODE r)(NODE _)(NODE n)(NODE o)(NODE t)(NODE _)(NODE \n)) |ET| 
-1  |BT| (NODE (NODE o)(NODE n)(NODE (NODE _)(NODE t))(NODE o)(NODE (NODE _)(NODE a))(NODE l)(NODE l)(NODE (NODE _)(NODE t))(NODE h)(NODE e)(NODE (NODE _)(NODE a))(NODE s)(NODE s)(NODE (NODE _)(NODE a))(NODE d)(NODE v)(NODE e)(NODE n)(NODE t)(NODE u)(NODE r)(NODE e)(NODE s)(NODE (NODE _)(NODE /))(NODE (NODE _)(NODE a))(NODE (NODE _)(NODE /))(NODE (NODE _)(NODE t))(NODE d)(NODE )(NODE \n)(NODE \n)) |ET| 
1  |BT| (NODE (NODE -)(NODE _)(NODE d)(NODE e)(NODE v)(NODE o)(NODE n)(NODE _)(NODE s)(NODE t)(NODE x)(NODE _)(NODE \n)) |ET| 
-0.96368776993769145189361324810307  |BT| (NODE (NODE S)(NODE u)(NODE b)(NODE j)(NODE e)(NODE c)(NODE t)(NODE :)(NODE _)(NODE n)(NODE o)(NODE t)(NODE _)(NODE p)(NODE _)(NODE \n)) |ET| 
1  |BT| (NODE (NODE (NODE m)(NODE i))(NODE (NODE c)(NODE h)(NODE a))(NODE e)(NODE l)(NODE _)(NODE (NODE m)(NODE i))(NODE t)(NODE (NODE c)(NODE h)(NODE a))(NODE m)(NODE )(NODE \n)(NODE \n)) |ET| 
-1  |BT| (NODE (NODE p)(NODE u)(NODE r)(NODE e)(NODE (NODE _)(NODE s))(NODE e)(NODE a)(NODE r)(NODE c)(NODE h)(NODE (NODE _)(NODE s))(NODE _)(NODE \5)(NODE \2)(NODE )(NODE \n)(NODE \n)) |ET| 
1  |BT| (NODE (NODE h)(NODE o)(NODE u)(NODE s)(NODE t)(NODE o)(NODE n)(NODE _)(NODE ,)(NODE _)(NODE t)(NODE x)(NODE _)(NODE \7)(NODE \7)(NODE \0)(NODE \5)(NODE \6)(NODE )(NODE \n)(NODE \n)) |ET| 
-1  |BT| (NODE (NODE o)(NODE r)(NODE (NODE _)(NODE s))(NODE o)(NODE m)(NODE (NODE e)(NODE _))(NODE o)(NODE f)(NODE _)(NODE t)(NODE h)(NODE (NODE e)(NODE _))(NODE m)(NODE a)(NODE n)(NODE y)(NODE _)(NODE g)(NODE i)(NODE f)(NODE t)(NODE (NODE _)(NODE s))(NODE h)(NODE o)(NODE p)(NODE s)(NODE _)(NODE \n)) |ET| 
0.89740431268903242401080433410243  |BT| (NODE (NODE _)(NODE b)(NODE (NODE u)(NODE s))(NODE i)(NODE n)(NODE e)(NODE s)(NODE s)(NODE _)(NODE p)(NODE (NODE l)(NODE e))(NODE a)(NODE s)(NODE e)(NODE _)(NODE (NODE l)(NODE e))(NODE t)(NODE _)(NODE (NODE u)(NODE s))(NODE _)(NODE a)(NODE l)(NODE l)(NODE )(NODE \n)(NODE \n)) |ET| 
-1  |BT| (NODE (NODE -)(NODE _)(NODE s)(NODE t)(NODE r)(NODE (NODE e)(NODE n))(NODE g)(NODE t)(NODE h)(NODE (NODE e)(NODE n))(NODE e)(NODE d)(NODE _)(NODE h)(NODE e)(NODE a)(NODE r)(NODE t)(NODE _)(NODE m)(NODE u)(NODE s)(NODE c)(NODE l)(NODE e)(NODE )(NODE \n)(NODE \n)) |ET| 
1  |BT| (NODE (NODE S)(NODE u)(NODE b)(NODE j)(NODE e)(NODE c)(NODE t)(NODE (NODE :)(NODE _))(NODE r)(NODE e)(NODE _)(NODE (NODE :)(NODE _))(NODE i)(NODE s)(NODE s)(NODE u)(NODE e)(NODE )(NODE \n)(NODE \n)) |ET| 
-1  |BT| (NODE (NODE S)(NODE u)(NODE b)(NODE j)(NODE e)(NODE c)(NODE t)(NODE :)(NODE _)(NODE e)(NODE n)(NODE j)(NODE o)(NODE y)(NODE _)(NODE i)(NODE t)(NODE )(NODE \n)(NODE \n)) |ET| 
0.91461312822141649370166760490974  |BT| (NODE (NODE p)(NODE (NODE e)(NODE n))(NODE n)(NODE z)(NODE (NODE e)(NODE n))(NODE e)(NODE r)(NODE g)(NODE y)(NODE _)(NODE a)(NODE t)(NODE _)(NODE t)(NODE h)(NODE e)(NODE _)(NODE b)(NODE r)(NODE y)(NODE s)(NODE o)(NODE n)(NODE _)(NODE c)(NODE _)(NODE \n)) |ET| 
-1  |BT| (NODE (NODE s)(NODE (NODE t)(NODE y))(NODE l)(NODE (NODE e)(NODE _))(NODE (NODE t)(NODE y))(NODE p)(NODE (NODE e)(NODE _))(NODE =)(NODE _)(NODE t)(NODE e)(NODE x)(NODE t)(NODE _)(NODE /)(NODE _)(NODE c)(NODE s)(NODE s)(NODE )(NODE \n)(NODE \n)) |ET| 
0.89576138434870544724475394104957  |BT| (NODE (NODE s)(NODE u)(NODE b)(NODE j)(NODE e)(NODE c)(NODE t)(NODE _)(NODE :)(NODE _)(NODE e)(NODE v)(NODE e)(NODE r)(NODE g)(NODE r)(NODE e)(NODE e)(NODE n)(NODE _)(NODE d)(NODE e)(NODE a)(NODE l)(NODE s)(NODE )(NODE \n)(NODE \n)) |ET| 
-1  |BT| (NODE (NODE _)(NODE \4)(NODE \4)(NODE (NODE _)(NODE /)(NODE _))(NODE \1)(NODE \2)(NODE \2)(NODE \6)(NODE \0)(NODE \3)(NODE \0)(NODE (NODE _)(NODE \_)(NODE _))(NODE (NODE n)(NODE d))(NODE (NODE _)(NODE \_)(NODE _))(NODE c)(NODE s)(NODE _)(NODE \2)(NODE (NODE _)(NODE /)(NODE _))(NODE i)(NODE (NODE n)(NODE d))(NODE e)(NODE x)(NODE _)(NODE \n)) |ET| 
0.92848594969164577328513132670196  |BT| (NODE (NODE s)(NODE u)(NODE b)(NODE j)(NODE e)(NODE c)(NODE t)(NODE _)(NODE :)(NODE _)(NODE l)(NODE y)(NODE o)(NODE n)(NODE d)(NODE e)(NODE l)(NODE l)(NODE _)(NODE c)(NODE i)(NODE t)(NODE g)(NODE o)(NODE )(NODE \n)(NODE \n)) |ET| 
-1  |BT| (NODE (NODE -)(NODE _)(NODE i)(NODE (NODE n)(NODE c))(NODE r)(NODE e)(NODE a)(NODE (NODE s)(NODE e))(NODE d)(NODE _)(NODE (NODE s)(NODE e))(NODE x)(NODE u)(NODE a)(NODE l)(NODE _)(NODE p)(NODE o)(NODE t)(NODE e)(NODE (NODE n)(NODE c))(NODE y)(NODE )(NODE \n)(NODE \n)) |ET| 
1  |BT| (NODE (NODE s)(NODE (NODE a)(NODE t))(NODE u)(NODE r)(NODE d)(NODE a)(NODE y)(NODE _)(NODE (NODE a)(NODE t))(NODE _)(NODE \2)(NODE _)(NODE :)(NODE _)(NODE \0)(NODE \0)(NODE _)(NODE p)(NODE _)(NODE \n)) |ET| 
-1  |BT| (NODE (NODE a)(NODE d)(NODE v)(NODE a)(NODE n)(NODE t)(NODE a)(NODE g)(NODE e)(NODE s)(NODE _)(NODE o)(NODE f)(NODE _)(NODE h)(NODE g)(NODE h)(NODE _)(NODE :)(NODE )(NODE \n)(NODE \n)) |ET| 
0.88499967937538059903346265855362  |BT| (NODE (NODE S)(NODE u)(NODE b)(NODE j)(NODE e)(NODE c)(NODE t)(NODE :)(NODE _)(NODE j)(NODE a)(NODE n)(NODE u)(NODE a)(NODE r)(NODE y)(NODE _)(NODE s)(NODE p)(NODE o)(NODE t)(NODE _)(NODE t)(NODE i)(NODE c)(NODE k)(NODE e)(NODE t)(NODE s)(NODE )(NODE \n)(NODE \n)) |ET| 
-0.99848744544039114146016800077632  |BT| (NODE (NODE _)(NODE g)(NODE i)(NODE f)(NODE _)(NODE w)(NODE i)(NODE d)(NODE t)(NODE h)(NODE (NODE _)(NODE =)(NODE _)(NODE \1)(NODE \0)(NODE _))(NODE h)(NODE e)(NODE i)(NODE g)(NODE h)(NODE t)(NODE (NODE _)(NODE =)(NODE _)(NODE \1)(NODE \0)(NODE _))(NODE /)(NODE _)(NODE t)(NODE d)(NODE )(NODE \n)(NODE \n)) |ET| 
0.95543377180130462100748900411418  |BT| (NODE (NODE d)(NODE u)(NODE n)(NODE n)(NODE s)(NODE _)(NODE n)(NODE u)(NODE m)(NODE b)(NODE e)(NODE r)(NODE _)(NODE c)(NODE h)(NODE a)(NODE n)(NODE g)(NODE e)(NODE _)(NODE :)(NODE )(NODE \n)(NODE \n)) |ET| 
-1  |BT| (NODE (NODE _)(NODE f)(NODE a)(NODE s)(NODE t)(NODE _)(NODE a)(NODE n)(NODE d)(NODE _)(NODE s)(NODE e)(NODE c)(NODE u)(NODE r)(NODE e)(NODE (NODE _)(NODE !))(NODE (NODE _)(NODE !))(NODE )(NODE \n)(NODE \n)) |ET| 
0.86307447793561964388686646998394  |BT| (NODE (NODE p)(NODE r)(NODE i)(NODE z)(NODE e)(NODE _)(NODE r)(NODE (NODE e)(NODE s))(NODE o)(NODE u)(NODE r)(NODE c)(NODE (NODE e)(NODE s))(NODE _)(NODE \6)(NODE \5)(NODE \2)(NODE \3)(NODE _)(NODE \4)(NODE (NODE \0)(NODE _))(NODE \1)(NODE \0)(NODE (NODE \0)(NODE _))(NODE %)(NODE _)(NODE l)(NODE (NODE e)(NODE s))(NODE s)(NODE _)(NODE $)(NODE _)(NODE (NODE \0)(NODE _))(NODE \n)) |ET| 
-1  |BT| (NODE (NODE t)(NODE o)(NODE _)(NODE e)(NODE x)(NODE (NODE i)(NODE t))(NODE (NODE _)(NODE a))(NODE l)(NODE l)(NODE (NODE _)(NODE a))(NODE d)(NODE d)(NODE (NODE i)(NODE t))(NODE i)(NODE o)(NODE n)(NODE a)(NODE l)(NODE _)(NODE m)(NODE a)(NODE i)(NODE l)(NODE i)(NODE n)(NODE g)(NODE s)(NODE (NODE _)(NODE -))(NODE (NODE _)(NODE -))(NODE (NODE _)(NODE -))(NODE _)(NODE >)(NODE )(NODE \n)(NODE \n)) |ET| 
0.99293036385959909662091149584739  |BT| (NODE (NODE (NODE s)(NODE u))(NODE b)(NODE j)(NODE e)(NODE c)(NODE t)(NODE _)(NODE :)(NODE _)(NODE i)(NODE s)(NODE (NODE s)(NODE u))(NODE e)(NODE )(NODE \n)(NODE \n)) |ET| 
-0.88423648759624928761269302412984  |BT| (NODE (NODE _)(NODE e)(NODE x)(NODE u)(NODE a)(NODE l)(NODE _)(NODE d)(NODE e)(NODE s)(NODE i)(NODE r)(NODE e)(NODE )(NODE \n)(NODE \n)) |ET| 
0.87646925712193257673732205148553  |BT| (NODE (NODE t)(NODE o)(NODE _)(NODE :)(NODE _)(NODE a)(NODE m)(NODE (NODE i)(NODE _))(NODE c)(NODE h)(NODE o)(NODE k)(NODE s)(NODE h)(NODE (NODE i)(NODE _))(NODE (NODE /)(NODE _))(NODE c)(NODE o)(NODE r)(NODE p)(NODE _)(NODE (NODE /)(NODE _))(NODE (NODE e)(NODE n)(NODE r)(NODE o)(NODE n))(NODE _)(NODE @)(NODE _)(NODE (NODE e)(NODE n)(NODE r)(NODE o)(NODE n))(NODE )(NODE \n)(NODE \n)) |ET| 
-1  |BT| (NODE (NODE (NODE (NODE -)(NODE _))(NODE (NODE -)(NODE _)))(NODE (NODE -)(NODE _))(NODE >)(NODE _)(NODE c)(NODE l)(NODE i)(NODE c)(NODE k)(NODE _)(NODE h)(NODE e)(NODE (NODE r)(NODE e)(NODE _))(NODE t)(NODE o)(NODE _)(NODE l)(NODE e)(NODE a)(NODE r)(NODE n)(NODE _)(NODE m)(NODE o)(NODE (NODE r)(NODE e)(NODE _))(NODE (NODE (NODE -)(NODE _))(NODE (NODE -)(NODE _)))(NODE -)(NODE )(NODE \n)(NODE \n)) |ET| 
0.96081105673577804626717124847346  |BT| (NODE (NODE _)(NODE p)(NODE l)(NODE (NODE e)(NODE a))(NODE s)(NODE e)(NODE _)(NODE e)(NODE n)(NODE t)(NODE e)(NODE r)(NODE _)(NODE d)(NODE (NODE e)(NODE a))(NODE l)(NODE _)(NODE f)(NODE o)(NODE r)(NODE )(NODE \n)(NODE \n)) |ET| 
-1  |BT| (NODE (NODE a)(NODE b)(NODE o)(NODE n)(NODE n)(NODE e)(NODE m)(NODE (NODE e)(NODE n))(NODE t)(NODE (NODE s)(NODE _))(NODE (NODE e)(NODE n))(NODE _)(NODE a)(NODE c)(NODE c)(NODE ?)(NODE (NODE s)(NODE _))(NODE i)(NODE l)(NODE l)(NODE i)(NODE m)(NODE i)(NODE t)(NODE ?)(NODE _)(NODE \n)) |ET| 
0.91723488666233343735711969202384  |BT| (NODE (NODE \9)(NODE _)(NODE ,)(NODE _)(NODE \3)(NODE \0)(NODE \0)(NODE _)(NODE m)(NODE m)(NODE b)(NODE t)(NODE u)(NODE _)(NODE /)(NODE _)(NODE d)(NODE _)(NODE i)(NODE n)(NODE t)(NODE o)(NODE _)(NODE h)(NODE p)(NODE l)(NODE )(NODE \n)(NODE \n)) |ET| 
