SVM-light Version V5.01-TK-1.2
5 # kernel type
3 # kernel parameter -d 
1 # kernel parameter -g 
1 # kernel parameter -s 
1 # kernel parameter -r 
empty# kernel parameter -u 
0.4 # kernel parameter -L 
1 # kernel parameter -T 
T # kernel parameter -C 
1 # kernel parameter -F 
1 # kernel parameter -S 
1.000000 # kernel parameter -D 
3 # kernel parameter -N 
S # kernel parameter -V 
S # kernel parameter -W 
0 # highest feature index 
637 # number of training documents 
564 # number of support vectors plus 1 
0.17169227 # threshold b, each following line is a SV (starting with alpha*y)
-1  |BT| (NODE (NODE ÿ)) |ET| 
-0.82766846126878779177360456742463  |BT| (NODE (NODE S)(NODE u)(NODE b)(NODE j)(NODE e)(NODE c)(NODE t)(NODE :)(NODE _)(NODE d)(NODE o)(NODE b)(NODE m)(NODE e)(NODE o)(NODE (NODE s)(NODE _))(NODE w)(NODE i)(NODE t)(NODE (NODE h)(NODE _))(NODE h)(NODE g)(NODE (NODE h)(NODE _))(NODE m)(NODE (NODE y)(NODE _))(NODE e)(NODE (NODE n)(NODE e))(NODE r)(NODE g)(NODE (NODE y)(NODE _))(NODE l)(NODE e)(NODE v)(NODE e)(NODE l)(NODE _)(NODE h)(NODE a)(NODE (NODE s)(NODE _))(NODE g)(NODE o)(NODE (NODE n)(NODE e))(NODE _)(NODE u)(NODE p)(NODE _)(NODE !)(NODE _)(NODE s)(NODE t)(NODE u)(NODE k)(NODE m)(NODE )(NODE \n)(NODE \n)) |ET| 
-0.90473590289688443633053793746512  |BT| (NODE (NODE (NODE i)(NODE n))(NODE t)(NODE r)(NODE o)(NODE d)(NODE u)(NODE c)(NODE (NODE i)(NODE n))(NODE g)(NODE )(NODE \n)(NODE \n)) |ET| 
-0.77646751096668087388508183721569  |BT| (NODE (NODE d)(NODE o)(NODE c)(NODE t)(NODE (NODE o)(NODE r))(NODE _)(NODE -)(NODE _)(NODE f)(NODE (NODE o)(NODE r))(NODE m)(NODE u)(NODE l)(NODE a)(NODE t)(NODE e)(NODE d)(NODE )(NODE \n)(NODE \n)) |ET| 
-1  |BT| (NODE (NODE h)(NODE g)(NODE h)(NODE )(NODE \n)(NODE \n)) |ET| 
1  |BT| (NODE (NODE ÿ)) |ET| 
1  |BT| (NODE (NODE S)(NODE u)(NODE b)(NODE j)(NODE e)(NODE (NODE c)(NODE t))(NODE :)(NODE _)(NODE c)(NODE h)(NODE r)(NODE i)(NODE s)(NODE t)(NODE m)(NODE a)(NODE s)(NODE _)(NODE t)(NODE (NODE r)(NODE e))(NODE e)(NODE _)(NODE f)(NODE a)(NODE r)(NODE m)(NODE _)(NODE p)(NODE i)(NODE (NODE c)(NODE t))(NODE u)(NODE (NODE r)(NODE e))(NODE s)(NODE )(NODE \n)(NODE \n)) |ET| 
1  |BT| (NODE (NODE S)(NODE u)(NODE b)(NODE j)(NODE e)(NODE c)(NODE t)(NODE :)(NODE _)(NODE v)(NODE a)(NODE s)(NODE t)(NODE a)(NODE r)(NODE _)(NODE r)(NODE (NODE e)(NODE s))(NODE o)(NODE u)(NODE r)(NODE c)(NODE (NODE e)(NODE s))(NODE _)(NODE ,)(NODE _)(NODE i)(NODE n)(NODE c)(NODE _)(NODE \n)) |ET| 
1  |BT| (NODE (NODE \n)(NODE \n)) |ET| 
1  |BT| (NODE (NODE g)(NODE a)(NODE r)(NODE y)(NODE _)(NODE ,)(NODE _)(NODE p)(NODE (NODE r)(NODE o))(NODE d)(NODE u)(NODE c)(NODE t)(NODE i)(NODE (NODE o)(NODE n))(NODE _)(NODE f)(NODE (NODE r)(NODE o))(NODE m)(NODE _)(NODE t)(NODE h)(NODE e)(NODE _)(NODE h)(NODE i)(NODE g)(NODE h)(NODE _)(NODE i)(NODE s)(NODE (NODE l)(NODE a))(NODE n)(NODE (NODE d)(NODE _))(NODE (NODE l)(NODE a))(NODE r)(NODE g)(NODE e)(NODE r)(NODE _)(NODE b)(NODE l)(NODE o)(NODE c)(NODE k)(NODE _)(NODE a)(NODE _)(NODE -)(NODE _)(NODE \1)(NODE _)(NODE #)(NODE _)(NODE \2)(NODE _)(NODE c)(NODE o)(NODE m)(NODE m)(NODE e)(NODE n)(NODE c)(NODE e)(NODE (NODE d)(NODE _))(NODE (NODE o)(NODE n))(NODE )(NODE \n)(NODE \n)) |ET| 
-1  |BT| (NODE (NODE \n)(NODE \n)) |ET| 
1  |BT| (NODE (NODE f)(NODE y)(NODE i)(NODE )(NODE \n)(NODE \n)) |ET| 
-0.82781251577128756036216827851604  |BT| (NODE (NODE (NODE d)(NODE a))(NODE b)(NODE (NODE b)(NODE l))(NODE (NODE e)(NODE (NODE _)(NODE b)))(NODE a)(NODE (NODE m)(NODE _))(NODE s)(NODE (NODE e)(NODE r))(NODE v)(NODE o)(NODE m)(NODE (NODE e)(NODE c))(NODE h)(NODE (NODE a)(NODE n))(NODE i)(NODE s)(NODE (NODE m)(NODE _))(NODE f)(NODE (NODE e)(NODE r))(NODE r)(NODE (NODE e)(NODE (NODE t)(NODE _)))(NODE c)(NODE (NODE a)(NODE n))(NODE o)(NODE p)(NODE y)(NODE (NODE _)(NODE b))(NODE (NODE o)(NODE o))(NODE k)(NODE c)(NODE a)(NODE s)(NODE (NODE e)(NODE (NODE _)(NODE b)))(NODE e)(NODE f)(NODE o)(NODE g)(NODE (NODE _)(NODE (NODE s)(NODE e)))(NODE d)(NODE u)(NODE c)(NODE (NODE t)(NODE i))(NODE v)(NODE (NODE (NODE e)(NODE _))(NODE e))(NODE (NODE l)(NODE a))(NODE p)(NODE (NODE s)(NODE e))(NODE (NODE _)(NODE b))(NODE (NODE a)(NODE l))(NODE (NODE l)(NODE a))(NODE r)(NODE (NODE d)(NODE _))(NODE (NODE d)(NODE a))(NODE (NODE p)(NODE h))(NODE n)(NODE (NODE e)(NODE _))(NODE a)(NODE c)(NODE r)(NODE y)(NODE (NODE (NODE l)(NODE a))(NODE t))(NODE (NODE (NODE e)(NODE _))(NODE d))(NODE (NODE e)(NODE r))(NODE i)(NODE d)(NODE (NODE (NODE e)(NODE _))(NODE d))(NODE (NODE e)(NODE c))(NODE a)(NODE (NODE d)(NODE e))(NODE (NODE n)(NODE (NODE t)(NODE _)))(NODE (NODE d)(NODE e))(NODE s)(NODE o)(NODE (NODE (NODE l)(NODE a))(NODE t))(NODE (NODE (NODE e)(NODE _))(NODE e))(NODE l)(NODE (NODE s)(NODE e))(NODE (NODE _)(NODE (NODE s)(NODE e)))(NODE (NODE q)(NODE u))(NODE e)(NODE (NODE s)(NODE t))(NODE r)(NODE a)(NODE (NODE (NODE t)(NODE i))(NODE (NODE o)(NODE n))(NODE _))(NODE c)(NODE (NODE o)(NODE n))(NODE (NODE d)(NODE i))(NODE (NODE (NODE t)(NODE i))(NODE (NODE o)(NODE n))(NODE _))(NODE (NODE l)(NODE i))(NODE g)(NODE a)(NODE m)(NODE e)(NODE (NODE n)(NODE (NODE t)(NODE _)))(NODE o)(NODE r)(NODE n)(NODE (NODE a)(NODE t))(NODE e)(NODE l)(NODE (NODE y)(NODE _))(NODE y)(NODE a)(NODE (NODE q)(NODE u))(NODE i)(NODE _)(NODE g)(NODE i)(NODE (NODE b)(NODE l))(NODE (NODE e)(NODE (NODE t)(NODE _)))(NODE e)(NODE m)(NODE (NODE p)(NODE h))(NODE y)(NODE (NODE s)(NODE e))(NODE m)(NODE (NODE a)(NODE t))(NODE o)(NODE u)(NODE s)(NODE _)(NODE w)(NODE (NODE o)(NODE o))(NODE d)(NODE (NODE l)(NODE a))(NODE n)(NODE (NODE d)(NODE _))(NODE (NODE l)(NODE i))(NODE (NODE e)(NODE _))(NODE (NODE s)(NODE e))(NODE g)(NODE o)(NODE v)(NODE i)(NODE (NODE a)(NODE _))(NODE (NODE a)(NODE l))(NODE m)(NODE i)(NODE g)(NODE h)(NODE t)(NODE (NODE y)(NODE _))(NODE c)(NODE o)(NODE f)(NODE f)(NODE e)(NODE (NODE y)(NODE _))(NODE s)(NODE h)(NODE u)(NODE (NODE t)(NODE _))(NODE c)(NODE h)(NODE i)(NODE n)(NODE (NODE a)(NODE _))(NODE c)(NODE l)(NODE u)(NODE b)(NODE r)(NODE (NODE o)(NODE o))(NODE (NODE m)(NODE _))(NODE (NODE d)(NODE i))(NODE a)(NODE g)(NODE n)(NODE o)(NODE (NODE s)(NODE t))(NODE i)(NODE c)(NODE i)(NODE (NODE a)(NODE n))(NODE )(NODE \n)(NODE \n)) |ET| 
1  |BT| (NODE (NODE h)(NODE c)(NODE \n)) |ET| 
-0.34014322754752857047577663252014  |BT| (NODE (NODE o)(NODE g)(NODE r)(NODE g)(NODE _)(NODE z)(NODE )(NODE \n)(NODE \n)) |ET| 
0.58449784012424599310975281696301  |BT| (NODE (NODE (NODE (NODE (NODE (NODE -)(NODE _))(NODE (NODE -)(NODE _)))(NODE (NODE (NODE -)(NODE _))(NODE (NODE -)(NODE _))))(NODE (NODE (NODE (NODE -)(NODE _))(NODE (NODE -)(NODE _)))(NODE (NODE (NODE -)(NODE _))(NODE (NODE -)(NODE _)))))(NODE (NODE (NODE (NODE (NODE -)(NODE _))(NODE (NODE -)(NODE _)))(NODE (NODE (NODE -)(NODE _))(NODE (NODE -)(NODE _))))(NODE (NODE (NODE (NODE -)(NODE _))(NODE (NODE -)(NODE _)))(NODE (NODE (NODE -)(NODE _))(NODE (NODE -)(NODE _)))))(NODE (NODE (NODE (NODE (NODE -)(NODE _))(NODE (NODE -)(NODE _)))(NODE (NODE (NODE -)(NODE _))(NODE (NODE -)(NODE _))))(NODE (NODE (NODE (NODE -)(NODE _))(NODE (NODE -)(NODE _)))(NODE (NODE (NODE -)(NODE _))(NODE (NODE -)(NODE _)))))(NODE (NODE (NODE -)(NODE _))(NODE (NODE -)(NODE _)))(NODE -)(NODE )(NODE \n)(NODE \n)) |ET| 
-1  |BT| (NODE (NODE (NODE (NODE -)(NODE _))(NODE (NODE -)(NODE _)))(NODE (NODE (NODE -)(NODE _))(NODE (NODE -)(NODE _)))(NODE -)(NODE )(NODE \n)(NODE \n)) |ET| 
1  |BT| (NODE (NODE d)(NODE _)(NODE \n)) |ET| 
-1  |BT| (NODE (NODE \1)(NODE _)(NODE \n)) |ET| 
1  |BT| (NODE (NODE (NODE g)(NODE e))(NODE o)(NODE r)(NODE (NODE g)(NODE e))(NODE _)(NODE ,)(NODE )(NODE \n)(NODE \n)) |ET| 
-1  |BT| (NODE (NODE c)(NODE l)(NODE i)(NODE c)(NODE k)(NODE )(NODE \n)(NODE \n)) |ET| 
1  |BT| (NODE (NODE \1)(NODE _)(NODE \n)) |ET| 
-1  |BT| (NODE (NODE \2)(NODE _)(NODE \n)) |ET| 
0.97581634806987083141649463868816  |BT| (NODE (NODE t)(NODE h)(NODE a)(NODE n)(NODE k)(NODE s)(NODE _)(NODE \n)) |ET| 
-0.77851603162776850108883763823542  |BT| (NODE (NODE p)(NODE (NODE r)(NODE e))(NODE s)(NODE s)(NODE _)(NODE (NODE r)(NODE e))(NODE l)(NODE e)(NODE a)(NODE s)(NODE e)(NODE )(NODE \n)(NODE \n)) |ET| 
1  |BT| (NODE (NODE \2)(NODE _)(NODE \n)) |ET| 
-1  |BT| (NODE (NODE \3)(NODE _)(NODE \n)) |ET| 
1  |BT| (NODE (NODE l)(NODE a)(NODE u)(NODE r)(NODE i)(NODE _)(NODE \n)) |ET| 
-1  |BT| (NODE (NODE a)(NODE d)(NODE v)(NODE _)(NODE \n)) |ET| 
1  |BT| (NODE (NODE h)(NODE c)(NODE )(NODE \n)(NODE \n)) |ET| 
-1  |BT| (NODE (NODE h)(NODE e)(NODE r)(NODE e)(NODE )(NODE \n)(NODE \n)) |ET| 
1  |BT| (NODE (NODE _)(NODE \3)(NODE \1)(NODE \2)(NODE _)(NODE \n)) |ET| 
-1  |BT| (NODE (NODE _)(NODE c)(NODE o)(NODE m)(NODE _)(NODE \n)) |ET| 
1  |BT| (NODE (NODE r)(NODE e)(NODE n)(NODE n)(NODE i)(NODE e)(NODE )(NODE \n)(NODE \n)) |ET| 
-0.96769641091440372626664156996412  |BT| (NODE (NODE t)(NODE u)(NODE r)(NODE n)(NODE _)(NODE !)(NODE )(NODE \n)(NODE \n)) |ET| 
1  |BT| (NODE (NODE _)(NODE d)(NODE o)(NODE c)(NODE \n)) |ET| 
-1  |BT| (NODE (NODE _)(NODE c)(NODE o)(NODE m)(NODE \n)) |ET| 
1  |BT| (NODE (NODE _)(NODE m)(NODE _)(NODE \n)) |ET| 
-1  |BT| (NODE (NODE _)(NODE s)(NODE _)(NODE \n)) |ET| 
1  |BT| (NODE (NODE t)(NODE o)(NODE m)(NODE o)(NODE r)(NODE r)(NODE o)(NODE w)(NODE _)(NODE \n)) |ET| 
-0.9401388476816716632811221643351  |BT| (NODE (NODE t)(NODE f)(NODE n)(NODE t)(NODE y)(NODE e)(NODE _)(NODE l)(NODE l)(NODE r)(NODE w)(NODE i)(NODE \n)) |ET| 
1  |BT| (NODE (NODE c)(NODE c)(NODE _)(NODE :)(NODE )(NODE \n)(NODE \n)) |ET| 
-0.65740549836446104947640378668439  |BT| (NODE (NODE c)(NODE o)(NODE m)(NODE p)(NODE a)(NODE n)(NODE y)(NODE )(NODE \n)(NODE \n)) |ET| 
1  |BT| (NODE (NODE s)(NODE y)(NODE s)(NODE t)(NODE e)(NODE m)(NODE _)(NODE \n)) |ET| 
-0.86510288700286697149977044318803  |BT| (NODE (NODE (NODE t)(NODE h))(NODE (NODE i)(NODE s)(NODE _))(NODE (NODE i)(NODE s)(NODE _))(NODE (NODE t)(NODE h))(NODE e)(NODE )(NODE \n)(NODE \n)) |ET| 
1  |BT| (NODE (NODE l)(NODE a)(NODE u)(NODE r)(NODE i)(NODE (NODE _)(NODE a))(NODE (NODE _)(NODE a))(NODE l)(NODE l)(NODE e)(NODE n)(NODE )(NODE \n)(NODE \n)) |ET| 
-1  |BT| (NODE (NODE r)(NODE e)(NODE a)(NODE d)(NODE )(NODE \n)(NODE \n)) |ET| 
1  |BT| (NODE (NODE _)(NODE t)(NODE h)(NODE i)(NODE s)(NODE _)(NODE g)(NODE a)(NODE s)(NODE )(NODE \n)(NODE \n)) |ET| 
-0.791557019087154811742834681354  |BT| (NODE (NODE _)(NODE b)(NODE i)(NODE z)(NODE _)(NODE /)(NODE _)(NODE o)(NODE f)(NODE f)(NODE _)(NODE \n)) |ET| 
1  |BT| (NODE (NODE \n)(NODE \n)) |ET| 
-1  |BT| (NODE (NODE \n)(NODE \n)) |ET| 
1  |BT| (NODE (NODE f)(NODE l)(NODE o)(NODE w)(NODE _)(NODE \)) |ET| 
-0.69126572920439743885623329333612  |BT| (NODE (NODE _)(NODE w)(NODE w)(NODE w)(NODE b)(NODE a)(NODE r)(NODE g)(NODE i)(NODE n)(NODE s)(NODE _)(NODE \n)) |ET| 
1  |BT| (NODE (NODE \n)(NODE \n)) |ET| 
-1  |BT| (NODE (NODE \n)(NODE \n)) |ET| 
1  |BT| (NODE (NODE t)(NODE h)(NODE e)(NODE r)(NODE e)(NODE _)(NODE i)(NODE s)(NODE _)(NODE a)(NODE _)(NODE \n)) |ET| 
-0.75863155162614615001359652524116  |BT| (NODE (NODE l)(NODE e)(NODE s)(NODE s)(NODE _)(NODE o)(NODE f)(NODE _)(NODE i)(NODE t)(NODE _)(NODE \n)) |ET| 
1  |BT| (NODE (NODE \n)(NODE \n)) |ET| 
-1  |BT| (NODE (NODE \n)(NODE \n)) |ET| 
1  |BT| (NODE (NODE _)(NODE l)(NODE i)(NODE n)(NODE d)(NODE a)(NODE _)(NODE ')(NODE _)(NODE s)(NODE )(NODE \n)(NODE \n)) |ET| 
-0.82255505631397596300047325712512  |BT| (NODE (NODE j)(NODE o)(NODE h)(NODE n)(NODE _)(NODE a)(NODE d)(NODE a)(NODE m)(NODE s)(NODE )(NODE \n)(NODE \n)) |ET| 
1  |BT| (NODE (NODE \n)(NODE \n)) |ET| 
-1  |BT| (NODE (NODE \n)(NODE \n)) |ET| 
1  |BT| (NODE (NODE f)(NODE o)(NODE (NODE r)(NODE _))(NODE n)(NODE o)(NODE v)(NODE e)(NODE m)(NODE b)(NODE e)(NODE (NODE r)(NODE _))(NODE \n)) |ET| 
-1  |BT| (NODE (NODE s)(NODE u)(NODE c)(NODE c)(NODE e)(NODE s)(NODE (NODE s)(NODE _))(NODE i)(NODE (NODE s)(NODE _))(NODE \n)) |ET| 
1  |BT| (NODE (NODE \n)(NODE \n)) |ET| 
-1  |BT| (NODE (NODE \n)(NODE \n)) |ET| 
1  |BT| (NODE (NODE p)(NODE l)(NODE e)(NODE a)(NODE s)(NODE (NODE e)(NODE _))(NODE a)(NODE d)(NODE v)(NODE i)(NODE c)(NODE (NODE e)(NODE _))(NODE \n)) |ET| 
-0.82794167175840105432627069603768  |BT| (NODE (NODE -)(NODE (NODE _)(NODE c))(NODE o)(NODE n)(NODE t)(NODE (NODE r)(NODE (NODE o)(NODE l)))(NODE l)(NODE e)(NODE d)(NODE (NODE _)(NODE c))(NODE h)(NODE (NODE o)(NODE l))(NODE e)(NODE s)(NODE t)(NODE e)(NODE (NODE r)(NODE (NODE o)(NODE l)))(NODE )(NODE \n)(NODE \n)) |ET| 
1  |BT| (NODE (NODE \n)(NODE \n)) |ET| 
-1  |BT| (NODE (NODE \n)(NODE \n)) |ET| 
1  |BT| (NODE (NODE t)(NODE h)(NODE a)(NODE n)(NODE k)(NODE s)(NODE \n)) |ET| 
-0.9240103849968742677489785819489  |BT| (NODE (NODE S)(NODE u)(NODE b)(NODE j)(NODE e)(NODE c)(NODE t)(NODE :)(NODE _)(NODE ^)(NODE _)(NODE \n)) |ET| 
1  |BT| (NODE (NODE \n)(NODE \n)) |ET| 
-1  |BT| (NODE (NODE \n)(NODE \n)) |ET| 
1  |BT| (NODE (NODE (NODE s)(NODE u))(NODE b)(NODE j)(NODE e)(NODE c)(NODE t)(NODE (NODE _)(NODE :)(NODE _))(NODE r)(NODE e)(NODE (NODE _)(NODE :)(NODE _))(NODE i)(NODE s)(NODE (NODE s)(NODE u))(NODE e)(NODE )(NODE \n)(NODE \n)) |ET| 
-0.70690279354840956926864237175323  |BT| (NODE (NODE h)(NODE (NODE i)(NODE g)(NODE h))(NODE l)(NODE (NODE i)(NODE g)(NODE h))(NODE t)(NODE s)(NODE )(NODE \n)(NODE \n)) |ET| 
1  |BT| (NODE (NODE \n)(NODE \n)) |ET| 
-1  |BT| (NODE (NODE \n)(NODE \n)) |ET| 
0.88098303743078465455340619882918  |BT| (NODE (NODE (NODE s)(NODE u))(NODE b)(NODE j)(NODE e)(NODE c)(NODE t)(NODE _)(NODE :)(NODE _)(NODE i)(NODE s)(NODE (NODE s)(NODE u))(NODE e)(NODE )(NODE \n)(NODE \n)) |ET| 
-0.94156558993674122071126930677565  |BT| (NODE (NODE f)(NODE r)(NODE e)(NODE (NODE e)(NODE _))(NODE c)(NODE a)(NODE b)(NODE l)(NODE (NODE e)(NODE _))(NODE @)(NODE _)(NODE t)(NODE v)(NODE )(NODE \n)(NODE \n)) |ET| 
1  |BT| (NODE (NODE \n)(NODE \n)) |ET| 
-1  |BT| (NODE (NODE \n)(NODE \n)) |ET| 
1  |BT| (NODE (NODE \3)(NODE _)(NODE -)(NODE _)(NODE \7)(NODE \5)(NODE \7)(NODE \8)(NODE \n)) |ET| 
-0.56936481988324216807484390301397  |BT| (NODE (NODE \0)(NODE (NODE \7)(NODE _)(NODE /)(NODE _)(NODE \2))(NODE (NODE \7)(NODE _)(NODE /)(NODE _)(NODE \2))(NODE \0)(NODE \0)(NODE \3)(NODE )(NODE \n)(NODE \n)) |ET| 
1  |BT| (NODE (NODE \n)(NODE \n)) |ET| 
-1  |BT| (NODE (NODE \n)(NODE \n)) |ET| 
1  |BT| (NODE (NODE \1)(NODE \2)(NODE (NODE _)(NODE /)(NODE _))(NODE \0)(NODE \9)(NODE (NODE _)(NODE /)(NODE _))(NODE \9)(NODE \9)(NODE _)(NODE \0)(NODE \1)(NODE _)(NODE :)(NODE _)(NODE \2)(NODE \0)(NODE _)(NODE p)(NODE m)(NODE )(NODE \n)(NODE \n)) |ET| 
-0.74106997498476601116124129475793  |BT| (NODE (NODE f)(NODE u)(NODE n)(NODE d)(NODE s)(NODE _)(NODE i)(NODE n)(NODE _)(NODE y)(NODE o)(NODE u)(NODE r)(NODE _)(NODE c)(NODE u)(NODE s)(NODE t)(NODE o)(NODE d)(NODE y)(NODE _)(NODE \n)) |ET| 
1  |BT| (NODE (NODE \n)(NODE \n)) |ET| 
-1  |BT| (NODE (NODE \n)(NODE \n)) |ET| 
1  |BT| (NODE (NODE f)(NODE r)(NODE o)(NODE m)(NODE _)(NODE t)(NODE o)(NODE )(NODE \n)(NODE \n)) |ET| 
-0.62261293971852782469511566887377  |BT| (NODE (NODE n)(NODE o)(NODE _)(NODE m)(NODE o)(NODE r)(NODE e)(NODE _)(NODE o)(NODE f)(NODE f)(NODE e)(NODE r)(NODE s)(NODE )(NODE \n)(NODE \n)) |ET| 
1  |BT| (NODE (NODE \n)(NODE \n)) |ET| 
-1  |BT| (NODE (NODE \n)(NODE \n)) |ET| 
1  |BT| (NODE (NODE l)(NODE e)(NODE t)(NODE _)(NODE m)(NODE e)(NODE _)(NODE k)(NODE n)(NODE o)(NODE w)(NODE _)(NODE w)(NODE h)(NODE e)(NODE n)(NODE _)(NODE t)(NODE h)(NODE (NODE i)(NODE s)(NODE _))(NODE (NODE i)(NODE s)(NODE _))(NODE d)(NODE o)(NODE n)(NODE e)(NODE )(NODE \n)(NODE \n)) |ET| 
-0.87753952850539740371260677420651  |BT| (NODE (NODE _)(NODE b)(NODE u)(NODE (NODE t)(NODE _))(NODE t)(NODE h)(NODE a)(NODE (NODE t)(NODE _))(NODE ')(NODE _)(NODE s)(NODE _)(NODE n)(NODE o)(NODE (NODE t)(NODE _))(NODE \_)(NODE _)(NODE a)(NODE l)(NODE l)(NODE _)(NODE \n)) |ET| 
1  |BT| (NODE (NODE \n)(NODE \n)) |ET| 
-1  |BT| (NODE (NODE \n)(NODE \n)) |ET| 
1  |BT| (NODE (NODE s)(NODE u)(NODE b)(NODE j)(NODE e)(NODE c)(NODE t)(NODE _)(NODE :)(NODE _)(NODE d)(NODE u)(NODE n)(NODE s)(NODE _)(NODE n)(NODE u)(NODE m)(NODE b)(NODE e)(NODE r)(NODE _)(NODE c)(NODE h)(NODE a)(NODE n)(NODE g)(NODE e)(NODE s)(NODE )(NODE \n)(NODE \n)) |ET| 
-0.82786155010909434626142910929048  |BT| (NODE (NODE c)(NODE r)(NODE a)(NODE c)(NODE k)(NODE e)(NODE (NODE d)(NODE _))(NODE t)(NODE h)(NODE (NODE e)(NODE _))(NODE c)(NODE o)(NODE d)(NODE (NODE e)(NODE _))(NODE a)(NODE n)(NODE (NODE d)(NODE _))(NODE w)(NODE i)(NODE l)(NODE l)(NODE _)(NODE s)(NODE h)(NODE o)(NODE w)(NODE _)(NODE y)(NODE o)(NODE u)(NODE _)(NODE \n)) |ET| 
1  |BT| (NODE (NODE \n)(NODE \n)) |ET| 
-1  |BT| (NODE (NODE \n)(NODE \n)) |ET| 
1  |BT| (NODE (NODE t)(NODE h)(NODE e)(NODE i)(NODE r)(NODE _)(NODE o)(NODE w)(NODE n)(NODE _)(NODE p)(NODE r)(NODE o)(NODE c)(NODE e)(NODE s)(NODE s)(NODE i)(NODE n)(NODE g)(NODE _)(NODE a)(NODE g)(NODE r)(NODE e)(NODE e)(NODE m)(NODE e)(NODE n)(NODE t)(NODE _)(NODE \n)) |ET| 
-0.80475391077862967748046685301233  |BT| (NODE (NODE o)(NODE n)(NODE _)(NODE t)(NODE h)(NODE e)(NODE _)(NODE f)(NODE o)(NODE l)(NODE l)(NODE o)(NODE w)(NODE i)(NODE n)(NODE g)(NODE _)(NODE i)(NODE t)(NODE e)(NODE m)(NODE s)(NODE _)(NODE :)(NODE _)(NODE m)(NODE a)(NODE n)(NODE o)(NODE r)(NODE )(NODE \n)(NODE \n)) |ET| 
1  |BT| (NODE (NODE \n)(NODE \n)) |ET| 
-1  |BT| (NODE (NODE \n)(NODE \n)) |ET| 
0.68956727906055170773669260597671  |BT| (NODE (NODE t)(NODE o)(NODE _)(NODE :)(NODE _)(NODE s)(NODE t)(NODE e)(NODE l)(NODE l)(NODE a)(NODE _)(NODE l)(NODE _)(NODE m)(NODE o)(NODE r)(NODE r)(NODE i)(NODE s)(NODE (NODE _)(NODE /)(NODE _))(NODE h)(NODE o)(NODE u)(NODE (NODE _)(NODE /)(NODE _))(NODE (NODE e)(NODE c)(NODE t))(NODE _)(NODE @)(NODE _)(NODE (NODE e)(NODE c)(NODE t))(NODE )(NODE \n)(NODE \n)) |ET| 
-0.83033661227885358080413880088599  |BT| (NODE (NODE \()(NODE (NODE _)(NODE c))(NODE h)(NODE a)(NODE i)(NODE r)(NODE m)(NODE a)(NODE (NODE n)(NODE _))(NODE s)(NODE (NODE e)(NODE n))(NODE a)(NODE (NODE t)(NODE e))(NODE (NODE _)(NODE c))(NODE o)(NODE m)(NODE m)(NODE i)(NODE t)(NODE (NODE t)(NODE e))(NODE e)(NODE _)(NODE o)(NODE (NODE n)(NODE _))(NODE b)(NODE (NODE a)(NODE n))(NODE k)(NODE s)(NODE _)(NODE (NODE a)(NODE n))(NODE d)(NODE (NODE _)(NODE c))(NODE u)(NODE r)(NODE r)(NODE (NODE e)(NODE n))(NODE c)(NODE y)(NODE _)(NODE \)) |ET| 
1  |BT| (NODE (NODE \n)(NODE \n)) |ET| 
-1  |BT| (NODE (NODE \n)(NODE \n)) |ET| 
1  |BT| (NODE (NODE t)(NODE o)(NODE _)(NODE :)(NODE _)(NODE c)(NODE a)(NODE r)(NODE l)(NODE o)(NODE s)(NODE _)(NODE j)(NODE _)(NODE r)(NODE o)(NODE d)(NODE r)(NODE i)(NODE g)(NODE u)(NODE e)(NODE z)(NODE (NODE _)(NODE /)(NODE _))(NODE h)(NODE o)(NODE u)(NODE (NODE _)(NODE /)(NODE _))(NODE (NODE e)(NODE c)(NODE t))(NODE _)(NODE @)(NODE _)(NODE (NODE e)(NODE c)(NODE t))(NODE )(NODE \n)(NODE \n)) |ET| 
-0.82390061321607577227155161381233  |BT| (NODE (NODE -)(NODE _)(NODE n)(NODE e)(NODE w)(NODE _)(NODE h)(NODE a)(NODE i)(NODE (NODE r)(NODE _))(NODE g)(NODE r)(NODE o)(NODE w)(NODE t)(NODE h)(NODE _)(NODE a)(NODE n)(NODE d)(NODE _)(NODE c)(NODE o)(NODE l)(NODE o)(NODE (NODE r)(NODE _))(NODE (NODE r)(NODE e))(NODE s)(NODE t)(NODE o)(NODE (NODE r)(NODE e))(NODE )(NODE \n)(NODE \n)) |ET| 
1  |BT| (NODE (NODE \n)(NODE \n)) |ET| 
-1  |BT| (NODE (NODE _)(NODE \n)) |ET| 
1  |BT| (NODE (NODE k)(NODE e)(NODE v)(NODE (NODE i)(NODE n))(NODE _)(NODE h)(NODE e)(NODE (NODE a)(NODE l)(NODE (NODE _)(NODE /)(NODE _)))(NODE c)(NODE (NODE a)(NODE l)(NODE (NODE _)(NODE /)(NODE _)))(NODE (NODE (NODE (NODE e)(NODE c)(NODE t))(NODE _))(NODE @)(NODE _))(NODE (NODE (NODE e)(NODE c)(NODE t))(NODE _))(NODE ,)(NODE _)(NODE r)(NODE i)(NODE c)(NODE h)(NODE a)(NODE r)(NODE d)(NODE _)(NODE p)(NODE (NODE i)(NODE n))(NODE i)(NODE o)(NODE n)(NODE (NODE _)(NODE /)(NODE _))(NODE h)(NODE o)(NODE u)(NODE (NODE _)(NODE /)(NODE _))(NODE (NODE (NODE (NODE e)(NODE c)(NODE t))(NODE _))(NODE @)(NODE _))(NODE (NODE e)(NODE c)(NODE t))(NODE )(NODE \n)(NODE \n)) |ET| 
-0.80747009917422873925829662766773  |BT| (NODE (NODE l)(NODE n)(NODE u)(NODE \n)) |ET| 
1  |BT| (NODE (NODE _)(NODE \n)) |ET| 
-1  |BT| (NODE (NODE _)(NODE \n)) |ET| 
1  |BT| (NODE (NODE s)(NODE t)(NODE e)(NODE l)(NODE l)(NODE a)(NODE )(NODE \n)(NODE \n)) |ET| 
-0.80415671477937178401873552502366  |BT| (NODE (NODE s)(NODE o)(NODE m)(NODE a)(NODE )(NODE \n)(NODE \n)) |ET| 
0.93036809211227733396043504399131  |BT| (NODE (NODE |)(NODE (NODE (NODE (NODE _)(NODE -))(NODE (NODE _)(NODE -)))(NODE (NODE (NODE _)(NODE -))(NODE (NODE _)(NODE -))))(NODE (NODE (NODE (NODE (NODE _)(NODE -))(NODE (NODE _)(NODE -)))(NODE (NODE (NODE _)(NODE -))(NODE (NODE _)(NODE -))))(NODE _))(NODE (NODE +)(NODE (NODE (NODE (NODE (NODE (NODE _)(NODE -))(NODE (NODE _)(NODE -)))(NODE (NODE (NODE _)(NODE -))(NODE (NODE _)(NODE -))))(NODE _))(NODE -))(NODE (NODE (NODE (NODE (NODE (NODE _)(NODE -))(NODE (NODE _)(NODE -)))(NODE (NODE (NODE _)(NODE -))(NODE (NODE _)(NODE -))))(NODE _))(NODE -))(NODE _))(NODE (NODE +)(NODE (NODE (NODE (NODE (NODE (NODE _)(NODE -))(NODE (NODE _)(NODE -)))(NODE (NODE (NODE _)(NODE -))(NODE (NODE _)(NODE -))))(NODE _))(NODE -))(NODE (NODE (NODE (NODE (NODE (NODE _)(NODE -))(NODE (NODE _)(NODE -)))(NODE (NODE (NODE _)(NODE -))(NODE (NODE _)(NODE -))))(NODE _))(NODE -))(NODE _))(NODE -)(NODE _)(NODE |)(NODE \n)) |ET| 
-0.88789129959428680916033727044123  |BT| (NODE (NODE (NODE (NODE *)(NODE _))(NODE (NODE *)(NODE _)))(NODE (NODE (NODE *)(NODE _))(NODE (NODE *)(NODE _)))(NODE (NODE (NODE *)(NODE _))(NODE (NODE *)(NODE _)))(NODE (NODE *)(NODE _))(NODE i)(NODE m)(NODE p)(NODE o)(NODE r)(NODE t)(NODE (NODE a)(NODE n))(NODE t)(NODE _)(NODE n)(NODE o)(NODE t)(NODE i)(NODE c)(NODE e)(NODE _)(NODE (NODE a)(NODE n))(NODE d)(NODE )(NODE \n)(NODE \n)) |ET| 
1  |BT| (NODE (NODE _)(NODE i)(NODE )(NODE \n)(NODE \n)) |ET| 
-1  |BT| (NODE (NODE _)(NODE b)(NODE )(NODE \n)(NODE \n)) |ET| 
1  |BT| (NODE (NODE n)(NODE o)(NODE v)(NODE e)(NODE m)(NODE b)(NODE e)(NODE r)(NODE _)(NODE c)(NODE l)(NODE o)(NODE s)(NODE e)(NODE _)(NODE \n)) |ET| 
-0.84555909559095765448688553078682  |BT| (NODE (NODE _)(NODE w)(NODE i)(NODE l)(NODE e)(NODE y)(NODE )(NODE \n)(NODE \n)) |ET| 
1  |BT| (NODE (NODE \n)) |ET| 
-1  |BT| (NODE (NODE \n)) |ET| 
1  |BT| (NODE (NODE f)(NODE y)(NODE i)(NODE _)(NODE \n)) |ET| 
-0.7770494994764897134231773634383  |BT| (NODE (NODE _)(NODE v)(NODE i)(NODE r)(NODE i)(NODE i)(NODE i)(NODE t)(NODE y)(NODE _)(NODE p)(NODE _)(NODE ;)(NODE _)(NODE a)(NODE t)(NODE c)(NODE h)(NODE _)(NODE r)(NODE _)(NODE \n)) |ET| 
1  |BT| (NODE (NODE \n)) |ET| 
-1  |BT| (NODE (NODE \n)) |ET| 
1  |BT| (NODE (NODE h)(NODE o)(NODE w)(NODE a)(NODE r)(NODE d)(NODE _)(NODE b)(NODE _)(NODE c)(NODE a)(NODE m)(NODE p)(NODE )(NODE \n)(NODE \n)) |ET| 
-0.99111123402369549761914413466002  |BT| (NODE (NODE d)(NODE e)(NODE (NODE a)(NODE r))(NODE _)(NODE p)(NODE (NODE a)(NODE r))(NODE t)(NODE n)(NODE e)(NODE r)(NODE _)(NODE ,)(NODE )(NODE \n)(NODE \n)) |ET| 
1  |BT| (NODE (NODE j)(NODE a)(NODE n)(NODE _)(NODE \2)(NODE \6)(NODE )(NODE \n)(NODE \n)) |ET| 
-1  |BT| (NODE (NODE _)(NODE \n)) |ET| 
0.9799242144933533182893370394595  |BT| (NODE (NODE s)(NODE t)(NODE e)(NODE l)(NODE l)(NODE a)(NODE _)(NODE ,)(NODE )(NODE \n)(NODE \n)) |ET| 
-0.5762571972341228310199312545592  |BT| (NODE (NODE l)(NODE e)(NODE v)(NODE i)(NODE t)(NODE r)(NODE a)(NODE )(NODE \n)(NODE \n)) |ET| 
1  |BT| (NODE (NODE (NODE |)(NODE _))(NODE (NODE |)(NODE _))(NODE (NODE |)(NODE _))(NODE |)(NODE )(NODE \n)(NODE \n)) |ET| 
-0.76190633430632748179789359710412  |BT| (NODE (NODE -)(NODE _)(NODE l)(NODE o)(NODE s)(NODE s)(NODE _)(NODE i)(NODE n)(NODE _)(NODE b)(NODE o)(NODE d)(NODE y)(NODE _)(NODE f)(NODE a)(NODE t)(NODE )(NODE \n)(NODE \n)) |ET| 
1  |BT| (NODE (NODE \n)(NODE \n)) |ET| 
-1  |BT| (NODE (NODE _)(NODE \n)) |ET| 
1  |BT| (NODE (NODE k)(NODE i)(NODE m)(NODE b)(NODE e)(NODE r)(NODE l)(NODE y)(NODE _)(NODE v)(NODE a)(NODE u)(NODE g)(NODE h)(NODE n)(NODE )(NODE \n)(NODE \n)) |ET| 
-0.79972820203182826137577876579599  |BT| (NODE (NODE f)(NODE x)(NODE b)(NODE e)(NODE k)(NODE d)(NODE c)(NODE a)(NODE o)(NODE l)(NODE k)(NODE _)(NODE g)(NODE s)(NODE i)(NODE a)(NODE a)(NODE g)(NODE c)(NODE r)(NODE h)(NODE y)(NODE p)(NODE )(NODE \n)(NODE \n)) |ET| 
1  |BT| (NODE (NODE (NODE _)(NODE i))(NODE t)(NODE (NODE _)(NODE i))(NODE s)(NODE _)(NODE m)(NODE y)(NODE )(NODE \n)(NODE \n)) |ET| 
-0.68567828109280060111530019639758  |BT| (NODE (NODE n)(NODE e)(NODE x)(NODE i)(NODE u)(NODE m)(NODE )(NODE \n)(NODE \n)) |ET| 
1  |BT| (NODE (NODE a)(NODE _)(NODE p)(NODE o)(NODE i)(NODE n)(NODE (NODE t)(NODE _))(NODE (NODE n)(NODE o)(NODE m)(NODE _))(NODE \()(NODE (NODE _)(NODE o))(NODE n)(NODE _)(NODE h)(NODE p)(NODE l)(NODE (NODE _)(NODE o))(NODE r)(NODE _)(NODE k)(NODE r)(NODE g)(NODE p)(NODE _)(NODE \)) |ET| 
-0.84362356044485886652495310045197  |BT| (NODE (NODE (NODE (NODE -)(NODE _))(NODE (NODE -)(NODE _)))(NODE (NODE -)(NODE _))(NODE >)(NODE _)(NODE c)(NODE l)(NODE i)(NODE c)(NODE k)(NODE _)(NODE h)(NODE e)(NODE (NODE r)(NODE e)(NODE _))(NODE t)(NODE o)(NODE _)(NODE l)(NODE e)(NODE a)(NODE r)(NODE n)(NODE _)(NODE m)(NODE o)(NODE (NODE r)(NODE e)(NODE _))(NODE (NODE (NODE -)(NODE _))(NODE (NODE -)(NODE _)))(NODE -)(NODE )(NODE \n)(NODE \n)) |ET| 
1  |BT| (NODE (NODE _)(NODE \0)(NODE \5)(NODE _)(NODE c)(NODE e)(NODE n)(NODE t)(NODE _)(NODE f)(NODE e)(NODE e)(NODE )(NODE \n)(NODE \n)) |ET| 
-0.87065807293444363867962465519668  |BT| (NODE (NODE w)(NODE h)(NODE a)(NODE (NODE t)(NODE _))(NODE i)(NODE (NODE t)(NODE _))(NODE d)(NODE o)(NODE e)(NODE s)(NODE )(NODE \n)(NODE \n)) |ET| 
1  |BT| (NODE (NODE d)(NODE u)(NODE n)(NODE n)(NODE s)(NODE _)(NODE n)(NODE u)(NODE m)(NODE b)(NODE e)(NODE r)(NODE _)(NODE c)(NODE h)(NODE a)(NODE n)(NODE g)(NODE e)(NODE _)(NODE :)(NODE )(NODE \n)(NODE \n)) |ET| 
-0.81420266190917900406276430658181  |BT| (NODE (NODE p)(NODE i)(NODE l)(NODE l)(NODE s)(NODE _)(NODE t)(NODE a)(NODE k)(NODE e)(NODE _)(NODE e)(NODE f)(NODE f)(NODE e)(NODE c)(NODE t)(NODE _)(NODE w)(NODE i)(NODE t)(NODE h)(NODE i)(NODE n)(NODE )(NODE \n)(NODE \n)) |ET| 
1  |BT| (NODE (NODE S)(NODE u)(NODE b)(NODE j)(NODE e)(NODE c)(NODE t)(NODE (NODE :)(NODE _))(NODE r)(NODE e)(NODE _)(NODE (NODE :)(NODE _))(NODE i)(NODE s)(NODE s)(NODE u)(NODE e)(NODE )(NODE \n)(NODE \n)) |ET| 
-0.79085699533319109288953541181399  |BT| (NODE (NODE S)(NODE u)(NODE b)(NODE j)(NODE e)(NODE c)(NODE t)(NODE :)(NODE _)(NODE e)(NODE n)(NODE j)(NODE o)(NODE y)(NODE _)(NODE i)(NODE t)(NODE )(NODE \n)(NODE \n)) |ET| 
1  |BT| (NODE (NODE c)(NODE o)(NODE u)(NODE n)(NODE t)(NODE (NODE e)(NODE r))(NODE p)(NODE a)(NODE r)(NODE t)(NODE y)(NODE _)(NODE c)(NODE p)(NODE _)(NODE i)(NODE d)(NODE _)(NODE n)(NODE u)(NODE m)(NODE b)(NODE (NODE e)(NODE r))(NODE )(NODE \n)(NODE \n)) |ET| 
-0.82888782103879188323247717562481  |BT| (NODE (NODE m)(NODE o)(NODE s)(NODE t)(NODE _)(NODE p)(NODE l)(NODE a)(NODE c)(NODE e)(NODE s)(NODE _)(NODE (NODE c)(NODE h)(NODE a)(NODE r)(NODE g)(NODE (NODE e)(NODE _))(NODE $)(NODE _))(NODE \2)(NODE \0)(NODE _)(NODE ,)(NODE _)(NODE w)(NODE (NODE e)(NODE _))(NODE (NODE c)(NODE h)(NODE a)(NODE r)(NODE g)(NODE (NODE e)(NODE _))(NODE $)(NODE _))(NODE \3)(NODE _)(NODE \n)) |ET| 
1  |BT| (NODE (NODE S)(NODE u)(NODE b)(NODE j)(NODE e)(NODE c)(NODE t)(NODE :)(NODE _)(NODE k)(NODE i)(NODE n)(NODE g)(NODE _)(NODE r)(NODE a)(NODE n)(NODE c)(NODE h)(NODE )(NODE \n)(NODE \n)) |ET| 
-0.78144103759383798379900554209598  |BT| (NODE (NODE s)(NODE i)(NODE n)(NODE c)(NODE e)(NODE r)(NODE e)(NODE l)(NODE y)(NODE _)(NODE ,)(NODE )(NODE \n)(NODE \n)) |ET| 
1  |BT| (NODE (NODE S)(NODE u)(NODE b)(NODE j)(NODE e)(NODE c)(NODE t)(NODE :)(NODE _)(NODE d)(NODE u)(NODE n)(NODE s)(NODE _)(NODE n)(NODE u)(NODE m)(NODE b)(NODE e)(NODE r)(NODE _)(NODE c)(NODE h)(NODE a)(NODE n)(NODE g)(NODE e)(NODE s)(NODE )(NODE \n)(NODE \n)) |ET| 
-0.82848133181744010311575721061672  |BT| (NODE (NODE f)(NODE j)(NODE (NODE _)(NODE \5))(NODE (NODE \5)(NODE _))(NODE q)(NODE j)(NODE (NODE l)(NODE _))(NODE \2)(NODE (NODE _)(NODE w)(NODE i))(NODE (NODE _)(NODE w)(NODE i))(NODE l)(NODE (NODE l)(NODE _))(NODE n)(NODE (NODE o)(NODE t))(NODE _)(NODE s)(NODE p)(NODE a)(NODE n)(NODE k)(NODE _)(NODE (NODE o)(NODE t))(NODE h)(NODE e)(NODE r)(NODE s)(NODE _)(NODE (NODE \2)(NODE _))(NODE o)(NODE _)(NODE \8)(NODE \2)(NODE (NODE \2)(NODE _))(NODE a)(NODE l)(NODE r)(NODE _)(NODE (NODE \6)(NODE _))(NODE y)(NODE (NODE _)(NODE \9))(NODE (NODE \6)(NODE _))(NODE g)(NODE i)(NODE g)(NODE c)(NODE c)(NODE b)(NODE _)(NODE \4)(NODE _)(NODE i)(NODE (NODE _)(NODE \9))(NODE \9)(NODE \0)(NODE \4)(NODE (NODE \5)(NODE _))(NODE e)(NODE (NODE _)(NODE \5))(NODE _)(NODE x)(NODE (NODE l)(NODE _))(NODE (NODE \6)(NODE _))(NODE o)(NODE )(NODE \n)(NODE \n)) |ET| 
1  |BT| (NODE (NODE \n)(NODE \n)) |ET| 
-1  |BT| (NODE (NODE _)(NODE \n)) |ET| 
1  |BT| (NODE (NODE _)(NODE w)(NODE e)(NODE _)(NODE e)(NODE i)(NODE t)(NODE h)(NODE e)(NODE r)(NODE _)(NODE ,)(NODE _)(NODE n)(NODE e)(NODE e)(NODE d)(NODE _)(NODE t)(NODE o)(NODE _)(NODE i)(NODE n)(NODE p)(NODE u)(NODE t)(NODE )(NODE \n)(NODE \n)) |ET| 
-0.82781207685049906785934581421316  |BT| (NODE (NODE (NODE _)(NODE a))(NODE l)(NODE (NODE l)(NODE (NODE _)(NODE a)))(NODE r)(NODE (NODE r)(NODE a))(NODE n)(NODE g)(NODE e)(NODE (NODE (NODE m)(NODE (NODE e)(NODE n)))(NODE t))(NODE (NODE s)(NODE (NODE _)(NODE i)))(NODE (NODE n)(NODE _))(NODE r)(NODE (NODE e)(NODE l))(NODE (NODE a)(NODE (NODE t)(NODE i)))(NODE o)(NODE (NODE n)(NODE _))(NODE (NODE t)(NODE o)(NODE _))(NODE (NODE t)(NODE h))(NODE i)(NODE (NODE s)(NODE (NODE _)(NODE i)))(NODE n)(NODE (NODE v)(NODE e))(NODE s)(NODE t)(NODE (NODE (NODE m)(NODE (NODE e)(NODE n)))(NODE t))(NODE (NODE (NODE _)(NODE i))(NODE n)(NODE i)(NODE (NODE t)(NODE i)))(NODE (NODE a)(NODE (NODE t)(NODE i)))(NODE (NODE v)(NODE e))(NODE (NODE _)(NODE ,))(NODE (NODE _)(NODE a))(NODE (NODE s)(NODE _))(NODE w)(NODE (NODE e)(NODE l))(NODE (NODE l)(NODE (NODE _)(NODE a)))(NODE (NODE s)(NODE _))(NODE (NODE t)(NODE h))(NODE e)(NODE (NODE (NODE _)(NODE i))(NODE n)(NODE i)(NODE (NODE t)(NODE i)))(NODE (NODE a)(NODE l)(NODE _))(NODE (NODE c)(NODE a))(NODE p)(NODE (NODE i)(NODE t))(NODE (NODE a)(NODE l)(NODE _))(NODE f)(NODE o)(NODE r)(NODE (NODE _)(NODE i))(NODE t)(NODE (NODE s)(NODE _))(NODE (NODE t)(NODE a))(NODE k)(NODE (NODE e)(NODE _))(NODE (NODE o)(NODE f))(NODE f)(NODE _)(NODE (NODE h)(NODE a))(NODE (NODE s)(NODE _))(NODE b)(NODE e)(NODE (NODE e)(NODE n))(NODE _)(NODE (NODE t)(NODE a))(NODE c)(NODE (NODE t)(NODE i))(NODE (NODE c)(NODE a))(NODE (NODE l)(NODE l))(NODE (NODE y)(NODE _))(NODE s)(NODE e)(NODE t)(NODE (NODE _)(NODE a))(NODE (NODE s)(NODE i))(NODE d)(NODE (NODE e)(NODE _))(NODE (NODE t)(NODE o)(NODE _))(NODE c)(NODE o)(NODE m)(NODE (NODE m)(NODE (NODE e)(NODE n)))(NODE c)(NODE (NODE e)(NODE _))(NODE w)(NODE (NODE h)(NODE a))(NODE t)(NODE e)(NODE (NODE v)(NODE e))(NODE r)(NODE _)(NODE b)(NODE u)(NODE (NODE s)(NODE i))(NODE n)(NODE e)(NODE s)(NODE (NODE s)(NODE _))(NODE y)(NODE (NODE o)(NODE u))(NODE _)(NODE d)(NODE e)(NODE e)(NODE m)(NODE e)(NODE (NODE d)(NODE _))(NODE f)(NODE (NODE i)(NODE t))(NODE (NODE _)(NODE ,))(NODE _)(NODE (NODE t)(NODE h))(NODE a)(NODE t)(NODE _)(NODE w)(NODE i)(NODE (NODE l)(NODE l))(NODE _)(NODE t)(NODE u)(NODE r)(NODE (NODE n)(NODE _))(NODE a)(NODE r)(NODE (NODE o)(NODE u))(NODE n)(NODE (NODE d)(NODE _))(NODE p)(NODE r)(NODE (NODE o)(NODE f))(NODE (NODE i)(NODE t))(NODE _)(NODE f)(NODE a)(NODE v)(NODE (NODE o)(NODE u))(NODE (NODE r)(NODE a))(NODE b)(NODE l)(NODE (NODE y)(NODE _))(NODE \n)) |ET| 
1  |BT| (NODE (NODE #)(NODE _)(NODE \1)(NODE _)(NODE w)(NODE e)(NODE l)(NODE l)(NODE _)(NODE \)) |ET| 
-0.38221850250031036422271313313104  |BT| (NODE (NODE p)(NODE r)(NODE o)(NODE f)(NODE i)(NODE l)(NODE e)(NODE )(NODE \n)(NODE \n)) |ET| 
1  |BT| (NODE (NODE (NODE _)(NODE a))(NODE t)(NODE (NODE _)(NODE a))(NODE b)(NODE o)(NODE u)(NODE t)(NODE _)(NODE \6)(NODE _)(NODE ,)(NODE _)(NODE \5)(NODE \0)(NODE \0)(NODE _)(NODE g)(NODE r)(NODE o)(NODE s)(NODE s)(NODE _)(NODE \n)) |ET| 
-0.8312461749336800265197666703898  |BT| (NODE (NODE c)(NODE a)(NODE l)(NODE l)(NODE _)(NODE n)(NODE u)(NODE m)(NODE b)(NODE e)(NODE r)(NODE _)(NODE :)(NODE _)(NODE \2)(NODE \3)(NODE \4)(NODE (NODE (NODE _)(NODE -)(NODE _))(NODE \8))(NODE \0)(NODE \2)(NODE (NODE _)(NODE -)(NODE _))(NODE \3)(NODE \0)(NODE \6)(NODE (NODE (NODE _)(NODE -)(NODE _))(NODE \8))(NODE \5)(NODE \0)(NODE \7)(NODE )(NODE \n)(NODE \n)) |ET| 
1  |BT| (NODE (NODE _)(NODE f)(NODE o)(NODE r)(NODE _)(NODE t)(NODE h)(NODE e)(NODE )(NODE \n)(NODE \n)) |ET| 
-0.20357473117418162233960288176604  |BT| (NODE (NODE \0)(NODE \2)(NODE (NODE _)(NODE /)(NODE _)(NODE \2))(NODE \7)(NODE (NODE _)(NODE /)(NODE _)(NODE \2))(NODE \0)(NODE \0)(NODE \3)(NODE )(NODE \n)(NODE \n)) |ET| 
1  |BT| (NODE (NODE c)(NODE (NODE i)(NODE n))(NODE e)(NODE r)(NODE g)(NODE y)(NODE _)(NODE r)(NODE (NODE e)(NODE s))(NODE o)(NODE u)(NODE r)(NODE c)(NODE (NODE e)(NODE s))(NODE _)(NODE (NODE i)(NODE n))(NODE c)(NODE _)(NODE \n)) |ET| 
-0.81105516418402523459718622689252  |BT| (NODE (NODE a)(NODE d)(NODE v)(NODE a)(NODE n)(NODE t)(NODE a)(NODE g)(NODE e)(NODE s)(NODE _)(NODE o)(NODE f)(NODE _)(NODE h)(NODE g)(NODE h)(NODE _)(NODE :)(NODE )(NODE \n)(NODE \n)) |ET| 
0.80554372394540285640118781884667  |BT| (NODE (NODE t)(NODE o)(NODE _)(NODE :)(NODE (NODE _)(NODE h)(NODE o))(NODE w)(NODE a)(NODE r)(NODE d)(NODE _)(NODE b)(NODE _)(NODE c)(NODE a)(NODE m)(NODE p)(NODE (NODE _)(NODE /))(NODE (NODE _)(NODE h)(NODE o))(NODE u)(NODE (NODE _)(NODE /))(NODE (NODE _)(NODE e)(NODE c)(NODE t))(NODE _)(NODE @)(NODE (NODE _)(NODE e)(NODE c)(NODE t))(NODE )(NODE \n)(NODE \n)) |ET| 
-0.83031278257393026365207333583385  |BT| (NODE (NODE _)(NODE q)(NODE u)(NODE i)(NODE t)(NODE (NODE e)(NODE _))(NODE a)(NODE _)(NODE d)(NODE i)(NODE f)(NODE f)(NODE e)(NODE r)(NODE e)(NODE n)(NODE c)(NODE (NODE e)(NODE _))(NODE ,)(NODE _)(NODE h)(NODE u)(NODE h)(NODE _)(NODE ?)(NODE )(NODE \n)(NODE \n)) |ET| 
1  |BT| (NODE (NODE \1)(NODE \2)(NODE (NODE _)(NODE /)(NODE _))(NODE (NODE \1)(NODE \0))(NODE (NODE _)(NODE /)(NODE _))(NODE \9)(NODE \9)(NODE _)(NODE (NODE \1)(NODE \0))(NODE _)(NODE :)(NODE _)(NODE \3)(NODE \8)(NODE _)(NODE a)(NODE m)(NODE )(NODE \n)(NODE \n)) |ET| 
-0.79490053788589909444795011950191  |BT| (NODE (NODE t)(NODE h)(NODE e)(NODE _)(NODE v)(NODE i)(NODE r)(NODE i)(NODE i)(NODE i)(NODE t)(NODE y)(NODE _)(NODE p)(NODE _)(NODE ;)(NODE _)(NODE a)(NODE t)(NODE c)(NODE h)(NODE _)(NODE r)(NODE _)(NODE \n)) |ET| 
1  |BT| (NODE (NODE S)(NODE u)(NODE b)(NODE j)(NODE e)(NODE c)(NODE t)(NODE :)(NODE _)(NODE c)(NODE a)(NODE l)(NODE p)(NODE (NODE i)(NODE n))(NODE e)(NODE _)(NODE d)(NODE a)(NODE i)(NODE l)(NODE y)(NODE _)(NODE g)(NODE a)(NODE s)(NODE _)(NODE n)(NODE o)(NODE m)(NODE (NODE i)(NODE n))(NODE a)(NODE t)(NODE i)(NODE o)(NODE n)(NODE )(NODE \n)(NODE \n)) |ET| 
-0.83778167337736320074981222205679  |BT| (NODE (NODE S)(NODE u)(NODE b)(NODE j)(NODE e)(NODE c)(NODE t)(NODE :)(NODE _)(NODE g)(NODE e)(NODE (NODE t)(NODE _))(NODE t)(NODE h)(NODE a)(NODE (NODE t)(NODE _))(NODE n)(NODE e)(NODE w)(NODE _)(NODE c)(NODE a)(NODE r)(NODE _)(NODE \8)(NODE \4)(NODE \3)(NODE \4)(NODE )(NODE \n)(NODE \n)) |ET| 
1  |BT| (NODE (NODE v)(NODE i)(NODE n)(NODE t)(NODE a)(NODE g)(NODE e)(NODE (NODE _)(NODE ,)(NODE _))(NODE t)(NODE e)(NODE j)(NODE o)(NODE n)(NODE e)(NODE s)(NODE (NODE _)(NODE ,)(NODE _))(NODE a)(NODE n)(NODE d)(NODE _)(NODE s)(NODE w)(NODE i)(NODE f)(NODE t)(NODE )(NODE \n)(NODE \n)) |ET| 
-0.79249290170481112571820858647698  |BT| (NODE (NODE s)(NODE u)(NODE f)(NODE f)(NODE e)(NODE r)(NODE _)(NODE f)(NODE r)(NODE o)(NODE m)(NODE _)(NODE h)(NODE a)(NODE i)(NODE r)(NODE l)(NODE (NODE o)(NODE s))(NODE s)(NODE c)(NODE h)(NODE (NODE o)(NODE s))(NODE e)(NODE )(NODE \n)(NODE \n)) |ET| 
1  |BT| (NODE (NODE t)(NODE o)(NODE _)(NODE :)(NODE _)(NODE l)(NODE a)(NODE u)(NODE r)(NODE i)(NODE (NODE _)(NODE a))(NODE (NODE _)(NODE a))(NODE l)(NODE l)(NODE e)(NODE n)(NODE (NODE _)(NODE /)(NODE _))(NODE h)(NODE o)(NODE u)(NODE (NODE _)(NODE /)(NODE _))(NODE (NODE e)(NODE c)(NODE t))(NODE _)(NODE @)(NODE _)(NODE (NODE e)(NODE c)(NODE t))(NODE )(NODE \n)(NODE \n)) |ET| 
-0.82635305744992837428952725531417  |BT| (NODE (NODE -)(NODE _)(NODE s)(NODE t)(NODE r)(NODE (NODE e)(NODE n))(NODE g)(NODE t)(NODE h)(NODE (NODE e)(NODE n))(NODE e)(NODE d)(NODE _)(NODE h)(NODE e)(NODE a)(NODE r)(NODE t)(NODE _)(NODE m)(NODE u)(NODE s)(NODE c)(NODE l)(NODE e)(NODE )(NODE \n)(NODE \n)) |ET| 
1  |BT| (NODE (NODE d)(NODE (NODE a)(NODE r))(NODE e)(NODE n)(NODE _)(NODE j)(NODE _)(NODE f)(NODE (NODE a)(NODE r))(NODE m)(NODE e)(NODE r)(NODE )(NODE \n)(NODE \n)) |ET| 
-0.80022062701706864196182777959621  |BT| (NODE (NODE _)(NODE v)(NODE r)(NODE (NODE o)(NODE o))(NODE (NODE o)(NODE o))(NODE m)(NODE _)(NODE !)(NODE )(NODE \n)(NODE \n)) |ET| 
1  |BT| (NODE (NODE i)(NODE (NODE _)(NODE a))(NODE l)(NODE s)(NODE o)(NODE (NODE _)(NODE s))(NODE e)(NODE e)(NODE _)(NODE g)(NODE a)(NODE s)(NODE (NODE _)(NODE s))(NODE c)(NODE h)(NODE (NODE e)(NODE d))(NODE u)(NODE l)(NODE (NODE e)(NODE d))(NODE _)(NODE i)(NODE n)(NODE _)(NODE p)(NODE o)(NODE p)(NODE s)(NODE (NODE _)(NODE a))(NODE t)(NODE _)(NODE m)(NODE e)(NODE t)(NODE e)(NODE r)(NODE (NODE _)(NODE \3)(NODE \4)(NODE \0))(NODE \4)(NODE (NODE _)(NODE a))(NODE n)(NODE d)(NODE (NODE _)(NODE \3)(NODE \4)(NODE \0))(NODE \5)(NODE _)(NODE \n)) |ET| 
-0.82856061671806890966962555467035  |BT| (NODE (NODE i)(NODE (NODE s)(NODE _))(NODE (NODE r)(NODE e))(NODE f)(NODE (NODE e)(NODE r))(NODE (NODE r)(NODE e))(NODE d)(NODE _)(NODE t)(NODE o)(NODE _)(NODE i)(NODE n)(NODE _)(NODE m)(NODE e)(NODE d)(NODE i)(NODE c)(NODE a)(NODE l)(NODE _)(NODE s)(NODE c)(NODE i)(NODE e)(NODE n)(NODE c)(NODE (NODE e)(NODE _))(NODE a)(NODE (NODE s)(NODE _))(NODE t)(NODE h)(NODE (NODE e)(NODE _))(NODE m)(NODE a)(NODE s)(NODE t)(NODE (NODE e)(NODE r))(NODE _)(NODE h)(NODE o)(NODE r)(NODE m)(NODE o)(NODE n)(NODE (NODE e)(NODE _))(NODE \n)) |ET| 
1  |BT| (NODE (NODE c)(NODE a)(NODE r)(NODE l)(NODE o)(NODE s)(NODE _)(NODE ,)(NODE )(NODE \n)(NODE \n)) |ET| 
-0.75670824947222359302401173408725  |BT| (NODE (NODE c)(NODE l)(NODE i)(NODE c)(NODE k)(NODE _)(NODE h)(NODE e)(NODE r)(NODE e)(NODE _)(NODE !)(NODE )(NODE \n)(NODE \n)) |ET| 
1  |BT| (NODE (NODE \1)(NODE (NODE \0)(NODE _))(NODE ,)(NODE _)(NODE \0)(NODE \0)(NODE (NODE \0)(NODE _))(NODE g)(NODE (NODE r)(NODE o))(NODE s)(NODE s)(NODE _)(NODE f)(NODE (NODE o)(NODE r))(NODE _)(NODE t)(NODE o)(NODE m)(NODE (NODE o)(NODE r))(NODE (NODE r)(NODE o))(NODE w)(NODE _)(NODE \n)) |ET| 
-0.81017505412371215722799888681038  |BT| (NODE (NODE _)(NODE ,)(NODE _)(NODE f)(NODE (NODE o)(NODE r))(NODE _)(NODE (NODE r)(NODE a)(NODE c))(NODE e)(NODE _)(NODE t)(NODE (NODE r)(NODE a)(NODE c))(NODE k)(NODE _)(NODE s)(NODE i)(NODE m)(NODE u)(NODE l)(NODE a)(NODE t)(NODE (NODE o)(NODE r))(NODE s)(NODE )(NODE \n)(NODE \n)) |ET| 
1  |BT| (NODE (NODE i)(NODE _)(NODE (NODE n)(NODE e))(NODE e)(NODE d)(NODE _)(NODE t)(NODE h)(NODE e)(NODE _)(NODE f)(NODE o)(NODE l)(NODE l)(NODE o)(NODE w)(NODE i)(NODE n)(NODE g)(NODE _)(NODE d)(NODE o)(NODE (NODE n)(NODE e))(NODE _)(NODE :)(NODE )(NODE \n)(NODE \n)) |ET| 
-0.8209976423105491694087731957552  |BT| (NODE (NODE -)(NODE _)(NODE i)(NODE n)(NODE c)(NODE (NODE r)(NODE e))(NODE a)(NODE s)(NODE e)(NODE d)(NODE _)(NODE m)(NODE u)(NODE s)(NODE c)(NODE l)(NODE e)(NODE _)(NODE s)(NODE t)(NODE (NODE r)(NODE e))(NODE n)(NODE g)(NODE t)(NODE h)(NODE )(NODE \n)(NODE \n)) |ET| 
1  |BT| (NODE (NODE e)(NODE n)(NODE r)(NODE o)(NODE n)(NODE _)(NODE n)(NODE (NODE o)(NODE r))(NODE t)(NODE h)(NODE _)(NODE a)(NODE m)(NODE e)(NODE r)(NODE i)(NODE c)(NODE a)(NODE _)(NODE c)(NODE (NODE o)(NODE r))(NODE p)(NODE _)(NODE \n)) |ET| 
-0.76477916403653667387629866425414  |BT| (NODE (NODE a)(NODE n)(NODE d)(NODE _)(NODE f)(NODE a)(NODE t)(NODE s)(NODE r)(NODE h)(NODE o)(NODE m)(NODE b)(NODE u)(NODE s)(NODE )(NODE \n)(NODE \n)) |ET| 
1  |BT| (NODE (NODE c)(NODE c)(NODE _)(NODE :)(NODE (NODE _)(NODE m))(NODE a)(NODE r)(NODE y)(NODE (NODE _)(NODE m))(NODE _)(NODE s)(NODE m)(NODE i)(NODE t)(NODE h)(NODE (NODE _)(NODE /)(NODE _))(NODE h)(NODE o)(NODE u)(NODE (NODE _)(NODE /)(NODE _))(NODE (NODE e)(NODE c)(NODE t))(NODE _)(NODE @)(NODE _)(NODE (NODE e)(NODE c)(NODE t))(NODE )(NODE \n)(NODE \n)) |ET| 
-0.83921312801647296453211311018094  |BT| (NODE (NODE i)(NODE (NODE n)(NODE t))(NODE (NODE e)(NODE l))(NODE (NODE l)(NODE i))(NODE g)(NODE (NODE e)(NODE (NODE n)(NODE t))(NODE _))(NODE (NODE s)(NODE t))(NODE o)(NODE (NODE c)(NODE k))(NODE (NODE _)(NODE p))(NODE i)(NODE (NODE c)(NODE k))(NODE (NODE s)(NODE _))(NODE ,)(NODE (NODE _)(NODE a))(NODE n)(NODE d)(NODE (NODE _)(NODE a))(NODE f)(NODE f)(NODE i)(NODE (NODE l)(NODE i))(NODE (NODE a)(NODE t))(NODE (NODE e)(NODE (NODE s)(NODE _)))(NODE \()(NODE (NODE (NODE _)(NODE i))(NODE s)(NODE p)(NODE _))(NODE \)) |ET| 
1  |BT| (NODE (NODE t)(NODE o)(NODE _)(NODE d)(NODE e)(NODE l)(NODE i)(NODE v)(NODE e)(NODE r)(NODE _)(NODE t)(NODE h)(NODE i)(NODE (NODE s)(NODE _))(NODE g)(NODE a)(NODE (NODE s)(NODE _))(NODE \n)) |ET| 
-0.82974624605900004770120403918554  |BT| (NODE (NODE -)(NODE _)(NODE i)(NODE (NODE n)(NODE c))(NODE r)(NODE e)(NODE a)(NODE (NODE s)(NODE e))(NODE d)(NODE _)(NODE (NODE s)(NODE e))(NODE x)(NODE u)(NODE a)(NODE l)(NODE _)(NODE p)(NODE o)(NODE t)(NODE e)(NODE (NODE n)(NODE c))(NODE y)(NODE )(NODE \n)(NODE \n)) |ET| 
1  |BT| (NODE (NODE c)(NODE c)(NODE _)(NODE :)(NODE (NODE _)(NODE h)(NODE o))(NODE w)(NODE (NODE a)(NODE r))(NODE d)(NODE _)(NODE b)(NODE _)(NODE c)(NODE a)(NODE m)(NODE p)(NODE (NODE (NODE _)(NODE /))(NODE (NODE _)(NODE h)(NODE o))(NODE u)(NODE (NODE _)(NODE /))(NODE (NODE (NODE _)(NODE e)(NODE c)(NODE t))(NODE _))(NODE @))(NODE (NODE (NODE _)(NODE e)(NODE c)(NODE t))(NODE _))(NODE ,)(NODE (NODE _)(NODE m))(NODE (NODE a)(NODE r))(NODE y)(NODE (NODE _)(NODE m))(NODE _)(NODE s)(NODE m)(NODE i)(NODE t)(NODE h)(NODE (NODE (NODE _)(NODE /))(NODE (NODE _)(NODE h)(NODE o))(NODE u)(NODE (NODE _)(NODE /))(NODE (NODE (NODE _)(NODE e)(NODE c)(NODE t))(NODE _))(NODE @))(NODE (NODE _)(NODE e)(NODE c)(NODE t))(NODE )(NODE \n)(NODE \n)) |ET| 
-0.81503244902777738367660731455544  |BT| (NODE (NODE t)(NODE o)(NODE _)(NODE \_)(NODE _)(NODE g)(NODE e)(NODE t)(NODE (NODE _)(NODE o))(NODE f)(NODE f)(NODE (NODE _)(NODE o))(NODE u)(NODE (NODE r)(NODE _))(NODE l)(NODE i)(NODE s)(NODE t)(NODE (NODE r)(NODE _))(NODE ;)(NODE _)(NODE i)(NODE g)(NODE h)(NODE t)(NODE _)(NODE h)(NODE e)(NODE r)(NODE e)(NODE _)(NODE \n)) |ET| 
1  |BT| (NODE (NODE t)(NODE o)(NODE _)(NODE :)(NODE _)(NODE (NODE g)(NODE e))(NODE o)(NODE r)(NODE (NODE g)(NODE e))(NODE _)(NODE w)(NODE e)(NODE i)(NODE s)(NODE s)(NODE m)(NODE a)(NODE n)(NODE (NODE _)(NODE /)(NODE _))(NODE h)(NODE o)(NODE u)(NODE (NODE _)(NODE /)(NODE _))(NODE (NODE e)(NODE c)(NODE t))(NODE _)(NODE @)(NODE _)(NODE (NODE e)(NODE c)(NODE t))(NODE )(NODE \n)(NODE \n)) |ET| 
-0.82619819545151773620972335265833  |BT| (NODE (NODE n)(NODE o)(NODE (NODE _)(NODE t))(NODE h)(NODE a)(NODE n)(NODE k)(NODE s)(NODE _)(NODE ,)(NODE _)(NODE p)(NODE l)(NODE e)(NODE a)(NODE s)(NODE e)(NODE (NODE _)(NODE t))(NODE a)(NODE k)(NODE (NODE e)(NODE _))(NODE m)(NODE (NODE e)(NODE _))(NODE o)(NODE f)(NODE f)(NODE _)(NODE y)(NODE o)(NODE u)(NODE r)(NODE _)(NODE l)(NODE i)(NODE s)(NODE t)(NODE )(NODE \n)(NODE \n)) |ET| 
1  |BT| (NODE (NODE k)(NODE (NODE i)(NODE n)(NODE g))(NODE (NODE _)(NODE r))(NODE a)(NODE n)(NODE c)(NODE h)(NODE _)(NODE i)(NODE s)(NODE (NODE _)(NODE r))(NODE e)(NODE _)(NODE -)(NODE _)(NODE d)(NODE e)(NODE l)(NODE i)(NODE v)(NODE e)(NODE r)(NODE (NODE i)(NODE n)(NODE g))(NODE _)(NODE (NODE t)(NODE o))(NODE _)(NODE s)(NODE t)(NODE r)(NODE a)(NODE t)(NODE (NODE t)(NODE o))(NODE n)(NODE _)(NODE \n)) |ET| 
-0.82860773003917920220828818855807  |BT| (NODE (NODE (NODE d)(NODE o))(NODE n)(NODE (NODE t)(NODE _))(NODE w)(NODE a)(NODE s)(NODE t)(NODE (NODE e)(NODE _))(NODE y)(NODE o)(NODE u)(NODE r)(NODE _)(NODE t)(NODE i)(NODE m)(NODE (NODE e)(NODE _))(NODE a)(NODE (NODE t)(NODE _))(NODE t)(NODE h)(NODE (NODE e)(NODE _))(NODE (NODE d)(NODE o))(NODE c)(NODE t)(NODE o)(NODE r)(NODE s)(NODE _)(NODE o)(NODE f)(NODE f)(NODE i)(NODE c)(NODE (NODE e)(NODE _))(NODE !)(NODE )(NODE \n)(NODE \n)) |ET| 
1  |BT| (NODE (NODE s)(NODE h)(NODE o)(NODE u)(NODE l)(NODE (NODE d)(NODE _))(NODE h)(NODE a)(NODE v)(NODE e)(NODE _)(NODE b)(NODE e)(NODE e)(NODE n)(NODE _)(NODE r)(NODE e)(NODE a)(NODE s)(NODE s)(NODE i)(NODE g)(NODE n)(NODE e)(NODE (NODE d)(NODE _))(NODE t)(NODE o)(NODE _)(NODE h)(NODE p)(NODE l)(NODE c)(NODE _)(NODE \n)) |ET| 
-0.82703813736616105245502694742754  |BT| (NODE (NODE p)(NODE a)(NODE y)(NODE _)(NODE l)(NODE e)(NODE s)(NODE (NODE s)(NODE _))(NODE (NODE f)(NODE o)(NODE (NODE r)(NODE _))(NODE y)(NODE o)(NODE u)(NODE (NODE r)(NODE _)))(NODE d)(NODE r)(NODE u)(NODE g)(NODE (NODE s)(NODE _))(NODE g)(NODE e)(NODE t)(NODE _)(NODE m)(NODE o)(NODE r)(NODE e)(NODE _)(NODE (NODE f)(NODE o)(NODE (NODE r)(NODE _))(NODE y)(NODE o)(NODE u)(NODE (NODE r)(NODE _)))(NODE (NODE $)(NODE _))(NODE (NODE $)(NODE _))(NODE (NODE $)(NODE _))(NODE !)(NODE )(NODE \n)(NODE \n)) |ET| 
1  |BT| (NODE (NODE f)(NODE r)(NODE o)(NODE m)(NODE (NODE _)(NODE :))(NODE (NODE _)(NODE s))(NODE h)(NODE e)(NODE r)(NODE l)(NODE y)(NODE n)(NODE (NODE _)(NODE s))(NODE c)(NODE h)(NODE u)(NODE m)(NODE a)(NODE c)(NODE k)(NODE (NODE _)(NODE \1))(NODE \2)(NODE (NODE _)(NODE /))(NODE (NODE _)(NODE \1))(NODE \3)(NODE (NODE _)(NODE /))(NODE _)(NODE \9)(NODE \9)(NODE _)(NODE \0)(NODE \1)(NODE (NODE _)(NODE :))(NODE (NODE _)(NODE \1))(NODE \4)(NODE _)(NODE p)(NODE m)(NODE )(NODE \n)(NODE \n)) |ET| 
-0.73521781557833043585503673966741  |BT| (NODE (NODE \6)(NODE \0)(NODE _)(NODE m)(NODE i)(NODE n)(NODE u)(NODE t)(NODE e)(NODE s)(NODE _)(NODE !)(NODE _)(NODE e)(NODE l)(NODE o)(NODE q)(NODE u)(NODE e)(NODE n)(NODE t)(NODE )(NODE \n)(NODE \n)) |ET| 
-0.7941918405979782047410253653652  |BT| (NODE (NODE -)(NODE _)(NODE i)(NODE n)(NODE c)(NODE r)(NODE e)(NODE a)(NODE s)(NODE e)(NODE d)(NODE _)(NODE e)(NODE n)(NODE e)(NODE r)(NODE g)(NODE y)(NODE _)(NODE l)(NODE e)(NODE v)(NODE e)(NODE l)(NODE s)(NODE )(NODE \n)(NODE \n)) |ET| 
1  |BT| (NODE (NODE f)(NODE r)(NODE o)(NODE m)(NODE (NODE _)(NODE :)(NODE _))(NODE a)(NODE n)(NODE t)(NODE o)(NODE i)(NODE n)(NODE (NODE e)(NODE _))(NODE v)(NODE (NODE _)(NODE p))(NODE i)(NODE e)(NODE r)(NODE r)(NODE (NODE e)(NODE _))(NODE \1)(NODE \2)(NODE (NODE _)(NODE /)(NODE _))(NODE \1)(NODE \4)(NODE (NODE _)(NODE /)(NODE _))(NODE \9)(NODE \9)(NODE _)(NODE \0)(NODE \2)(NODE (NODE _)(NODE :)(NODE _))(NODE \3)(NODE \4)(NODE (NODE _)(NODE p))(NODE m)(NODE )(NODE \n)(NODE \n)) |ET| 
-0.80855182207086540024931764492067  |BT| (NODE (NODE w)(NODE (NODE e)(NODE _))(NODE c)(NODE u)(NODE r)(NODE r)(NODE e)(NODE n)(NODE t)(NODE l)(NODE y)(NODE _)(NODE h)(NODE a)(NODE v)(NODE (NODE e)(NODE _))(NODE s)(NODE p)(NODE e)(NODE c)(NODE i)(NODE a)(NODE l)(NODE s)(NODE )(NODE \n)(NODE \n)) |ET| 
1  |BT| (NODE (NODE (NODE n)(NODE o))(NODE (NODE t)(NODE _))(NODE b)(NODE e)(NODE (NODE (NODE i)(NODE n))(NODE g)(NODE _))(NODE (NODE n)(NODE o))(NODE m)(NODE (NODE i)(NODE n))(NODE a)(NODE t)(NODE e)(NODE d)(NODE _)(NODE f)(NODE (NODE r)(NODE o))(NODE m)(NODE _)(NODE a)(NODE _)(NODE p)(NODE (NODE r)(NODE o))(NODE c)(NODE e)(NODE s)(NODE s)(NODE (NODE (NODE i)(NODE n))(NODE g)(NODE _))(NODE a)(NODE g)(NODE r)(NODE e)(NODE e)(NODE m)(NODE e)(NODE n)(NODE (NODE t)(NODE _))(NODE \n)) |ET| 
-0.828222650631177059743492918642  |BT| (NODE (NODE c)(NODE o)(NODE m)(NODE e)(NODE (NODE s)(NODE (NODE _)(NODE w)))(NODE i)(NODE (NODE t)(NODE h))(NODE _)(NODE (NODE t)(NODE h))(NODE e)(NODE _)(NODE \1)(NODE \0)(NODE \0)(NODE _)(NODE %)(NODE _)(NODE m)(NODE o)(NODE n)(NODE e)(NODE (NODE y)(NODE _))(NODE b)(NODE a)(NODE c)(NODE k)(NODE (NODE _)(NODE w))(NODE a)(NODE r)(NODE r)(NODE a)(NODE n)(NODE t)(NODE (NODE y)(NODE _))(NODE a)(NODE (NODE s)(NODE (NODE _)(NODE w)))(NODE e)(NODE l)(NODE l)(NODE _)(NODE !)(NODE )(NODE \n)(NODE \n)) |ET| 
1  |BT| (NODE (NODE _)(NODE v)(NODE a)(NODE s)(NODE t)(NODE a)(NODE r)(NODE (NODE _)(NODE o))(NODE w)(NODE n)(NODE (NODE s)(NODE _))(NODE \6)(NODE \8)(NODE _)(NODE %)(NODE (NODE _)(NODE o))(NODE f)(NODE _)(NODE t)(NODE h)(NODE e)(NODE _)(NODE g)(NODE (NODE r)(NODE o))(NODE s)(NODE (NODE s)(NODE _))(NODE p)(NODE (NODE r)(NODE o))(NODE d)(NODE u)(NODE c)(NODE t)(NODE i)(NODE o)(NODE n)(NODE _)(NODE \n)) |ET| 
-0.82840345746164723017557207640493  |BT| (NODE (NODE t)(NODE o)(NODE _)(NODE e)(NODE x)(NODE (NODE i)(NODE t))(NODE (NODE _)(NODE a))(NODE l)(NODE l)(NODE (NODE _)(NODE a))(NODE d)(NODE d)(NODE (NODE i)(NODE t))(NODE i)(NODE o)(NODE n)(NODE a)(NODE l)(NODE _)(NODE m)(NODE a)(NODE i)(NODE l)(NODE i)(NODE n)(NODE g)(NODE s)(NODE (NODE _)(NODE -))(NODE (NODE _)(NODE -))(NODE (NODE _)(NODE -))(NODE _)(NODE >)(NODE )(NODE \n)(NODE \n)) |ET| 
1  |BT| (NODE (NODE _)(NODE v)(NODE o)(NODE l)(NODE u)(NODE m)(NODE e)(NODE _)(NODE o)(NODE n)(NODE _)(NODE d)(NODE e)(NODE a)(NODE l)(NODE _)(NODE \1)(NODE \1)(NODE \4)(NODE \4)(NODE \2)(NODE \7)(NODE _)(NODE e)(NODE x)(NODE p)(NODE i)(NODE r)(NODE e)(NODE d)(NODE _)(NODE \4)(NODE _)(NODE /)(NODE _)(NODE \9)(NODE \9)(NODE _)(NODE \n)) |ET| 
-0.82882196698778132226692605399876  |BT| (NODE (NODE a)(NODE (NODE (NODE t)(NODE _))(NODE t)(NODE h)(NODE e))(NODE (NODE _)(NODE m)(NODE o))(NODE (NODE m)(NODE e))(NODE n)(NODE (NODE (NODE t)(NODE _))(NODE t)(NODE h)(NODE e))(NODE (NODE m)(NODE e))(NODE _)(NODE i)(NODE (NODE s)(NODE _))(NODE p)(NODE (NODE l)(NODE e))(NODE a)(NODE s)(NODE (NODE a)(NODE n))(NODE (NODE t)(NODE _))(NODE (NODE a)(NODE n))(NODE d)(NODE (NODE _)(NODE m)(NODE o))(NODE s)(NODE (NODE t)(NODE _))(NODE e)(NODE x)(NODE c)(NODE e)(NODE l)(NODE (NODE l)(NODE e))(NODE n)(NODE (NODE t)(NODE _))(NODE c)(NODE a)(NODE r)(NODE (NODE s)(NODE _))(NODE !)(NODE )(NODE \n)(NODE \n)) |ET| 
1  |BT| (NODE (NODE s)(NODE c)(NODE (NODE h)(NODE o))(NODE t)(NODE t)(NODE (NODE (NODE _)(NODE /)(NODE _))(NODE (NODE h)(NODE o))(NODE u)(NODE (NODE _)(NODE /)(NODE _))(NODE (NODE (NODE e)(NODE c)(NODE t))(NODE _))(NODE @)(NODE _))(NODE (NODE (NODE e)(NODE c)(NODE t))(NODE _))(NODE ,)(NODE _)(NODE b)(NODE e)(NODE r)(NODE n)(NODE i)(NODE c)(NODE e)(NODE _)(NODE r)(NODE o)(NODE d)(NODE r)(NODE i)(NODE g)(NODE u)(NODE e)(NODE z)(NODE (NODE (NODE _)(NODE /)(NODE _))(NODE (NODE h)(NODE o))(NODE u)(NODE (NODE _)(NODE /)(NODE _))(NODE (NODE (NODE e)(NODE c)(NODE t))(NODE _))(NODE @)(NODE _))(NODE (NODE e)(NODE c)(NODE t))(NODE )(NODE \n)(NODE \n)) |ET| 
-0.82926647290059440909004706554697  |BT| (NODE (NODE (NODE _)(NODE r))(NODE (NODE e)(NODE n))(NODE e)(NODE w)(NODE _)(NODE l)(NODE i)(NODE c)(NODE (NODE e)(NODE n))(NODE (NODE s)(NODE i))(NODE n)(NODE g)(NODE _)(NODE a)(NODE g)(NODE r)(NODE e)(NODE e)(NODE m)(NODE (NODE e)(NODE n))(NODE t)(NODE _)(NODE f)(NODE (NODE o)(NODE r))(NODE (NODE _)(NODE r))(NODE (NODE a)(NODE c))(NODE e)(NODE _)(NODE t)(NODE r)(NODE (NODE a)(NODE c))(NODE k)(NODE _)(NODE (NODE s)(NODE i))(NODE m)(NODE u)(NODE l)(NODE a)(NODE t)(NODE (NODE o)(NODE r))(NODE s)(NODE )(NODE \n)(NODE \n)) |ET| 
1  |BT| (NODE (NODE f)(NODE r)(NODE o)(NODE m)(NODE (NODE _)(NODE :))(NODE (NODE _)(NODE s))(NODE h)(NODE e)(NODE r)(NODE l)(NODE y)(NODE n)(NODE (NODE _)(NODE s))(NODE c)(NODE h)(NODE u)(NODE m)(NODE a)(NODE c)(NODE k)(NODE _)(NODE o)(NODE n)(NODE (NODE _)(NODE \1))(NODE \2)(NODE (NODE _)(NODE /))(NODE (NODE _)(NODE \1))(NODE \4)(NODE (NODE _)(NODE /))(NODE _)(NODE \9)(NODE \9)(NODE (NODE _)(NODE \1))(NODE \0)(NODE (NODE _)(NODE :))(NODE _)(NODE \0)(NODE \6)(NODE _)(NODE a)(NODE m)(NODE )(NODE \n)(NODE \n)) |ET| 
-0.82493070073596042046659704283229  |BT| (NODE (NODE S)(NODE u)(NODE b)(NODE j)(NODE e)(NODE c)(NODE t)(NODE (NODE :)(NODE _)(NODE r))(NODE (NODE e)(NODE _))(NODE (NODE :)(NODE _)(NODE r))(NODE d)(NODE d)(NODE _)(NODE ,)(NODE _)(NODE t)(NODE h)(NODE (NODE e)(NODE _))(NODE a)(NODE u)(NODE x)(NODE i)(NODE l)(NODE i)(NODE a)(NODE r)(NODE y)(NODE _)(NODE i)(NODE t)(NODE u)(NODE r)(NODE e)(NODE a)(NODE n)(NODE )(NODE \n)(NODE \n)) |ET| 
1  |BT| (NODE (NODE _)(NODE v)(NODE a)(NODE s)(NODE t)(NODE a)(NODE r)(NODE _)(NODE n)(NODE o)(NODE w)(NODE _)(NODE e)(NODE x)(NODE p)(NODE e)(NODE (NODE c)(NODE t))(NODE s)(NODE (NODE _)(NODE t))(NODE h)(NODE (NODE e)(NODE _))(NODE w)(NODE e)(NODE l)(NODE l)(NODE (NODE _)(NODE t))(NODE o)(NODE _)(NODE c)(NODE (NODE o)(NODE m))(NODE (NODE m)(NODE e))(NODE n)(NODE c)(NODE (NODE e)(NODE _))(NODE p)(NODE r)(NODE o)(NODE d)(NODE u)(NODE (NODE c)(NODE t))(NODE i)(NODE o)(NODE n)(NODE _)(NODE s)(NODE (NODE o)(NODE m))(NODE e)(NODE t)(NODE i)(NODE (NODE m)(NODE e))(NODE )(NODE \n)(NODE \n)) |ET| 
-0.8277860555400522457603074144572  |BT| (NODE (NODE l)(NODE i)(NODE m)(NODE i)(NODE t)(NODE e)(NODE (NODE d)(NODE _))(NODE o)(NODE f)(NODE f)(NODE e)(NODE (NODE r)(NODE _))(NODE :)(NODE _)(NODE a)(NODE d)(NODE (NODE d)(NODE _))(NODE a)(NODE (NODE t)(NODE _))(NODE l)(NODE e)(NODE a)(NODE s)(NODE (NODE t)(NODE _))(NODE \3)(NODE _)(NODE i)(NODE n)(NODE c)(NODE h)(NODE e)(NODE s)(NODE _)(NODE o)(NODE (NODE r)(NODE _))(NODE g)(NODE e)(NODE (NODE t)(NODE _))(NODE y)(NODE o)(NODE u)(NODE (NODE r)(NODE _))(NODE m)(NODE o)(NODE n)(NODE e)(NODE y)(NODE _)(NODE b)(NODE a)(NODE c)(NODE k)(NODE _)(NODE !)(NODE )(NODE \n)(NODE \n)) |ET| 
1  |BT| (NODE (NODE (NODE _)(NODE i))(NODE t)(NODE (NODE _)(NODE i))(NODE s)(NODE _)(NODE a)(NODE l)(NODE s)(NODE o)(NODE _)(NODE m)(NODE y)(NODE _)(NODE u)(NODE (NODE n)(NODE d))(NODE e)(NODE r)(NODE s)(NODE t)(NODE a)(NODE (NODE n)(NODE d))(NODE i)(NODE n)(NODE g)(NODE _)(NODE t)(NODE h)(NODE a)(NODE t)(NODE )(NODE \n)(NODE \n)) |ET| 
-0.81513556387259944457923666050192  |BT| (NODE (NODE -)(NODE _)(NODE r)(NODE (NODE e)(NODE s))(NODE i)(NODE s)(NODE t)(NODE a)(NODE n)(NODE c)(NODE e)(NODE _)(NODE t)(NODE o)(NODE _)(NODE c)(NODE o)(NODE m)(NODE m)(NODE o)(NODE n)(NODE _)(NODE i)(NODE l)(NODE l)(NODE n)(NODE (NODE e)(NODE s))(NODE s)(NODE )(NODE \n)(NODE \n)) |ET| 
1  |BT| (NODE (NODE m)(NODE i)(NODE c)(NODE h)(NODE a)(NODE e)(NODE l)(NODE (NODE _)(NODE e))(NODE i)(NODE b)(NODE e)(NODE n)(NODE (NODE (NODE _)(NODE /)(NODE _))(NODE h)(NODE o)(NODE u)(NODE (NODE _)(NODE /)(NODE _))(NODE e)(NODE (NODE c)(NODE t)(NODE _))(NODE @)(NODE (NODE _)(NODE e))(NODE (NODE c)(NODE t)(NODE _))(NODE ,))(NODE (NODE _)(NODE c))(NODE l)(NODE e)(NODE m)(NODE (NODE _)(NODE c))(NODE e)(NODE r)(NODE n)(NODE o)(NODE s)(NODE e)(NODE k)(NODE (NODE (NODE _)(NODE /)(NODE _))(NODE h)(NODE o)(NODE u)(NODE (NODE _)(NODE /)(NODE _))(NODE e)(NODE (NODE c)(NODE t)(NODE _))(NODE @)(NODE (NODE _)(NODE e))(NODE (NODE c)(NODE t)(NODE _))(NODE ,))(NODE _)(NODE s)(NODE c)(NODE o)(NODE t)(NODE t)(NODE y)(NODE )(NODE \n)(NODE \n)) |ET| 
-0.8278847991155220409353887589532  |BT| (NODE (NODE _)(NODE b)(NODE y)(NODE (NODE _)(NODE t))(NODE h)(NODE e)(NODE (NODE _)(NODE t))(NODE i)(NODE m)(NODE (NODE e)(NODE _))(NODE w)(NODE (NODE e)(NODE _))(NODE (NODE a)(NODE r))(NODE (NODE e)(NODE _))(NODE f)(NODE o)(NODE r)(NODE t)(NODE (NODE y)(NODE _))(NODE (NODE n)(NODE e))(NODE (NODE a)(NODE r))(NODE l)(NODE (NODE y)(NODE _))(NODE e)(NODE v)(NODE e)(NODE r)(NODE y)(NODE o)(NODE (NODE n)(NODE e))(NODE (NODE _)(NODE i))(NODE s)(NODE _)(NODE d)(NODE e)(NODE f)(NODE i)(NODE c)(NODE i)(NODE e)(NODE n)(NODE t)(NODE (NODE _)(NODE i))(NODE n)(NODE _)(NODE h)(NODE g)(NODE h)(NODE _)(NODE ,)(NODE )(NODE \n)(NODE \n)) |ET| 
1  |BT| (NODE (NODE c)(NODE a)(NODE n)(NODE _)(NODE s)(NODE (NODE e)(NODE n))(NODE d)(NODE _)(NODE o)(NODE u)(NODE t)(NODE _)(NODE p)(NODE a)(NODE y)(NODE m)(NODE (NODE e)(NODE n))(NODE t)(NODE s)(NODE _)(NODE \n)) |ET| 
-0.62367757531194922826500715018483  |BT| (NODE (NODE _)(NODE s)(NODE p)(NODE e)(NODE e)(NODE d)(NODE w)(NODE a)(NODE y)(NODE _)(NODE c)(NODE o)(NODE r)(NODE p)(NODE _)(NODE \n)) |ET| 
1  |BT| (NODE (NODE g)(NODE i)(NODE l)(NODE b)(NODE e)(NODE r)(NODE t)(NODE (NODE (NODE (NODE _)(NODE /)(NODE _))(NODE h)(NODE o)(NODE u)(NODE (NODE _)(NODE /)(NODE _))(NODE (NODE e)(NODE c)(NODE t)(NODE _))(NODE @)(NODE _)(NODE (NODE e)(NODE c)(NODE t)(NODE _))(NODE ,))(NODE _)(NODE d)(NODE a)(NODE v))(NODE e)(NODE _)(NODE n)(NODE o)(NODE m)(NODE m)(NODE (NODE e)(NODE n))(NODE s)(NODE (NODE e)(NODE n))(NODE (NODE (NODE (NODE _)(NODE /)(NODE _))(NODE h)(NODE o)(NODE u)(NODE (NODE _)(NODE /)(NODE _))(NODE (NODE e)(NODE c)(NODE t)(NODE _))(NODE @)(NODE _)(NODE (NODE e)(NODE c)(NODE t)(NODE _))(NODE ,))(NODE _)(NODE d)(NODE a)(NODE v))(NODE i)(NODE d)(NODE _)(NODE r)(NODE o)(NODE h)(NODE a)(NODE n)(NODE (NODE (NODE _)(NODE /)(NODE _))(NODE h)(NODE o)(NODE u)(NODE (NODE _)(NODE /)(NODE _))(NODE (NODE e)(NODE c)(NODE t)(NODE _))(NODE @)(NODE _)(NODE (NODE e)(NODE c)(NODE t)(NODE _))(NODE ,))(NODE )(NODE \n)(NODE \n)) |ET| 
-0.82904524180223382323617897782242  |BT| (NODE (NODE S)(NODE u)(NODE b)(NODE j)(NODE e)(NODE c)(NODE t)(NODE :)(NODE (NODE _)(NODE c)(NODE o))(NODE (NODE c)(NODE a))(NODE (NODE _)(NODE c)(NODE o))(NODE l)(NODE (NODE a)(NODE _))(NODE (NODE ,)(NODE _))(NODE m)(NODE b)(NODE n)(NODE (NODE a)(NODE _))(NODE a)(NODE m)(NODE (NODE e)(NODE r))(NODE i)(NODE (NODE c)(NODE a))(NODE _)(NODE (NODE ,)(NODE _))(NODE n)(NODE a)(NODE s)(NODE (NODE c)(NODE a))(NODE r)(NODE _)(NODE p)(NODE a)(NODE r)(NODE t)(NODE n)(NODE (NODE e)(NODE r))(NODE _)(NODE w)(NODE i)(NODE t)(NODE h)(NODE _)(NODE o)(NODE t)(NODE c)(NODE b)(NODE b)(NODE _)(NODE :)(NODE _)(NODE i)(NODE m)(NODE t)(NODE s)(NODE )(NODE \n)(NODE \n)) |ET| 
0.9745705718741743961430756826303  |BT| (NODE (NODE (NODE g)(NODE e))(NODE o)(NODE r)(NODE (NODE g)(NODE e))(NODE _)(NODE x)(NODE _)(NODE \3)(NODE _)(NODE -)(NODE _)(NODE \6)(NODE \9)(NODE \9)(NODE \2)(NODE )(NODE \n)(NODE \n)) |ET| 
-0.83224386142914152930671889407677  |BT| (NODE (NODE d)(NODE i)(NODE s)(NODE c)(NODE l)(NODE a)(NODE i)(NODE m)(NODE e)(NODE r)(NODE _)(NODE :)(NODE _)(NODE p)(NODE l)(NODE (NODE e)(NODE a))(NODE s)(NODE e)(NODE _)(NODE r)(NODE (NODE e)(NODE a))(NODE d)(NODE (NODE (NODE _)(NODE *))(NODE (NODE _)(NODE *)))(NODE (NODE (NODE _)(NODE *))(NODE (NODE _)(NODE *)))(NODE (NODE (NODE _)(NODE *))(NODE (NODE _)(NODE *)))(NODE (NODE _)(NODE *))(NODE )(NODE \n)(NODE \n)) |ET| 
1  |BT| (NODE (NODE c)(NODE c)(NODE _)(NODE :)(NODE (NODE _)(NODE m))(NODE a)(NODE r)(NODE y)(NODE (NODE _)(NODE g))(NODE (NODE _)(NODE g))(NODE o)(NODE s)(NODE n)(NODE (NODE e)(NODE l))(NODE l)(NODE (NODE (NODE _)(NODE /)(NODE _))(NODE h)(NODE o)(NODE u)(NODE (NODE _)(NODE /)(NODE _))(NODE (NODE e)(NODE c)(NODE t)(NODE _))(NODE @)(NODE _)(NODE (NODE e)(NODE c)(NODE t)(NODE _))(NODE ,)(NODE _))(NODE j)(NODE a)(NODE s)(NODE o)(NODE n)(NODE (NODE _)(NODE m))(NODE o)(NODE o)(NODE r)(NODE e)(NODE (NODE (NODE _)(NODE /)(NODE _))(NODE h)(NODE o)(NODE u)(NODE (NODE _)(NODE /)(NODE _))(NODE (NODE e)(NODE c)(NODE t)(NODE _))(NODE @)(NODE _)(NODE (NODE e)(NODE c)(NODE t)(NODE _))(NODE ,)(NODE _))(NODE s)(NODE a)(NODE m)(NODE u)(NODE (NODE e)(NODE l))(NODE )(NODE \n)(NODE \n)) |ET| 
-0.83076899138765636365633326931857  |BT| (NODE (NODE -)(NODE _)(NODE (NODE i)(NODE n))(NODE c)(NODE (NODE r)(NODE e))(NODE a)(NODE s)(NODE e)(NODE d)(NODE _)(NODE s)(NODE k)(NODE (NODE i)(NODE n))(NODE (NODE _)(NODE t))(NODE h)(NODE i)(NODE c)(NODE k)(NODE n)(NODE e)(NODE s)(NODE s)(NODE (NODE _)(NODE t))(NODE e)(NODE x)(NODE t)(NODE u)(NODE (NODE r)(NODE e))(NODE )(NODE \n)(NODE \n)) |ET| 
1  |BT| (NODE (NODE c)(NODE c)(NODE _)(NODE :)(NODE (NODE _)(NODE s))(NODE h)(NODE e)(NODE r)(NODE l)(NODE y)(NODE n)(NODE (NODE _)(NODE s))(NODE c)(NODE h)(NODE u)(NODE m)(NODE (NODE a)(NODE c))(NODE k)(NODE (NODE (NODE _)(NODE /)(NODE _))(NODE (NODE h)(NODE o))(NODE u)(NODE (NODE _)(NODE /)(NODE _))(NODE (NODE e)(NODE c)(NODE t)(NODE _))(NODE @)(NODE _)(NODE (NODE e)(NODE c)(NODE t)(NODE _))(NODE ,)(NODE _))(NODE (NODE h)(NODE o))(NODE w)(NODE a)(NODE r)(NODE d)(NODE _)(NODE b)(NODE _)(NODE c)(NODE a)(NODE m)(NODE p)(NODE (NODE (NODE _)(NODE /)(NODE _))(NODE (NODE h)(NODE o))(NODE u)(NODE (NODE _)(NODE /)(NODE _))(NODE (NODE e)(NODE c)(NODE t)(NODE _))(NODE @)(NODE _)(NODE (NODE e)(NODE c)(NODE t)(NODE _))(NODE ,)(NODE _))(NODE s)(NODE t)(NODE (NODE a)(NODE c))(NODE e)(NODE y)(NODE )(NODE \n)(NODE \n)) |ET| 
-0.82813932543221613347128595705726  |BT| (NODE (NODE (NODE _)(NODE (NODE i)(NODE s)))(NODE p)(NODE (NODE _)(NODE (NODE i)(NODE s)))(NODE _)(NODE n)(NODE o)(NODE (NODE t)(NODE _)(NODE a))(NODE _)(NODE (NODE r)(NODE e))(NODE g)(NODE (NODE i)(NODE s))(NODE t)(NODE e)(NODE (NODE r)(NODE e))(NODE d)(NODE _)(NODE i)(NODE n)(NODE v)(NODE e)(NODE s)(NODE t)(NODE m)(NODE e)(NODE n)(NODE (NODE t)(NODE _)(NODE a))(NODE d)(NODE v)(NODE (NODE i)(NODE s))(NODE (NODE o)(NODE (NODE r)(NODE _)))(NODE (NODE o)(NODE (NODE r)(NODE _)))(NODE b)(NODE r)(NODE o)(NODE k)(NODE (NODE e)(NODE (NODE r)(NODE _)))(NODE -)(NODE _)(NODE d)(NODE e)(NODE a)(NODE l)(NODE (NODE e)(NODE (NODE r)(NODE _)))(NODE \n)) |ET| 
1  |BT| (NODE (NODE (NODE _)(NODE y))(NODE o)(NODE u)(NODE _)(NODE d)(NODE i)(NODE d)(NODE _)(NODE t)(NODE h)(NODE i)(NODE s)(NODE _)(NODE f)(NODE o)(NODE r)(NODE _)(NODE m)(NODE e)(NODE (NODE _)(NODE y))(NODE e)(NODE s)(NODE t)(NODE e)(NODE r)(NODE d)(NODE a)(NODE y)(NODE _)(NODE \n)) |ET| 
-0.8018242311123144894224878953537  |BT| (NODE (NODE g)(NODE (NODE o)(NODE _))(NODE i)(NODE n)(NODE t)(NODE (NODE o)(NODE _))(NODE s)(NODE e)(NODE x)(NODE u)(NODE a)(NODE l)(NODE _)(NODE o)(NODE (NODE v)(NODE e))(NODE r)(NODE d)(NODE r)(NODE i)(NODE (NODE v)(NODE e))(NODE _)(NODE t)(NODE o)(NODE d)(NODE a)(NODE y)(NODE _)(NODE \n)) |ET| 
1  |BT| (NODE (NODE p)(NODE a)(NODE y)(NODE (NODE n)(NODE e))(NODE (NODE (NODE (NODE _)(NODE /)(NODE _))(NODE h)(NODE (NODE o)(NODE u))(NODE (NODE _)(NODE /)(NODE _))(NODE (NODE e)(NODE c)(NODE t)(NODE _))(NODE @)(NODE _)(NODE (NODE e)(NODE c)(NODE t)(NODE _))(NODE ,))(NODE _))(NODE d)(NODE i)(NODE a)(NODE (NODE n)(NODE e))(NODE _)(NODE e)(NODE _)(NODE n)(NODE i)(NODE e)(NODE s)(NODE t)(NODE r)(NODE a)(NODE t)(NODE h)(NODE (NODE (NODE (NODE _)(NODE /)(NODE _))(NODE h)(NODE (NODE o)(NODE u))(NODE (NODE _)(NODE /)(NODE _))(NODE (NODE e)(NODE c)(NODE t)(NODE _))(NODE @)(NODE _)(NODE (NODE e)(NODE c)(NODE t)(NODE _))(NODE ,))(NODE _))(NODE r)(NODE o)(NODE m)(NODE e)(NODE o)(NODE _)(NODE d)(NODE _)(NODE ')(NODE _)(NODE s)(NODE (NODE o)(NODE u))(NODE z)(NODE a)(NODE (NODE (NODE _)(NODE /)(NODE _))(NODE h)(NODE (NODE o)(NODE u))(NODE (NODE _)(NODE /)(NODE _))(NODE (NODE e)(NODE c)(NODE t)(NODE _))(NODE @)(NODE _)(NODE (NODE e)(NODE c)(NODE t)(NODE _))(NODE ,))(NODE )(NODE \n)(NODE \n)) |ET| 
-0.82811536230428794969071759624057  |BT| (NODE (NODE t)(NODE i)(NODE r)(NODE e)(NODE (NODE d)(NODE _))(NODE o)(NODE f)(NODE (NODE _)(NODE (NODE t)(NODE h))(NODE (NODE e)(NODE _)))(NODE h)(NODE a)(NODE s)(NODE s)(NODE l)(NODE (NODE e)(NODE _))(NODE w)(NODE i)(NODE (NODE t)(NODE h))(NODE (NODE _)(NODE (NODE t)(NODE h))(NODE (NODE e)(NODE _)))(NODE i)(NODE n)(NODE s)(NODE u)(NODE r)(NODE (NODE a)(NODE n))(NODE c)(NODE (NODE e)(NODE _))(NODE c)(NODE o)(NODE m)(NODE p)(NODE (NODE a)(NODE n))(NODE i)(NODE e)(NODE (NODE s)(NODE _))(NODE (NODE a)(NODE n))(NODE (NODE d)(NODE _))(NODE d)(NODE o)(NODE c)(NODE t)(NODE o)(NODE r)(NODE (NODE s)(NODE _))(NODE !)(NODE )(NODE \n)(NODE \n)) |ET| 
1  |BT| (NODE (NODE (NODE _)(NODE t)(NODE h))(NODE e)(NODE (NODE r)(NODE e))(NODE _)(NODE w)(NODE a)(NODE s)(NODE (NODE _)(NODE n)(NODE o))(NODE (NODE _)(NODE n)(NODE o))(NODE m)(NODE (NODE i)(NODE n))(NODE (NODE a)(NODE t))(NODE i)(NODE o)(NODE n)(NODE _)(NODE f)(NODE o)(NODE r)(NODE _)(NODE (NODE r)(NODE e))(NODE l)(NODE i)(NODE a)(NODE n)(NODE (NODE t)(NODE _))(NODE (NODE a)(NODE t))(NODE (NODE _)(NODE t)(NODE h))(NODE i)(NODE s)(NODE _)(NODE p)(NODE o)(NODE (NODE i)(NODE n))(NODE (NODE t)(NODE _))(NODE (NODE i)(NODE n))(NODE (NODE _)(NODE n)(NODE o))(NODE v)(NODE e)(NODE m)(NODE b)(NODE e)(NODE r)(NODE )(NODE \n)(NODE \n)) |ET| 
-0.82867971594289047132519954175223  |BT| (NODE (NODE (NODE i)(NODE n))(NODE d)(NODE i)(NODE a)(NODE (NODE n)(NODE a))(NODE p)(NODE o)(NODE l)(NODE i)(NODE (NODE s)(NODE _))(NODE (NODE ,)(NODE _))(NODE (NODE i)(NODE n))(NODE (NODE _)(NODE -)(NODE _))(NODE p)(NODE a)(NODE r)(NODE t)(NODE n)(NODE e)(NODE r)(NODE s)(NODE h)(NODE i)(NODE p)(NODE (NODE s)(NODE _))(NODE w)(NODE i)(NODE t)(NODE h)(NODE _)(NODE (NODE c)(NODE o))(NODE c)(NODE a)(NODE (NODE _)(NODE -)(NODE _))(NODE (NODE c)(NODE o))(NODE l)(NODE a)(NODE _)(NODE (NODE ,)(NODE _))(NODE m)(NODE b)(NODE (NODE n)(NODE a))(NODE _)(NODE a)(NODE n)(NODE d)(NODE )(NODE \n)(NODE \n)) |ET| 
1  |BT| (NODE (NODE c)(NODE c)(NODE _)(NODE :)(NODE _)(NODE (NODE g)(NODE e))(NODE o)(NODE r)(NODE (NODE g)(NODE e))(NODE _)(NODE w)(NODE e)(NODE (NODE i)(NODE s)(NODE s))(NODE m)(NODE a)(NODE n)(NODE (NODE (NODE _)(NODE /)(NODE _))(NODE h)(NODE o)(NODE u)(NODE (NODE _)(NODE /)(NODE _))(NODE (NODE (NODE e)(NODE c)(NODE t))(NODE _))(NODE @)(NODE _))(NODE (NODE (NODE e)(NODE c)(NODE t))(NODE _))(NODE ,)(NODE _)(NODE m)(NODE e)(NODE l)(NODE (NODE i)(NODE s)(NODE s))(NODE a)(NODE _)(NODE g)(NODE r)(NODE a)(NODE v)(NODE e)(NODE s)(NODE (NODE (NODE _)(NODE /)(NODE _))(NODE h)(NODE o)(NODE u)(NODE (NODE _)(NODE /)(NODE _))(NODE (NODE (NODE e)(NODE c)(NODE t))(NODE _))(NODE @)(NODE _))(NODE (NODE e)(NODE c)(NODE t))(NODE )(NODE \n)(NODE \n)) |ET| 
-0.82816984766735168843609926625504  |BT| (NODE (NODE w)(NODE (NODE e)(NODE _))(NODE c)(NODE a)(NODE r)(NODE r)(NODE y)(NODE (NODE _)(NODE a))(NODE (NODE l)(NODE l)(NODE _))(NODE (NODE o)(NODE f)(NODE _)(NODE t)(NODE h)(NODE (NODE e)(NODE _)))(NODE (NODE w)(NODE e)(NODE (NODE l)(NODE l)(NODE _)))(NODE -)(NODE _)(NODE (NODE k)(NODE n)(NODE o)(NODE w)(NODE n)(NODE _))(NODE d)(NODE r)(NODE u)(NODE g)(NODE s)(NODE (NODE _)(NODE a))(NODE v)(NODE a)(NODE i)(NODE l)(NODE a)(NODE b)(NODE l)(NODE (NODE e)(NODE _))(NODE a)(NODE n)(NODE d)(NODE _)(NODE m)(NODE o)(NODE s)(NODE t)(NODE _)(NODE (NODE o)(NODE f)(NODE _)(NODE t)(NODE h)(NODE (NODE e)(NODE _)))(NODE u)(NODE n)(NODE (NODE k)(NODE n)(NODE o)(NODE w)(NODE n)(NODE _))(NODE a)(NODE s)(NODE _)(NODE (NODE w)(NODE e)(NODE (NODE l)(NODE l)(NODE _)))(NODE \n)) |ET| 
1  |BT| (NODE (NODE t)(NODE o)(NODE _)(NODE :)(NODE _)(NODE k)(NODE i)(NODE m)(NODE b)(NODE e)(NODE r)(NODE l)(NODE y)(NODE _)(NODE v)(NODE a)(NODE u)(NODE g)(NODE h)(NODE n)(NODE (NODE (NODE _)(NODE /)(NODE _))(NODE h)(NODE o)(NODE u)(NODE (NODE _)(NODE /)(NODE _))(NODE (NODE (NODE e)(NODE c)(NODE t))(NODE _))(NODE @)(NODE _))(NODE (NODE (NODE e)(NODE c)(NODE t))(NODE _))(NODE ,)(NODE _)(NODE a)(NODE n)(NODE i)(NODE t)(NODE a)(NODE _)(NODE l)(NODE u)(NODE o)(NODE n)(NODE g)(NODE (NODE (NODE _)(NODE /)(NODE _))(NODE h)(NODE o)(NODE u)(NODE (NODE _)(NODE /)(NODE _))(NODE (NODE (NODE e)(NODE c)(NODE t))(NODE _))(NODE @)(NODE _))(NODE (NODE e)(NODE c)(NODE t))(NODE )(NODE \n)(NODE \n)) |ET| 
-0.82798791632952972729952989539015  |BT| (NODE (NODE d)(NODE e)(NODE a)(NODE r)(NODE _)(NODE p)(NODE a)(NODE (NODE l)(NODE i))(NODE o)(NODE u)(NODE r)(NODE g)(NODE _)(NODE s)(NODE e)(NODE n)(NODE d)(NODE _)(NODE a)(NODE n)(NODE y)(NODE _)(NODE g)(NODE r)(NODE a)(NODE t)(NODE i)(NODE s)(NODE (NODE _)(NODE m)(NODE a)(NODE (NODE i)(NODE l)))(NODE _)(NODE h)(NODE e)(NODE r)(NODE e)(NODE (NODE _)(NODE m)(NODE a)(NODE (NODE i)(NODE l)))(NODE t)(NODE (NODE o)(NODE _))(NODE :)(NODE _)(NODE e)(NODE (NODE i)(NODE l))(NODE a)(NODE (NODE o)(NODE _))(NODE \9)(NODE \9)(NODE _)(NODE @)(NODE _)(NODE o)(NODE n)(NODE (NODE l)(NODE i))(NODE n)(NODE e)(NODE _)(NODE \n)) |ET| 
0.99999999999999988897769753748435  |BT| (NODE (NODE g)(NODE a)(NODE (NODE s)(NODE _))(NODE o)(NODE n)(NODE _)(NODE k)(NODE (NODE i)(NODE n)(NODE g)(NODE _))(NODE r)(NODE (NODE a)(NODE n))(NODE c)(NODE h)(NODE _)(NODE ,)(NODE (NODE _)(NODE i))(NODE t)(NODE (NODE (NODE _)(NODE i))(NODE (NODE s)(NODE _)))(NODE m)(NODE y)(NODE _)(NODE u)(NODE n)(NODE d)(NODE e)(NODE r)(NODE s)(NODE t)(NODE (NODE (NODE a)(NODE n))(NODE d))(NODE (NODE i)(NODE n)(NODE g)(NODE _))(NODE h)(NODE p)(NODE l)(NODE (NODE (NODE _)(NODE i))(NODE (NODE s)(NODE _)))(NODE s)(NODE e)(NODE l)(NODE l)(NODE (NODE i)(NODE n)(NODE g)(NODE _))(NODE t)(NODE h)(NODE e)(NODE _)(NODE l)(NODE i)(NODE q)(NODE u)(NODE i)(NODE d)(NODE (NODE s)(NODE _))(NODE (NODE (NODE a)(NODE n))(NODE d))(NODE )(NODE \n)(NODE \n)) |ET| 
-0.8280431464385767936775550879247  |BT| (NODE (NODE s)(NODE a)(NODE (NODE r)(NODE a))(NODE _)(NODE t)(NODE (NODE r)(NODE a))(NODE n)(NODE t)(NODE (NODE _)(NODE c))(NODE (NODE h)(NODE o))(NODE o)(NODE s)(NODE (NODE i)(NODE n))(NODE g)(NODE _)(NODE v)(NODE o)(NODE l)(NODE k)(NODE s)(NODE w)(NODE a)(NODE g)(NODE e)(NODE n)(NODE _)(NODE o)(NODE (NODE r)(NODE _))(NODE (NODE h)(NODE o))(NODE n)(NODE d)(NODE a)(NODE _)(NODE (NODE i)(NODE n))(NODE (NODE _)(NODE c))(NODE a)(NODE (NODE r)(NODE _))(NODE s)(NODE (NODE h)(NODE o))(NODE p)(NODE _)(NODE !)(NODE )(NODE \n)(NODE \n)) |ET| 
1  |BT| (NODE (NODE n)(NODE e)(NODE e)(NODE d)(NODE (NODE s)(NODE _))(NODE (NODE t)(NODE o)(NODE _))(NODE b)(NODE e)(NODE (NODE _)(NODE i)(NODE n))(NODE p)(NODE u)(NODE t)(NODE (NODE _)(NODE i)(NODE n))(NODE (NODE t)(NODE o)(NODE _))(NODE s)(NODE (NODE i)(NODE t))(NODE a)(NODE (NODE r)(NODE a))(NODE (NODE _)(NODE a))(NODE t)(NODE (NODE _)(NODE t)(NODE h)(NODE e))(NODE s)(NODE e)(NODE _)(NODE m)(NODE e)(NODE (NODE t)(NODE e))(NODE r)(NODE (NODE s)(NODE _))(NODE w)(NODE (NODE i)(NODE t))(NODE h)(NODE (NODE _)(NODE t)(NODE h)(NODE e))(NODE (NODE _)(NODE a))(NODE p)(NODE (NODE p)(NODE r))(NODE o)(NODE (NODE p)(NODE r))(NODE i)(NODE a)(NODE (NODE (NODE t)(NODE e))(NODE _))(NODE (NODE r)(NODE a))(NODE (NODE (NODE t)(NODE e))(NODE _))(NODE \n)) |ET| 
-0.82920183994377283376309151208261  |BT| (NODE (NODE w)(NODE i)(NODE l)(NODE l)(NODE _)(NODE (NODE a)(NODE l))(NODE s)(NODE o)(NODE _)(NODE s)(NODE u)(NODE p)(NODE e)(NODE (NODE r)(NODE _))(NODE \_)(NODE _)(NODE c)(NODE h)(NODE a)(NODE r)(NODE g)(NODE e)(NODE _)(NODE y)(NODE o)(NODE u)(NODE (NODE r)(NODE _))(NODE s)(NODE _)(NODE *)(NODE _)(NODE x)(NODE u)(NODE (NODE a)(NODE l))(NODE _)(NODE b)(NODE a)(NODE t)(NODE t)(NODE e)(NODE r)(NODE (NODE y)(NODE _))(NODE e)(NODE f)(NODE f)(NODE o)(NODE r)(NODE t)(NODE _)(NODE ;)(NODE _)(NODE l)(NODE e)(NODE s)(NODE s)(NODE l)(NODE (NODE y)(NODE _))(NODE \2)(NODE \4)(NODE _)(NODE /)(NODE _)(NODE \7)(NODE _)(NODE \n)) |ET| 
1  |BT| (NODE (NODE i)(NODE f)(NODE _)(NODE y)(NODE o)(NODE u)(NODE _)(NODE d)(NODE o)(NODE (NODE _)(NODE n))(NODE o)(NODE t)(NODE _)(NODE a)(NODE g)(NODE r)(NODE e)(NODE (NODE e)(NODE _))(NODE o)(NODE (NODE r)(NODE _))(NODE (NODE h)(NODE a))(NODE v)(NODE (NODE e)(NODE _))(NODE a)(NODE _)(NODE p)(NODE r)(NODE o)(NODE b)(NODE (NODE l)(NODE e))(NODE m)(NODE _)(NODE w)(NODE i)(NODE (NODE t)(NODE h))(NODE _)(NODE (NODE t)(NODE h))(NODE (NODE e)(NODE _))(NODE d)(NODE n)(NODE b)(NODE (NODE _)(NODE n))(NODE u)(NODE m)(NODE b)(NODE e)(NODE (NODE r)(NODE _))(NODE c)(NODE (NODE h)(NODE a))(NODE n)(NODE g)(NODE (NODE e)(NODE _))(NODE p)(NODE (NODE l)(NODE e))(NODE a)(NODE s)(NODE e)(NODE )(NODE \n)(NODE \n)) |ET| 
-0.82744052195426598395044948119903  |BT| (NODE (NODE o)(NODE n)(NODE l)(NODE y)(NODE (NODE _)(NODE s))(NODE y)(NODE s)(NODE t)(NODE e)(NODE m)(NODE _)(NODE (NODE t)(NODE h))(NODE a)(NODE t)(NODE _)(NODE d)(NODE o)(NODE e)(NODE s)(NODE _)(NODE e)(NODE v)(NODE e)(NODE r)(NODE y)(NODE (NODE t)(NODE h))(NODE i)(NODE n)(NODE g)(NODE _)(NODE f)(NODE o)(NODE r)(NODE (NODE _)(NODE y)(NODE o)(NODE u)(NODE _))(NODE ,)(NODE (NODE _)(NODE s))(NODE o)(NODE (NODE _)(NODE y)(NODE o)(NODE u)(NODE _))(NODE c)(NODE a)(NODE n)(NODE _)(NODE m)(NODE a)(NODE k)(NODE e)(NODE )(NODE \n)(NODE \n)) |ET| 
1  |BT| (NODE (NODE S)(NODE u)(NODE b)(NODE j)(NODE e)(NODE c)(NODE t)(NODE :)(NODE _)(NODE m)(NODE e)(NODE t)(NODE e)(NODE r)(NODE _)(NODE \7)(NODE \2)(NODE \6)(NODE \8)(NODE _)(NODE n)(NODE o)(NODE v)(NODE _)(NODE a)(NODE l)(NODE l)(NODE o)(NODE c)(NODE a)(NODE t)(NODE i)(NODE o)(NODE n)(NODE )(NODE \n)(NODE \n)) |ET| 
-0.8285857278593568020497173165495  |BT| (NODE (NODE \2)(NODE \2)(NODE _)(NODE a)(NODE l)(NODE r)(NODE _)(NODE (NODE \6)(NODE _))(NODE y)(NODE (NODE _)(NODE \9))(NODE (NODE \6)(NODE _))(NODE g)(NODE i)(NODE g)(NODE c)(NODE c)(NODE b)(NODE _)(NODE \4)(NODE (NODE _)(NODE i))(NODE (NODE _)(NODE \9))(NODE \9)(NODE \0)(NODE (NODE _)(NODE i))(NODE _)(NODE w)(NODE i)(NODE l)(NODE l)(NODE _)(NODE n)(NODE (NODE o)(NODE t))(NODE _)(NODE s)(NODE p)(NODE a)(NODE n)(NODE k)(NODE _)(NODE (NODE o)(NODE t))(NODE h)(NODE e)(NODE r)(NODE s)(NODE )(NODE \n)(NODE \n)) |ET| 
1  |BT| (NODE (NODE i)(NODE _)(NODE ')(NODE _)(NODE m)(NODE _)(NODE g)(NODE o)(NODE (NODE (NODE i)(NODE n))(NODE g)(NODE _))(NODE (NODE t)(NODE o))(NODE _)(NODE e)(NODE s)(NODE t)(NODE i)(NODE m)(NODE a)(NODE t)(NODE (NODE e)(NODE _))(NODE \4)(NODE (NODE _)(NODE ,)(NODE _))(NODE \5)(NODE (NODE \0)(NODE \0))(NODE _)(NODE c)(NODE o)(NODE m)(NODE (NODE (NODE i)(NODE n))(NODE g)(NODE _))(NODE u)(NODE p)(NODE _)(NODE (NODE t)(NODE o))(NODE m)(NODE o)(NODE r)(NODE r)(NODE o)(NODE w)(NODE (NODE _)(NODE ,)(NODE _))(NODE w)(NODE i)(NODE t)(NODE h)(NODE _)(NODE a)(NODE _)(NODE \2)(NODE (NODE _)(NODE ,)(NODE _))(NODE (NODE \0)(NODE \0))(NODE \0)(NODE _)(NODE (NODE i)(NODE n))(NODE c)(NODE r)(NODE (NODE e)(NODE a))(NODE s)(NODE (NODE e)(NODE _))(NODE (NODE e)(NODE a))(NODE c)(NODE h)(NODE )(NODE \n)(NODE \n)) |ET| 
-0.82795479923751669204534664459061  |BT| (NODE (NODE a)(NODE n)(NODE (NODE d)(NODE _)(NODE a)(NODE (NODE t)(NODE _)))(NODE e)(NODE i)(NODE g)(NODE h)(NODE t)(NODE (NODE y)(NODE _))(NODE o)(NODE u)(NODE r)(NODE _)(NODE p)(NODE r)(NODE o)(NODE d)(NODE u)(NODE c)(NODE t)(NODE i)(NODE o)(NODE n)(NODE _)(NODE h)(NODE (NODE a)(NODE s))(NODE _)(NODE n)(NODE o)(NODE r)(NODE m)(NODE a)(NODE l)(NODE l)(NODE (NODE y)(NODE _))(NODE d)(NODE i)(NODE m)(NODE i)(NODE n)(NODE i)(NODE s)(NODE h)(NODE e)(NODE (NODE d)(NODE _)(NODE a)(NODE (NODE t)(NODE _)))(NODE l)(NODE e)(NODE (NODE a)(NODE s))(NODE (NODE t)(NODE _))(NODE \9)(NODE \0)(NODE _)(NODE -)(NODE _)(NODE \9)(NODE \5)(NODE _)(NODE %)(NODE _)(NODE \n)) |ET| 
1  |BT| (NODE (NODE (NODE t)(NODE o))(NODE _)(NODE :)(NODE _)(NODE (NODE t)(NODE o))(NODE m)(NODE m)(NODE y)(NODE _)(NODE j)(NODE _)(NODE y)(NODE a)(NODE n)(NODE o)(NODE w)(NODE s)(NODE k)(NODE i)(NODE (NODE (NODE _)(NODE /)(NODE _))(NODE h)(NODE o)(NODE u)(NODE (NODE _)(NODE /)(NODE _))(NODE (NODE e)(NODE c)(NODE t)(NODE _))(NODE @)(NODE _)(NODE (NODE e)(NODE c)(NODE t)(NODE _))(NODE ,)(NODE _))(NODE k)(NODE a)(NODE t)(NODE h)(NODE (NODE r)(NODE y))(NODE n)(NODE _)(NODE b)(NODE u)(NODE s)(NODE s)(NODE e)(NODE l)(NODE l)(NODE (NODE (NODE _)(NODE /)(NODE _))(NODE h)(NODE o)(NODE u)(NODE (NODE _)(NODE /)(NODE _))(NODE (NODE e)(NODE c)(NODE t)(NODE _))(NODE @)(NODE _)(NODE (NODE e)(NODE c)(NODE t)(NODE _))(NODE ,)(NODE _))(NODE g)(NODE a)(NODE (NODE r)(NODE y))(NODE _)(NODE l)(NODE )(NODE \n)(NODE \n)) |ET| 
-0.82824558924212698940436894190498  |BT| (NODE (NODE b)(NODE u)(NODE s)(NODE (NODE i)(NODE n))(NODE e)(NODE s)(NODE (NODE s)(NODE _))(NODE (NODE i)(NODE n))(NODE _)(NODE y)(NODE (NODE o)(NODE u))(NODE r)(NODE _)(NODE c)(NODE (NODE o)(NODE u))(NODE n)(NODE t)(NODE r)(NODE y)(NODE _)(NODE w)(NODE i)(NODE t)(NODE h)(NODE _)(NODE f)(NODE o)(NODE (NODE r)(NODE e))(NODE i)(NODE g)(NODE n)(NODE (NODE e)(NODE r))(NODE (NODE s)(NODE _))(NODE a)(NODE (NODE s)(NODE _))(NODE s)(NODE h)(NODE a)(NODE (NODE r)(NODE e))(NODE _)(NODE -)(NODE _)(NODE h)(NODE o)(NODE l)(NODE d)(NODE (NODE e)(NODE r))(NODE s)(NODE )(NODE \n)(NODE \n)) |ET| 
1  |BT| (NODE (NODE h)(NODE a)(NODE v)(NODE (NODE (NODE e)(NODE _))(NODE c))(NODE u)(NODE r)(NODE r)(NODE e)(NODE n)(NODE t)(NODE l)(NODE y)(NODE _)(NODE (NODE i)(NODE n))(NODE p)(NODE u)(NODE (NODE t)(NODE _))(NODE a)(NODE _)(NODE p)(NODE o)(NODE (NODE i)(NODE n))(NODE (NODE t)(NODE _))(NODE n)(NODE (NODE o)(NODE m))(NODE _)(NODE o)(NODE n)(NODE _)(NODE k)(NODE r)(NODE g)(NODE p)(NODE _)(NODE t)(NODE (NODE o)(NODE _))(NODE a)(NODE c)(NODE c)(NODE (NODE o)(NODE m))(NODE o)(NODE d)(NODE a)(NODE t)(NODE (NODE e)(NODE _))(NODE t)(NODE h)(NODE i)(NODE s)(NODE _)(NODE f)(NODE l)(NODE o)(NODE w)(NODE _)(NODE ,)(NODE _)(NODE s)(NODE (NODE o)(NODE _))(NODE w)(NODE (NODE (NODE e)(NODE _))(NODE c))(NODE a)(NODE n)(NODE )(NODE \n)(NODE \n)) |ET| 
-0.82822525470688845850020243233303  |BT| (NODE (NODE w)(NODE (NODE o)(NODE r))(NODE l)(NODE d)(NODE s)(NODE (NODE _)(NODE f))(NODE i)(NODE r)(NODE s)(NODE t)(NODE _)(NODE d)(NODE e)(NODE r)(NODE m)(NODE a)(NODE l)(NODE (NODE _)(NODE p)(NODE _))(NODE (NODE ;)(NODE _))(NODE a)(NODE t)(NODE (NODE c)(NODE h))(NODE _)(NODE t)(NODE e)(NODE (NODE c)(NODE h))(NODE n)(NODE o)(NODE l)(NODE o)(NODE g)(NODE y)(NODE (NODE _)(NODE f))(NODE (NODE o)(NODE r))(NODE (NODE _)(NODE p)(NODE _))(NODE *)(NODE _)(NODE n)(NODE i)(NODE s)(NODE _)(NODE (NODE e)(NODE n))(NODE l)(NODE a)(NODE r)(NODE g)(NODE _)(NODE (NODE ;)(NODE _))(NODE m)(NODE (NODE e)(NODE n))(NODE t)(NODE )(NODE \n)(NODE \n)) |ET| 
1  |BT| (NODE (NODE (NODE _)(NODE f))(NODE o)(NODE (NODE r)(NODE e))(NODE s)(NODE (NODE t)(NODE _))(NODE o)(NODE (NODE i)(NODE l))(NODE _)(NODE -)(NODE _)(NODE (NODE t)(NODE h))(NODE e)(NODE (NODE r)(NODE e))(NODE _)(NODE i)(NODE s)(NODE (NODE _)(NODE a))(NODE _)(NODE p)(NODE r)(NODE o)(NODE c)(NODE e)(NODE s)(NODE s)(NODE i)(NODE n)(NODE g)(NODE (NODE _)(NODE a))(NODE g)(NODE (NODE r)(NODE e))(NODE e)(NODE m)(NODE e)(NODE n)(NODE (NODE t)(NODE _))(NODE (NODE t)(NODE h))(NODE a)(NODE (NODE t)(NODE _))(NODE w)(NODE (NODE i)(NODE l))(NODE l)(NODE (NODE _)(NODE a))(NODE c)(NODE c)(NODE o)(NODE m)(NODE o)(NODE d)(NODE a)(NODE t)(NODE e)(NODE (NODE _)(NODE f))(NODE l)(NODE o)(NODE w)(NODE )(NODE \n)(NODE \n)) |ET| 
-0.82831217955358438231883155822288  |BT| (NODE (NODE S)(NODE u)(NODE b)(NODE j)(NODE e)(NODE c)(NODE t)(NODE :)(NODE (NODE _)(NODE s))(NODE t)(NODE a)(NODE c)(NODE e)(NODE y)(NODE _)(NODE a)(NODE u)(NODE t)(NODE o)(NODE m)(NODE a)(NODE (NODE t)(NODE e))(NODE d)(NODE (NODE _)(NODE s))(NODE y)(NODE s)(NODE (NODE t)(NODE e))(NODE m)(NODE _)(NODE g)(NODE e)(NODE n)(NODE (NODE e)(NODE r))(NODE a)(NODE t)(NODE i)(NODE n)(NODE g)(NODE _)(NODE \8)(NODE _)(NODE (NODE k)(NODE _)(NODE p))(NODE (NODE e)(NODE r))(NODE _)(NODE w)(NODE e)(NODE e)(NODE (NODE k)(NODE _)(NODE p))(NODE a)(NODE (NODE r)(NODE a))(NODE l)(NODE l)(NODE e)(NODE l)(NODE o)(NODE g)(NODE (NODE r)(NODE a))(NODE m)(NODE )(NODE \n)(NODE \n)) |ET| 
1  |BT| (NODE (NODE s)(NODE u)(NODE b)(NODE (NODE m)(NODE i))(NODE t)(NODE (NODE _)(NODE f))(NODE u)(NODE t)(NODE u)(NODE r)(NODE (NODE e)(NODE _))(NODE n)(NODE o)(NODE (NODE m)(NODE i))(NODE n)(NODE a)(NODE t)(NODE i)(NODE o)(NODE n)(NODE s)(NODE (NODE _)(NODE v))(NODE i)(NODE a)(NODE _)(NODE (NODE e)(NODE _))(NODE -)(NODE _)(NODE m)(NODE a)(NODE i)(NODE l)(NODE _)(NODE ,)(NODE (NODE _)(NODE f))(NODE a)(NODE x)(NODE _)(NODE o)(NODE r)(NODE (NODE _)(NODE v))(NODE o)(NODE i)(NODE c)(NODE (NODE e)(NODE _))(NODE ?)(NODE _)(NODE t)(NODE h)(NODE a)(NODE n)(NODE k)(NODE s)(NODE _)(NODE \n)) |ET| 
-0.8278015735851321776905820115644  |BT| (NODE (NODE (NODE i)(NODE _)(NODE w)(NODE i)(NODE l)(NODE l)(NODE _)(NODE n)(NODE (NODE o)(NODE t))(NODE _)(NODE s)(NODE p)(NODE a)(NODE n)(NODE k)(NODE _)(NODE (NODE o)(NODE t))(NODE h)(NODE e)(NODE r)(NODE s))(NODE (NODE i)(NODE _)(NODE w)(NODE i)(NODE l)(NODE l)(NODE _)(NODE n)(NODE (NODE o)(NODE t))(NODE _)(NODE s)(NODE p)(NODE a)(NODE n)(NODE k)(NODE _)(NODE (NODE o)(NODE t))(NODE h)(NODE e)(NODE r)(NODE s))(NODE i)(NODE (NODE m)(NODE _))(NODE \9)(NODE \9)(NODE \4)(NODE \4)(NODE (NODE \2)(NODE _))(NODE (NODE m)(NODE _))(NODE \6)(NODE _)(NODE b)(NODE b)(NODE _)(NODE (NODE \2)(NODE _))(NODE y)(NODE _)(NODE \3)(NODE \8)(NODE \4)(NODE _)(NODE g)(NODE o)(NODE s)(NODE j)(NODE )(NODE \n)(NODE \n)) |ET| 
1  |BT| (NODE (NODE a)(NODE _)(NODE v)(NODE o)(NODE l)(NODE u)(NODE m)(NODE (NODE e)(NODE _))(NODE o)(NODE f)(NODE _)(NODE \7)(NODE \2)(NODE \4)(NODE \7)(NODE _)(NODE m)(NODE m)(NODE _)(NODE s)(NODE h)(NODE o)(NODE w)(NODE s)(NODE (NODE _)(NODE t)(NODE o)(NODE _))(NODE h)(NODE a)(NODE v)(NODE (NODE e)(NODE _))(NODE b)(NODE e)(NODE e)(NODE n)(NODE _)(NODE a)(NODE l)(NODE l)(NODE o)(NODE c)(NODE a)(NODE t)(NODE e)(NODE d)(NODE (NODE _)(NODE t)(NODE o)(NODE _))(NODE t)(NODE h)(NODE (NODE e)(NODE _))(NODE r)(NODE e)(NODE l)(NODE i)(NODE a)(NODE (NODE n)(NODE t))(NODE _)(NODE \2)(NODE \0)(NODE \1)(NODE _)(NODE c)(NODE o)(NODE (NODE n)(NODE t))(NODE r)(NODE a)(NODE c)(NODE t)(NODE )(NODE \n)(NODE \n)) |ET| 
-0.82799595193891617483927802823018  |BT| (NODE (NODE \0)(NODE (NODE \1)(NODE _))(NODE z)(NODE (NODE _)(NODE \9))(NODE _)(NODE g)(NODE (NODE _)(NODE \9))(NODE \0)(NODE _)(NODE o)(NODE (NODE j)(NODE _))(NODE \2)(NODE \1)(NODE (NODE \8)(NODE _))(NODE l)(NODE (NODE j)(NODE _))(NODE (NODE \8)(NODE _))(NODE i)(NODE _)(NODE w)(NODE i)(NODE l)(NODE l)(NODE _)(NODE n)(NODE o)(NODE t)(NODE _)(NODE b)(NODE u)(NODE r)(NODE p)(NODE _)(NODE (NODE i)(NODE n))(NODE _)(NODE c)(NODE l)(NODE a)(NODE s)(NODE s)(NODE (NODE _)(NODE \3))(NODE (NODE \1)(NODE _))(NODE j)(NODE k)(NODE (NODE r)(NODE _))(NODE (NODE \2)(NODE _))(NODE (NODE r)(NODE _))(NODE \9)(NODE _)(NODE v)(NODE y)(NODE m)(NODE (NODE _)(NODE \3))(NODE \1)(NODE (NODE \1)(NODE _))(NODE h)(NODE (NODE _)(NODE \3))(NODE (NODE \2)(NODE _))(NODE (NODE i)(NODE n))(NODE n)(NODE u)(NODE _)(NODE (NODE \2)(NODE _))(NODE m)(NODE _)(NODE \4)(NODE \4)(NODE )(NODE \n)(NODE \n)) |ET| 
1  |BT| (NODE (NODE w)(NODE (NODE o)(NODE u))(NODE l)(NODE d)(NODE _)(NODE y)(NODE (NODE o)(NODE u))(NODE _)(NODE p)(NODE l)(NODE e)(NODE a)(NODE (NODE s)(NODE e))(NODE _)(NODE (NODE s)(NODE e))(NODE (NODE e)(NODE _))(NODE t)(NODE h)(NODE a)(NODE t)(NODE _)(NODE s)(NODE o)(NODE m)(NODE e)(NODE (NODE o)(NODE n))(NODE (NODE e)(NODE _))(NODE c)(NODE (NODE o)(NODE n))(NODE t)(NODE a)(NODE c)(NODE t)(NODE (NODE s)(NODE _))(NODE l)(NODE i)(NODE (NODE n)(NODE d))(NODE a)(NODE (NODE _)(NODE a))(NODE (NODE n)(NODE d))(NODE (NODE _)(NODE a))(NODE d)(NODE v)(NODE i)(NODE (NODE s)(NODE e))(NODE (NODE s)(NODE _))(NODE h)(NODE e)(NODE r)(NODE _)(NODE h)(NODE o)(NODE w)(NODE _)(NODE t)(NODE o)(NODE )(NODE \n)(NODE \n)) |ET| 
-0.82818027123134796418923997407546  |BT| (NODE (NODE (NODE _)(NODE (NODE t)(NODE h))(NODE (NODE e)(NODE _)))(NODE (NODE m)(NODE o))(NODE s)(NODE (NODE t)(NODE _))(NODE c)(NODE o)(NODE n)(NODE v)(NODE (NODE e)(NODE n))(NODE i)(NODE (NODE (NODE e)(NODE n))(NODE (NODE t)(NODE _)))(NODE a)(NODE n)(NODE (NODE d)(NODE _))(NODE s)(NODE e)(NODE c)(NODE u)(NODE (NODE r)(NODE e))(NODE (NODE d)(NODE _))(NODE (NODE m)(NODE o))(NODE d)(NODE (NODE e)(NODE _))(NODE o)(NODE f)(NODE _)(NODE (NODE (NODE r)(NODE e))(NODE c))(NODE e)(NODE i)(NODE v)(NODE (NODE i)(NODE n))(NODE g)(NODE (NODE _)(NODE (NODE t)(NODE h))(NODE (NODE e)(NODE _)))(NODE f)(NODE u)(NODE n)(NODE d)(NODE s)(NODE _)(NODE w)(NODE i)(NODE (NODE t)(NODE h))(NODE (NODE o)(NODE u))(NODE (NODE t)(NODE _))(NODE (NODE o)(NODE u))(NODE r)(NODE _)(NODE d)(NODE i)(NODE (NODE (NODE r)(NODE e))(NODE c))(NODE (NODE t)(NODE _))(NODE (NODE i)(NODE n))(NODE v)(NODE o)(NODE l)(NODE v)(NODE e)(NODE m)(NODE (NODE (NODE e)(NODE n))(NODE (NODE t)(NODE _)))(NODE \n)) |ET| 
1  |BT| (NODE (NODE u)(NODE (NODE n)(NODE d))(NODE e)(NODE r)(NODE s)(NODE t)(NODE a)(NODE (NODE n)(NODE d))(NODE (NODE i)(NODE n))(NODE g)(NODE (NODE (NODE _)(NODE t))(NODE h))(NODE a)(NODE t)(NODE (NODE (NODE _)(NODE t))(NODE h))(NODE i)(NODE (NODE s)(NODE _))(NODE a)(NODE g)(NODE r)(NODE e)(NODE e)(NODE m)(NODE e)(NODE (NODE n)(NODE t))(NODE _)(NODE w)(NODE a)(NODE (NODE s)(NODE _))(NODE o)(NODE r)(NODE i)(NODE g)(NODE (NODE i)(NODE n))(NODE a)(NODE l)(NODE l)(NODE y)(NODE _)(NODE s)(NODE e)(NODE t)(NODE u)(NODE p)(NODE _)(NODE u)(NODE (NODE n)(NODE t))(NODE i)(NODE l)(NODE (NODE _)(NODE t))(NODE e)(NODE x)(NODE a)(NODE c)(NODE o)(NODE _)(NODE h)(NODE a)(NODE d)(NODE )(NODE \n)(NODE \n)) |ET| 
-0.82821973029662498966274597478332  |BT| (NODE (NODE (NODE i)(NODE n))(NODE d)(NODE i)(NODE a)(NODE (NODE n)(NODE a))(NODE p)(NODE o)(NODE (NODE l)(NODE i))(NODE (NODE s)(NODE _))(NODE ,)(NODE (NODE _)(NODE (NODE i)(NODE n)))(NODE _)(NODE -)(NODE _)(NODE (NODE n)(NODE a))(NODE s)(NODE c)(NODE a)(NODE (NODE r)(NODE (NODE _)(NODE s)))(NODE i)(NODE (NODE l)(NODE i))(NODE c)(NODE o)(NODE n)(NODE _)(NODE m)(NODE o)(NODE (NODE t)(NODE o))(NODE (NODE r)(NODE (NODE _)(NODE s)))(NODE p)(NODE e)(NODE (NODE e)(NODE d))(NODE w)(NODE a)(NODE y)(NODE _)(NODE ?)(NODE (NODE _)(NODE s))(NODE i)(NODE m)(NODE u)(NODE l)(NODE a)(NODE (NODE t)(NODE o))(NODE r)(NODE (NODE s)(NODE _))(NODE (NODE t)(NODE o))(NODE _)(NODE b)(NODE e)(NODE (NODE _)(NODE (NODE i)(NODE n)))(NODE s)(NODE t)(NODE a)(NODE l)(NODE l)(NODE (NODE e)(NODE d))(NODE _)(NODE a)(NODE t)(NODE (NODE _)(NODE s))(NODE t)(NODE _)(NODE \n)) |ET| 
1  |BT| (NODE (NODE i)(NODE _)(NODE (NODE h)(NODE a))(NODE v)(NODE (NODE e)(NODE _))(NODE t)(NODE o)(NODE _)(NODE c)(NODE r)(NODE e)(NODE a)(NODE t)(NODE (NODE e)(NODE _))(NODE a)(NODE c)(NODE c)(NODE o)(NODE u)(NODE (NODE n)(NODE t))(NODE i)(NODE (NODE n)(NODE g))(NODE (NODE _)(NODE a))(NODE r)(NODE r)(NODE a)(NODE (NODE n)(NODE g))(NODE e)(NODE m)(NODE e)(NODE (NODE n)(NODE t))(NODE _)(NODE f)(NODE o)(NODE r)(NODE _)(NODE p)(NODE u)(NODE r)(NODE c)(NODE (NODE h)(NODE a))(NODE s)(NODE (NODE e)(NODE _))(NODE f)(NODE r)(NODE o)(NODE m)(NODE _)(NODE u)(NODE n)(NODE o)(NODE c)(NODE a)(NODE l)(NODE _)(NODE e)(NODE n)(NODE e)(NODE r)(NODE g)(NODE y)(NODE (NODE _)(NODE a))(NODE t)(NODE )(NODE \n)(NODE \n)) |ET| 
-0.82795624872294493190594266707194  |BT| (NODE (NODE l)(NODE a)(NODE s)(NODE (NODE t)(NODE _))(NODE m)(NODE i)(NODE r)(NODE a)(NODE c)(NODE u)(NODE l)(NODE o)(NODE u)(NODE (NODE s)(NODE (NODE _)(NODE a))(NODE n)(NODE d)(NODE _))(NODE i)(NODE m)(NODE a)(NODE g)(NODE i)(NODE n)(NODE a)(NODE t)(NODE i)(NODE v)(NODE e)(NODE (NODE _)(NODE a))(NODE d)(NODE u)(NODE i)(NODE (NODE t)(NODE _))(NODE g)(NODE a)(NODE l)(NODE l)(NODE e)(NODE r)(NODE i)(NODE e)(NODE (NODE s)(NODE (NODE _)(NODE a))(NODE n)(NODE d)(NODE _))(NODE v)(NODE i)(NODE d)(NODE e)(NODE o)(NODE s)(NODE (NODE _)(NODE f)(NODE r))(NODE o)(NODE m)(NODE (NODE _)(NODE f)(NODE r))(NODE a)(NODE n)(NODE k)(NODE _)(NODE c)(NODE a)(NODE m)(NODE b)(NODE e)(NODE l)(NODE _)(NODE \n)) |ET| 
1  |BT| (NODE (NODE p)(NODE l)(NODE e)(NODE a)(NODE (NODE s)(NODE (NODE e)(NODE _)))(NODE m)(NODE a)(NODE k)(NODE (NODE e)(NODE _))(NODE s)(NODE u)(NODE (NODE r)(NODE (NODE e)(NODE _)))(NODE (NODE t)(NODE h)(NODE e))(NODE (NODE s)(NODE (NODE e)(NODE _)))(NODE v)(NODE o)(NODE l)(NODE u)(NODE m)(NODE e)(NODE s)(NODE _)(NODE a)(NODE (NODE r)(NODE (NODE e)(NODE _)))(NODE m)(NODE o)(NODE v)(NODE e)(NODE d)(NODE _)(NODE o)(NODE f)(NODE f)(NODE _)(NODE (NODE t)(NODE h)(NODE e))(NODE _)(NODE r)(NODE e)(NODE l)(NODE i)(NODE a)(NODE (NODE n)(NODE t))(NODE _)(NODE c)(NODE o)(NODE (NODE n)(NODE t))(NODE r)(NODE a)(NODE c)(NODE t)(NODE _)(NODE p)(NODE r)(NODE i)(NODE o)(NODE r)(NODE _)(NODE t)(NODE o)(NODE )(NODE \n)(NODE \n)) |ET| 
-0.8281286530992820749119687206985  |BT| (NODE (NODE (NODE i)(NODE n))(NODE d)(NODE i)(NODE a)(NODE n)(NODE a)(NODE p)(NODE o)(NODE l)(NODE i)(NODE (NODE s)(NODE _))(NODE ,)(NODE (NODE (NODE _)(NODE (NODE i)(NODE n)))(NODE _))(NODE -)(NODE _)(NODE r)(NODE a)(NODE c)(NODE (NODE e)(NODE _))(NODE c)(NODE a)(NODE r)(NODE (NODE _)(NODE s)(NODE i)(NODE m)(NODE u)(NODE (NODE l)(NODE a)(NODE t))(NODE (NODE o)(NODE r))(NODE (NODE s)(NODE _)))(NODE ?)(NODE (NODE _)(NODE (NODE i)(NODE n)))(NODE k)(NODE (NODE s)(NODE _))(NODE t)(NODE h)(NODE (NODE e)(NODE _))(NODE s)(NODE (NODE a)(NODE l))(NODE (NODE e)(NODE _))(NODE o)(NODE f)(NODE _)(NODE e)(NODE i)(NODE g)(NODE h)(NODE t)(NODE (NODE _)(NODE s)(NODE i)(NODE m)(NODE u)(NODE (NODE l)(NODE a)(NODE t))(NODE (NODE o)(NODE r))(NODE (NODE s)(NODE _)))(NODE f)(NODE (NODE o)(NODE r))(NODE (NODE _)(NODE (NODE i)(NODE n)))(NODE s)(NODE t)(NODE (NODE a)(NODE l))(NODE (NODE l)(NODE a)(NODE t))(NODE i)(NODE o)(NODE n)(NODE (NODE (NODE _)(NODE (NODE i)(NODE n)))(NODE _))(NODE m)(NODE o)(NODE s)(NODE c)(NODE o)(NODE w)(NODE )(NODE \n)(NODE \n)) |ET| 
1  |BT| (NODE (NODE a)(NODE g)(NODE a)(NODE i)(NODE (NODE n)(NODE _))(NODE w)(NODE (NODE e)(NODE _))(NODE n)(NODE e)(NODE e)(NODE d)(NODE _)(NODE t)(NODE o)(NODE (NODE _)(NODE a))(NODE c)(NODE c)(NODE o)(NODE m)(NODE o)(NODE d)(NODE a)(NODE t)(NODE (NODE e)(NODE _))(NODE (NODE (NODE t)(NODE h))(NODE (NODE e)(NODE _)))(NODE f)(NODE l)(NODE o)(NODE w)(NODE _)(NODE v)(NODE o)(NODE l)(NODE u)(NODE m)(NODE (NODE e)(NODE _))(NODE o)(NODE (NODE n)(NODE _))(NODE (NODE (NODE t)(NODE h))(NODE (NODE e)(NODE _)))(NODE h)(NODE p)(NODE l)(NODE _)(NODE p)(NODE i)(NODE p)(NODE (NODE e)(NODE _))(NODE w)(NODE (NODE i)(NODE (NODE t)(NODE h)))(NODE _)(NODE e)(NODE (NODE i)(NODE (NODE t)(NODE h)))(NODE e)(NODE r)(NODE (NODE _)(NODE a))(NODE )(NODE \n)(NODE \n)) |ET| 
-0.82840463225851423967327491482138  |BT| (NODE (NODE (NODE i)(NODE n))(NODE (NODE d)(NODE i)(NODE a))(NODE n)(NODE a)(NODE p)(NODE o)(NODE l)(NODE i)(NODE (NODE s)(NODE _))(NODE ,)(NODE _)(NODE (NODE i)(NODE n))(NODE _)(NODE -)(NODE _)(NODE (NODE i)(NODE m))(NODE t)(NODE (NODE s)(NODE _))(NODE (NODE f)(NODE (NODE o)(NODE r)))(NODE m)(NODE (NODE s)(NODE _))(NODE n)(NODE e)(NODE w)(NODE (NODE _)(NODE s))(NODE u)(NODE b)(NODE s)(NODE i)(NODE (NODE d)(NODE i)(NODE a))(NODE r)(NODE y)(NODE _)(NODE (NODE f)(NODE (NODE o)(NODE r)))(NODE _)(NODE m)(NODE (NODE a)(NODE n))(NODE u)(NODE f)(NODE (NODE a)(NODE c))(NODE t)(NODE u)(NODE r)(NODE (NODE i)(NODE n))(NODE g)(NODE _)(NODE (NODE a)(NODE n))(NODE d)(NODE (NODE _)(NODE s))(NODE a)(NODE l)(NODE e)(NODE (NODE s)(NODE _))(NODE o)(NODE f)(NODE _)(NODE r)(NODE (NODE a)(NODE c))(NODE e)(NODE _)(NODE c)(NODE a)(NODE r)(NODE (NODE _)(NODE s))(NODE (NODE i)(NODE m))(NODE u)(NODE l)(NODE a)(NODE t)(NODE (NODE o)(NODE r))(NODE s)(NODE )(NODE \n)(NODE \n)) |ET| 
1  |BT| (NODE (NODE h)(NODE i)(NODE g)(NODE h)(NODE _)(NODE i)(NODE s)(NODE (NODE l)(NODE a))(NODE n)(NODE (NODE d)(NODE _))(NODE (NODE l)(NODE a))(NODE r)(NODE g)(NODE (NODE e)(NODE r))(NODE _)(NODE b)(NODE l)(NODE o)(NODE c)(NODE k)(NODE (NODE _)(NODE a))(NODE _)(NODE -)(NODE _)(NODE \1)(NODE _)(NODE #)(NODE _)(NODE \2)(NODE _)(NODE \()(NODE _)(NODE p)(NODE (NODE r)(NODE e))(NODE v)(NODE i)(NODE (NODE o)(NODE u)(NODE s)(NODE l)(NODE y)(NODE _))(NODE ,)(NODE _)(NODE (NODE (NODE e)(NODE r))(NODE r))(NODE o)(NODE n)(NODE e)(NODE (NODE o)(NODE u)(NODE s)(NODE l)(NODE y)(NODE _))(NODE (NODE r)(NODE e))(NODE f)(NODE (NODE (NODE e)(NODE r))(NODE r))(NODE e)(NODE (NODE d)(NODE _))(NODE t)(NODE o)(NODE (NODE _)(NODE a))(NODE s)(NODE _)(NODE t)(NODE h)(NODE e)(NODE )(NODE \n)(NODE \n)) |ET| 
-0.82830869056183620280364721111255  |BT| (NODE (NODE _)(NODE (NODE i)(NODE s))(NODE p)(NODE (NODE _)(NODE a))(NODE c)(NODE (NODE c)(NODE e))(NODE p)(NODE t)(NODE (NODE s)(NODE _))(NODE n)(NODE o)(NODE _)(NODE (NODE (NODE l)(NODE i))(NODE a))(NODE b)(NODE i)(NODE (NODE l)(NODE i))(NODE t)(NODE (NODE y)(NODE _))(NODE f)(NODE (NODE o)(NODE r))(NODE (NODE (NODE _)(NODE a))(NODE n))(NODE (NODE y)(NODE _))(NODE l)(NODE o)(NODE s)(NODE (NODE s)(NODE _))(NODE a)(NODE r)(NODE (NODE i)(NODE s))(NODE (NODE i)(NODE n))(NODE g)(NODE _)(NODE f)(NODE r)(NODE o)(NODE m)(NODE (NODE (NODE _)(NODE a))(NODE n))(NODE _)(NODE (NODE i)(NODE n))(NODE v)(NODE e)(NODE s)(NODE t)(NODE (NODE o)(NODE r))(NODE _)(NODE ')(NODE _)(NODE (NODE s)(NODE _))(NODE (NODE r)(NODE e))(NODE (NODE (NODE l)(NODE i))(NODE a))(NODE n)(NODE (NODE c)(NODE e))(NODE (NODE _)(NODE o))(NODE n)(NODE (NODE _)(NODE o))(NODE r)(NODE _)(NODE u)(NODE s)(NODE e)(NODE (NODE _)(NODE o))(NODE f)(NODE _)(NODE t)(NODE h)(NODE (NODE i)(NODE s))(NODE _)(NODE (NODE r)(NODE e))(NODE p)(NODE (NODE o)(NODE r))(NODE t)(NODE _)(NODE \n)) |ET| 
1  |BT| (NODE (NODE (NODE t)(NODE h))(NODE e)(NODE s)(NODE (NODE e)(NODE _))(NODE (NODE w)(NODE e)(NODE r)(NODE (NODE e)(NODE _)))(NODE b)(NODE u)(NODE y)(NODE b)(NODE a)(NODE c)(NODE k)(NODE s)(NODE _)(NODE (NODE t)(NODE h))(NODE (NODE a)(NODE t))(NODE _)(NODE (NODE w)(NODE e)(NODE r)(NODE (NODE e)(NODE _)))(NODE (NODE i)(NODE n))(NODE c)(NODE (NODE o)(NODE r))(NODE r)(NODE e)(NODE (NODE c)(NODE t))(NODE l)(NODE y)(NODE _)(NODE n)(NODE o)(NODE m)(NODE (NODE i)(NODE n))(NODE (NODE a)(NODE t))(NODE e)(NODE d)(NODE (NODE _)(NODE t))(NODE o)(NODE (NODE _)(NODE t))(NODE (NODE r)(NODE a))(NODE n)(NODE s)(NODE p)(NODE (NODE o)(NODE r))(NODE t)(NODE _)(NODE c)(NODE o)(NODE n)(NODE t)(NODE (NODE r)(NODE a))(NODE (NODE c)(NODE t))(NODE s)(NODE )(NODE \n)(NODE \n)) |ET| 
-0.82799401609646239297291003822465  |BT| (NODE (NODE (NODE i)(NODE n))(NODE d)(NODE (NODE i)(NODE a))(NODE (NODE n)(NODE a))(NODE p)(NODE o)(NODE (NODE l)(NODE i))(NODE (NODE s)(NODE _))(NODE (NODE ,)(NODE _))(NODE (NODE i)(NODE n))(NODE _)(NODE -)(NODE _)(NODE (NODE n)(NODE a))(NODE s)(NODE (NODE c)(NODE a))(NODE (NODE r)(NODE (NODE _)(NODE s)))(NODE i)(NODE (NODE l)(NODE i))(NODE c)(NODE o)(NODE n)(NODE (NODE _)(NODE m)(NODE o))(NODE (NODE t)(NODE o))(NODE (NODE r)(NODE (NODE _)(NODE s)))(NODE p)(NODE e)(NODE (NODE e)(NODE d))(NODE w)(NODE a)(NODE (NODE y)(NODE _))(NODE ?)(NODE _)(NODE e)(NODE x)(NODE p)(NODE a)(NODE n)(NODE d)(NODE (NODE s)(NODE _))(NODE (NODE t)(NODE o))(NODE (NODE _)(NODE m)(NODE o))(NODE n)(NODE t)(NODE (NODE e)(NODE r))(NODE e)(NODE (NODE y)(NODE _))(NODE (NODE ,)(NODE _))(NODE (NODE c)(NODE a))(NODE (NODE l)(NODE i))(NODE f)(NODE o)(NODE r)(NODE n)(NODE (NODE i)(NODE a))(NODE _)(NODE ')(NODE (NODE _)(NODE s))(NODE _)(NODE f)(NODE a)(NODE m)(NODE (NODE e)(NODE d))(NODE _)(NODE (NODE c)(NODE a))(NODE n)(NODE n)(NODE (NODE e)(NODE r))(NODE (NODE y)(NODE _))(NODE r)(NODE o)(NODE w)(NODE )(NODE \n)(NODE \n)) |ET| 
1  |BT| (NODE (NODE (NODE a)(NODE t)(NODE _))(NODE w)(NODE h)(NODE (NODE a)(NODE t)(NODE _))(NODE m)(NODE e)(NODE (NODE t)(NODE e))(NODE r)(NODE _)(NODE (NODE i)(NODE (NODE s)(NODE _)))(NODE h)(NODE p)(NODE l)(NODE _)(NODE b)(NODE u)(NODE y)(NODE i)(NODE n)(NODE g)(NODE (NODE _)(NODE (NODE t)(NODE h)))(NODE (NODE e)(NODE _))(NODE r)(NODE e)(NODE s)(NODE i)(NODE d)(NODE u)(NODE (NODE (NODE e)(NODE _))(NODE g)(NODE a)(NODE (NODE s)(NODE _)))(NODE ?)(NODE _)(NODE \()(NODE (NODE _)(NODE (NODE t)(NODE h)))(NODE (NODE i)(NODE (NODE s)(NODE _)))(NODE (NODE i)(NODE (NODE s)(NODE _)))(NODE (NODE t)(NODE h))(NODE (NODE (NODE e)(NODE _))(NODE g)(NODE a)(NODE (NODE s)(NODE _)))(NODE f)(NODE r)(NODE o)(NODE m)(NODE _)(NODE (NODE t)(NODE e))(NODE c)(NODE o)(NODE _)(NODE ,)(NODE )(NODE \n)(NODE \n)) |ET| 
-0.82783645448167741953682252642466  |BT| (NODE (NODE (NODE i)(NODE n))(NODE d)(NODE i)(NODE a)(NODE (NODE n)(NODE a))(NODE p)(NODE o)(NODE (NODE l)(NODE i))(NODE (NODE s)(NODE _))(NODE ,)(NODE _)(NODE (NODE i)(NODE n))(NODE _)(NODE (NODE -)(NODE _))(NODE (NODE (NODE n)(NODE a))(NODE s)(NODE c)(NODE a))(NODE (NODE (NODE r)(NODE _))(NODE s))(NODE i)(NODE (NODE (NODE l)(NODE i))(NODE c))(NODE (NODE o)(NODE n))(NODE _)(NODE m)(NODE o)(NODE (NODE t)(NODE o))(NODE (NODE (NODE r)(NODE _))(NODE s))(NODE (NODE p)(NODE e))(NODE e)(NODE d)(NODE w)(NODE a)(NODE y)(NODE _)(NODE ?)(NODE _)(NODE o)(NODE (NODE p)(NODE e))(NODE r)(NODE a)(NODE (NODE t)(NODE o))(NODE (NODE r)(NODE _))(NODE g)(NODE e)(NODE t)(NODE (NODE s)(NODE _))(NODE (NODE e)(NODE x))(NODE c)(NODE l)(NODE u)(NODE s)(NODE (NODE i)(NODE v)(NODE (NODE e)(NODE _)))(NODE f)(NODE (NODE i)(NODE v)(NODE (NODE e)(NODE _)))(NODE (NODE -)(NODE _))(NODE y)(NODE e)(NODE a)(NODE (NODE r)(NODE _))(NODE (NODE (NODE n)(NODE a))(NODE s)(NODE c)(NODE a))(NODE (NODE r)(NODE _))(NODE (NODE (NODE l)(NODE i))(NODE c))(NODE (NODE e)(NODE n)(NODE s))(NODE (NODE e)(NODE _))(NODE (NODE e)(NODE x))(NODE t)(NODE (NODE e)(NODE n)(NODE s))(NODE i)(NODE (NODE o)(NODE n))(NODE )(NODE \n)(NODE \n)) |ET| 
1  |BT| (NODE (NODE _)(NODE c)(NODE (NODE a)(NODE g))(NODE (NODE e)(NODE _))(NODE r)(NODE a)(NODE (NODE n)(NODE c))(NODE h)(NODE _)(NODE -)(NODE _)(NODE (NODE s)(NODE i))(NODE (NODE n)(NODE c))(NODE (NODE e)(NODE _))(NODE (NODE t)(NODE h))(NODE e)(NODE r)(NODE (NODE e)(NODE _))(NODE (NODE i)(NODE s))(NODE _)(NODE n)(NODE o)(NODE _)(NODE p)(NODE r)(NODE o)(NODE c)(NODE (NODE e)(NODE s))(NODE (NODE s)(NODE i))(NODE n)(NODE g)(NODE _)(NODE (NODE a)(NODE g))(NODE r)(NODE e)(NODE e)(NODE m)(NODE e)(NODE n)(NODE (NODE t)(NODE _))(NODE (NODE t)(NODE h))(NODE a)(NODE (NODE t)(NODE _))(NODE a)(NODE c)(NODE c)(NODE o)(NODE m)(NODE o)(NODE d)(NODE a)(NODE t)(NODE (NODE e)(NODE s))(NODE _)(NODE (NODE t)(NODE h))(NODE (NODE i)(NODE s))(NODE )(NODE \n)(NODE \n)) |ET| 
-0.82818467558046438004026867929497  |BT| (NODE (NODE (NODE i)(NODE n))(NODE d)(NODE i)(NODE a)(NODE (NODE n)(NODE a))(NODE p)(NODE o)(NODE (NODE l)(NODE i))(NODE (NODE s)(NODE _))(NODE ,)(NODE (NODE _)(NODE (NODE i)(NODE n)))(NODE _)(NODE -)(NODE _)(NODE (NODE n)(NODE a))(NODE s)(NODE c)(NODE a)(NODE (NODE r)(NODE (NODE _)(NODE s)))(NODE i)(NODE (NODE l)(NODE i))(NODE c)(NODE (NODE o)(NODE n))(NODE _)(NODE m)(NODE o)(NODE (NODE t)(NODE o))(NODE (NODE r)(NODE (NODE _)(NODE s)))(NODE p)(NODE e)(NODE e)(NODE d)(NODE w)(NODE a)(NODE y)(NODE _)(NODE ?)(NODE (NODE _)(NODE s))(NODE i)(NODE m)(NODE u)(NODE l)(NODE a)(NODE (NODE t)(NODE o))(NODE r)(NODE (NODE s)(NODE _))(NODE g)(NODE o)(NODE (NODE _)(NODE (NODE i)(NODE n)))(NODE t)(NODE e)(NODE r)(NODE (NODE n)(NODE a))(NODE t)(NODE i)(NODE (NODE o)(NODE n))(NODE a)(NODE l)(NODE )(NODE \n)(NODE \n)) |ET| 
1  |BT| (NODE (NODE i)(NODE f)(NODE (NODE _)(NODE t)(NODE h))(NODE (NODE i)(NODE (NODE s)(NODE _)))(NODE g)(NODE a)(NODE (NODE s)(NODE _))(NODE (NODE i)(NODE (NODE s)(NODE _)))(NODE (NODE n)(NODE o))(NODE (NODE t)(NODE _))(NODE (NODE n)(NODE o))(NODE m)(NODE i)(NODE n)(NODE a)(NODE t)(NODE e)(NODE d)(NODE (NODE _)(NODE o)(NODE n))(NODE (NODE _)(NODE t)(NODE h))(NODE (NODE e)(NODE _))(NODE a)(NODE b)(NODE o)(NODE v)(NODE (NODE e)(NODE _))(NODE t)(NODE r)(NODE a)(NODE n)(NODE s)(NODE p)(NODE o)(NODE r)(NODE (NODE t)(NODE _))(NODE a)(NODE g)(NODE r)(NODE e)(NODE e)(NODE m)(NODE (NODE e)(NODE n))(NODE (NODE t)(NODE _))(NODE ,)(NODE (NODE _)(NODE t)(NODE h))(NODE (NODE e)(NODE n))(NODE (NODE _)(NODE o)(NODE n))(NODE c)(NODE e)(NODE )(NODE \n)(NODE \n)) |ET| 
-0.8278819172037700235833312945033  |BT| (NODE (NODE (NODE i)(NODE n))(NODE d)(NODE i)(NODE a)(NODE (NODE n)(NODE a))(NODE (NODE p)(NODE o))(NODE (NODE l)(NODE i))(NODE (NODE (NODE s)(NODE _))(NODE ,)(NODE _)(NODE (NODE i)(NODE n)))(NODE _)(NODE -)(NODE _)(NODE (NODE n)(NODE a))(NODE s)(NODE c)(NODE a)(NODE (NODE r)(NODE (NODE _)(NODE s)))(NODE i)(NODE (NODE (NODE l)(NODE i))(NODE c))(NODE o)(NODE n)(NODE _)(NODE (NODE m)(NODE o)(NODE t)(NODE o))(NODE (NODE r)(NODE (NODE _)(NODE s)))(NODE (NODE p)(NODE (NODE e)(NODE e))(NODE d)(NODE w)(NODE a)(NODE y)(NODE _))(NODE ?)(NODE _)(NODE r)(NODE (NODE e)(NODE n))(NODE e)(NODE w)(NODE (NODE s)(NODE _))(NODE (NODE (NODE l)(NODE i))(NODE c))(NODE (NODE e)(NODE n))(NODE s)(NODE (NODE i)(NODE n))(NODE g)(NODE _)(NODE a)(NODE g)(NODE r)(NODE (NODE e)(NODE e))(NODE m)(NODE (NODE e)(NODE n))(NODE t)(NODE _)(NODE w)(NODE i)(NODE t)(NODE h)(NODE (NODE _)(NODE s))(NODE (NODE p)(NODE (NODE e)(NODE e))(NODE d)(NODE w)(NODE a)(NODE y)(NODE _))(NODE (NODE m)(NODE o)(NODE t)(NODE o))(NODE r)(NODE s)(NODE (NODE p)(NODE o))(NODE r)(NODE t)(NODE (NODE (NODE s)(NODE _))(NODE ,)(NODE _)(NODE (NODE i)(NODE n)))(NODE c)(NODE _)(NODE \n)) |ET| 
1  |BT| (NODE (NODE (NODE (NODE t)(NODE h))(NODE e))(NODE (NODE r)(NODE e)(NODE _))(NODE a)(NODE (NODE r)(NODE e)(NODE _))(NODE t)(NODE w)(NODE o)(NODE _)(NODE (NODE f)(NODE i))(NODE e)(NODE l)(NODE d)(NODE (NODE s)(NODE _))(NODE o)(NODE f)(NODE _)(NODE g)(NODE a)(NODE (NODE s)(NODE _))(NODE (NODE t)(NODE h))(NODE a)(NODE t)(NODE (NODE _)(NODE i))(NODE _)(NODE a)(NODE m)(NODE _)(NODE h)(NODE a)(NODE v)(NODE i)(NODE n)(NODE g)(NODE _)(NODE d)(NODE (NODE i)(NODE f))(NODE (NODE f)(NODE i))(NODE c)(NODE u)(NODE l)(NODE t)(NODE y)(NODE _)(NODE w)(NODE i)(NODE (NODE t)(NODE h))(NODE (NODE _)(NODE i))(NODE n)(NODE _)(NODE (NODE (NODE t)(NODE h))(NODE e))(NODE _)(NODE u)(NODE n)(NODE (NODE i)(NODE f))(NODE y)(NODE )(NODE \n)(NODE \n)) |ET| 
